3.600000000000000000e+01,5.000000000000000000e+01,5.000000000000000000e+01,1.000000000000000000e+01
3.724509663824733252e-01,-5.113715271292461617e-01,2.896119519363068995e-01,4.333019321274388935e-01,-3.673628510115695689e-01,1.292886292008159632e-01,-1.781858637283467370e-02,-4.545015949074280304e-01,2.352479526715382241e-01,5.220926146934689038e-01,4.949057403889384754e-01,5.087525031687329946e-01,6.454285844890221835e-01,-2.356105944656741447e-01,-8.830003819593318370e-01,3.413221929000950228e-01,2.620784102696876658e-02,-6.473867690930260599e-01,1.628224861983082515e-03,3.532865839935631080e-01,3.694643878268726311e-01,-4.919885385916092368e-02,8.764383657894211366e-01,1.317624477042433018e+00,-9.266208762302252655e-01,4.753965323520523145e-01,-7.838415234089770589e-01,-2.482851433054710510e-01,-6.723494874207828209e-01,8.565011905743079579e-01,1.443723593920997750e-01,2.523297605962914747e-01,-1.099805895811695466e-01,-7.396566509736408612e-01,8.723646013788094455e-01,1.062755614056864584e+00
-6.876150215406581223e-01,6.559552540801479870e-01,6.853970503690995919e-01,4.374022973983986151e-02,-6.064918042542150056e-01,5.229547527540492347e-01,-7.241812418259899742e-01,-1.155840087356775348e+00,3.987934596455596781e-01,-8.421885944339629546e-03,4.705363674074729552e-01,6.658739956820453054e-01,-2.781811262127358020e-02,-4.127587978578404204e-01,-1.134261890500428555e-01,-8.505477888982965196e-01,-9.422425915518894968e-02,-6.561645938224861530e-01,6.023359766691319672e-01,-6.224132908788705398e-01,3.843751680853607078e-01,6.628156263178134333e-01,-3.962799879864243313e-01,1.963754045397197168e-01,3.154566351903331234e-01,-2.953221654375088462e-02,-9.843528521192453085e-02,3.824217320329684894e-02,9.634007054007179827e-01,3.228008978354215408e-01,4.525979150324785927e-01,5.203684718752308314e-01,4.460001365394940520e-01,6.871721107261385963e-02,5.971075929118648817e-01,7.703236552202477050e-01
6.771536651050300559e-01,-5.905831294176380197e-01,4.468387919510479617e-02,-3.515307114801199950e-01,-1.911726555173159370e-01,-4.683692588738004869e-01,-1.790135301307099192e-01,-9.154425435499401187e-02,-4.442702989301109406e-01,-1.691342154743139814e-01,-7.761546771060688910e-01,1.436738377736055117e-01,-5.950601198488802979e-01,-4.611732816329177087e-01,4.629694404814767572e-01,-6.998478069572039439e-02,2.326389706860464146e-01,-6.558120911110177920e-01,1.187431594424705888e-01,7.975973298112075671e-01,3.956646546491773275e-01,-6.591697485578219551e-01,-3.633310553832865830e-01,7.420169135983180064e-01,-1.620342640096696041e+00,-1.040523114315240610e-01,-7.864884348717794682e-02,1.205193186312401021e+00,-6.637100164780660450e-01,-2.946856274311757673e-01,-5.151259203105217344e-01,-1.256480901187863874e-01,-4.961331371469881457e-01,1.240784850648081888e-01,-6.506361443833481584e-01,4.282983854181919292e-01
-5.520992604290333450e-01,1.372536735368231342e-01,-2.569564387847665943e-01,-6.630853812674149250e-02,-6.579039175029955944e-01,5.942797981894036852e-01,1.008925300308122663e+00,1.929860547589999364e-01,-6.091966941801156832e-01,2.451337590133899347e-01,3.129779510490311445e-01,3.267639332963266363e-01,5.990040874830382389e-01,-3.132242266089560467e-01,2.340051293235578533e-01,-6.413664305044927683e-02,9.085072300048910865e-01,-9.636924944407093685e-01,-1.551206214091675362e+00,1.157361562880013572e+00,-2.774253049072049060e-01,7.611200406631233317e-01,-2.362769945209790001e-01,2.997668070790714817e-02,-3.356008735655538477e-01,-2.816595210491840695e-01,2.857102511146057955e-01,-2.660820541354660396e-01,-9.517683880013459996e-01,-3.483763027383619121e-02,-1.911824287426060476e-01,6.974384366617855102e-01,-2.684057927235032892e-01,9.197346228638920707e-01,-1.297223227554388791e-01,1.200612460560105399e+00
-7.936277510516130951e-01,-6.785853708148429364e-01,4.441560325496245465e-01,7.343329557744825431e-01,-4.071565296748523299e-01,-4.952065297585219739e-01,1.295209713822241815e+00,4.598504575337529765e-01,-4.444583226309615220e-01,1.334177929349116720e+00,-9.719727869829480893e-01,5.432333444920316862e-03,9.580066110350673458e-01,-5.535971516050099961e-01,-8.498641828681033905e-01,-3.582320136904820762e-01,-5.443065486093476846e-01,1.696767964080875490e+00,3.248443470781310904e-01,1.053974701376729994e+00,-9.355336246974736980e-01,2.942281408233358708e-01,-6.617061400965426055e-01,-2.740079695454398223e-01,-3.685743964980257165e-02,-1.096349014231199348e-01,-2.518554795780757471e-01,-7.783477790620415560e-01,-8.060897845305668996e-01,1.895663635250549872e-01,9.486868601999355610e-02,2.415172599623493510e-01,-4.873951800864051442e-01,-3.038294092183402642e-02,3.074292041271324272e-01,-9.673889394208519121e-01
-5.023061362103365957e-01,-7.792131994536949380e-01,1.057025729141088249e-01,4.464058726243566588e-01,-3.600465511693097254e-01,-1.708161664355435927e-01,-2.152576331760163442e-01,9.363169608849467584e-01,3.761370536968463574e-01,-4.840475438864080271e-01,-9.924327017656546790e-01,7.038907667656808531e-01,4.107142174548061853e-01,-4.251085923648802445e-01,-4.189642291700217958e-01,-4.392142028627508687e-01,8.749170852625599570e-01,4.217396054106987147e-01,-9.396306537174436979e-01,-8.818941956315894393e-01,-1.193796451710670725e+00,-2.708183166828724286e-01,2.764548798535732543e-01,-5.991290394790728113e-01,6.468699016483824282e-01,-6.184184632002054371e-01,5.549065930705311400e-01,5.501997198590328209e-01,-5.006715790477114236e-01,3.735342725808908360e-01,-1.511275806683485712e+00,-3.181261142431567879e-01,1.823245312261523587e-01,4.339043662021914716e-01,-1.473975687259557299e+00,5.127072250781845586e-01
3.947951080566324267e-01,-2.283797018041955687e-02,1.646828203126145251e-01,-9.038273728192227630e-01,1.335860347293242656e+00,4.127841893664749295e-01,-2.258268086953082177e-01,2.387506926505434390e-01,1.412490694746930897e+00,-9.099754101476708046e-01,-7.389634286107511774e-02,-6.278803478851176234e-02,2.018606915912951327e-01,-4.590066096759778391e-01,-1.055510114888384976e+00,-6.106583644593358562e-01,-2.239174998718101647e-02,2.775379192655465510e-01,1.402888350862998790e+00,4.629077852314891217e-01,4.232184910519493637e-01,-3.174334524443492844e-01,9.832598309167437378e-01,-2.534354208612241144e-01,-5.105530279083680956e-01,-4.379523289117721041e-01,-1.107452562693910930e-01,-1.248435149529073390e-01,3.310848819140650434e-01,1.012855275272579236e+00,-4.851425565837022558e-01,-2.049116870584776484e-01,-7.327178059963566081e-01,-5.492366404595129259e-01,6.273597275927199624e-01,1.107877101142048071e+00
-1.545435055394127066e-01,4.470766184999495629e-01,-6.536497947359635186e-01,5.151400663296366866e-02,-3.544317935246533713e-01,1.024830690529706656e+00,-3.949565676537946657e-01,2.942681763891614177e-01,-1.273421628679460016e-01,-4.973373014928843261e-02,1.476275945444796289e-01,-1.668077951540235304e+00,-6.630141079810709936e-02,9.251982190375721005e-02,-1.897105993410012070e-01,5.595687923349730308e-01,-1.269540212549433167e-01,1.473758558016371178e-01,-6.355733792636049095e-01,8.482665889116874913e-01,2.200889374996278444e-02,-8.337874733041750197e-01,-3.717555166941943212e-01,-4.600529765665247739e-01,1.671274922439419441e+00,5.845145459621046147e-01,1.012100837096224781e+00,1.951752173263750778e-01,2.695522698727836342e-01,3.978713716241921161e-01,9.025012113537845826e-01,9.148129994946774257e-01,-6.805809786510697013e-01,4.680212759006921464e-01,5.579319522685071142e-01,4.457245401967690479e-01
1.825160239633300263e-01,2.737171261217937607e-02,-1.799046713155524543e-02,-2.903561727866916797e-01,-1.169840013055118977e-01,1.910061694927795151e-01,1.276853789387843441e-01,-1.202215522163770367e-01,3.272311107984467449e-01,7.967318038847714945e-01,2.399309027596001620e-01,-5.130012982684014622e-01,-1.198716308025463917e+00,3.535030381486234941e-01,6.447045421825555733e-01,-1.003245934340766254e+00,-9.781196295950486119e-01,6.608951343580874438e-01,4.552095480492146518e-01,-2.198907560107363560e-02,-1.774933268831788147e-01,6.457072685879027274e-01,-2.850589486995875887e-01,-6.764632406207075066e-01,2.125169400348121407e-01,1.916527723283321938e-02,4.415523043885806187e-01,5.170361746661878977e-01,2.253063431393733662e-01,3.226389911842174607e-01,-1.343548847170126515e-01,1.462924338823275106e+00,3.501711168167646604e-01,-3.208932603729071631e-01,2.717674674030902682e-01,4.371740589989976944e-01
3.337597886661893692e-02,3.864781526518817345e-01,-2.981915183368680777e-01,-4.131346293963686356e-01,-2.426965421822864788e-01,1.157644348721262428e+00,7.855574023034447295e-01,7.768602280565840568e-01,-5.301732922443311846e-01,6.086115720380903538e-01,3.686862182886683770e-01,2.544764629724066696e-01,-3.737859105739541055e-01,9.175012749587709016e-02,-2.651844907059150436e-01,-1.414850902527269305e+00,-1.235546228092327670e-01,-1.824584910693713424e-01,2.372862247395889357e-01,2.294153739376120771e-01,-9.183232567258570178e-01,4.336815112671006389e-01,-2.831667477933816901e-01,1.046622042030206645e-01,-8.921078952731441580e-01,6.616332470137207267e-01,6.223417818212259034e-01,-1.545302287732351010e+00,4.065255340683818774e-01,-2.586781211526915092e-01,5.780091133678775250e-01,1.078332695382663076e+00,2.148075115252193190e-01,-1.816905688664444130e-01,2.887413749655075579e-01,4.125527600948230011e-01
-8.008502545792213212e-01,-5.989703283846761206e-01,1.599692464551540350e-01,9.178810672152046823e-01,-3.655919806356388579e-01,4.213990521312603321e-01,6.272262543382621791e-01,-1.093398454066927261e-01,1.525519552956498215e+00,-1.478248197832620514e+00,1.069007707892252468e-01,3.516360374713375925e-01,1.128561000423814464e+00,1.302825163966259969e-01,-5.116519167823581071e-01,1.272578432146520278e-01,-8.685488304757639222e-01,1.729769097979172998e-01,3.406969522614683443e-01,1.157462641451407759e+00,-1.673042451147620957e+00,1.024501118967329649e+00,-7.464154418373140087e-01,1.980015071781668079e-01,9.256063525439461870e-01,-1.356181288829977523e-02,7.232775356984079140e-01,-6.114251782957758063e-01,-1.177918613618608584e-01,-5.370026458024859117e-01,-4.492097332540566090e-01,5.046634649063644895e-01,6.036175467680442441e-01,-5.258464957230833958e-01,-7.715104144957819488e-01,2.670821925909055983e-01
-7.217957754952132321e-01,1.902377383581276837e-01,3.014397889314718859e-01,8.683978746370213386e-01,3.985659920719370475e-01,1.023410782667697916e+00,3.364308625504632277e-01,5.025594909086844586e-01,6.939342399307041331e-01,-2.177815021014393171e-01,2.908603131033661304e-01,-4.735936126550837066e-01,1.712230946130086362e-01,-2.733264200935057661e-02,9.559446260038563237e-01,6.721676082338282621e-01,4.929134830748036489e-01,-6.406624703197200121e-02,-3.093152438129623955e-02,-3.076060784619871757e-01,-2.602908916433968947e-02,1.077997006566279309e-01,9.170464741581348944e-01,9.303553251823809545e-01,7.997524857868405501e-01,-1.671207868126637353e-01,7.825049905272160045e-01,-2.674664064100723548e-01,1.505601845408947870e-01,-2.082493129642635776e-01,-9.660854906871964298e-02,-4.676728830867081799e-01,-5.924533309420766392e-01,8.647020420974276325e-03,1.207994396392550129e+00,-4.159271515135726238e-01
5.950898288446686557e-01,1.969501415996686988e-01,7.058737033994586518e-01,-8.666616444491689331e-01,-1.091799601686300504e-02,4.623390467652281899e-01,4.708210833834822889e-02,2.943083128153609618e-01,-6.894504718276878164e-01,4.599340311878409304e-01,-1.688317395737179705e-01,1.360281915889162418e-01,-4.460051531576363915e-01,1.810387501674518285e-01,4.132422999226554317e-01,8.785177410038346943e-03,2.470694548382215694e-01,-3.909719353806488384e-01,-3.244780233534227398e-01,-5.530647993734982837e-01,2.525561015677323384e-01,1.447236279425659911e-01,-2.843971232597341525e-01,8.827786755922251150e-01,2.755569689625900764e-01,8.727438261146471810e-01,-1.620439705692390264e-01,-1.239659399382769145e+00,3.132687689312775858e-01,1.379521339255025625e+00,-1.499986300671104777e-01,-1.029898528357764270e-01,-7.637036044824853098e-01,-6.418834768082740672e-01,-1.355819490312989428e+00,-1.265313785415650649e+00
-2.279531788475455678e-01,-2.561679579402690449e-02,-6.761015973443357252e-01,1.207175377766077778e-01,-1.664073944098131419e-01,2.950979607169526564e-01,-5.408223153579541087e-01,6.808615516253442301e-01,1.326446223761262345e-02,8.068557756338681219e-01,-2.456527567142339774e-01,-4.150870311480390762e-01,4.124645113386282702e-01,-1.177895792394057783e-01,2.222947333819275118e-01,-7.362993526476460104e-01,-8.595497395468957302e-01,1.543749920131921340e-02,-7.951299807344898440e-02,-5.191643167044613927e-01,-6.209402161152597355e-01,-1.638798178535574079e+00,-1.886880910651234644e-01,7.733033850264134923e-01,-1.079395777752729380e-01,-2.919228963972606353e-02,-2.435468218280649466e-01,-3.122897023087921609e-01,9.275945719113081189e-01,2.225291131307186587e-01,-2.865470790145449032e-01,7.655043475318707991e-01,-3.782845302116714659e-01,-5.868002865944465206e-03,5.604158440092878862e-02,-9.719175159851900503e-01
8.669201260777689155e-01,-5.073921995558111631e-01,-5.169676368910119946e-02,-2.927955979866838851e-02,3.809004305947729097e-01,3.884103455294420360e-01,-1.966391806157548050e-01,-1.251407062968051265e-01,-6.777711454685694248e-01,2.771935725481730964e-02,5.044712304492289245e-01,1.269403801412757882e-01,-3.039530010075658928e-01,1.814895236418327326e-02,1.400843382623924827e+00,3.418316782616273031e-01,-3.603273205930312417e-01,2.593054660979350889e-01,-2.571364766241256150e-02,-6.069078636631191070e-01,-2.163063974184385174e-01,-4.456422111659729124e-01,1.029054106807605340e+00,2.610407498398353288e-01,-5.676450078401463761e-01,-6.996874040125993233e-01,-2.072523169685665592e-02,-5.474482799749760265e-01,-1.267504743463296224e+00,-8.830994700122977159e-01,2.873509211078972281e-01,9.862492111037253484e-02,1.372629541184147373e+00,-4.533108214272890679e-01,4.750002081880296267e-01,2.370378697106917676e-01
-4.541798553827078311e-01,-3.274600379296884745e-01,-1.142296110723773461e+00,2.111780244767951994e-02,3.108974480477504909e-01,1.835442602652654354e-01,4.693081093249490410e-01,8.355755788983750820e-01,-2.224652935508278084e-01,5.076039523152916511e-01,7.974366829317730554e-01,-6.872895240227798741e-01,-3.278258162030964207e-01,9.728897411564702002e-02,2.460567307041135188e-01,-8.349035069034248524e-01,3.113879269460005927e-01,3.804022970535496095e-01,-4.152655729852725575e-01,1.443459826033003657e-01,9.737466487161727802e-01,-2.688749370827534999e-02,-4.331362378766907550e-01,-2.964710956875870052e-01,4.802888937696665472e-01,3.046641748966303909e-01,1.628178127984914181e-01,-8.876447566660412153e-03,9.205189651453478117e-01,2.237512609288114518e-01,-1.466228302142907336e-01,-3.395271318028782459e-01,4.416642699466530875e-01,-3.818268176308614037e-01,-6.744765726127915917e-01,-5.571030039200948192e-01
5.311414654497079724e-01,-6.259749832172843975e-01,-1.645476832485001373e-01,-1.029053046090729895e+00,-8.185018062248959891e-01,-4.182293734833837928e-01,-4.391192642298601956e-01,-3.096445110741851692e-01,-2.663136057544702173e-01,2.513869289191146203e-02,5.265818231493688550e-01,-9.087173689806025967e-02,-2.763046691697909063e-01,-2.080589648266367372e-02,1.873093958405692705e-01,1.516517161988726325e-01,-4.408642517335994993e-01,-4.703444936616967276e-01,9.131970263932891463e-01,1.519102588681531030e+00,3.569120092354579055e-01,3.927188068036071011e-01,4.056799386307371469e-01,-2.951798052742289104e-03,1.044745181527798383e+00,6.648856700545694443e-01,6.792422449366267712e-01,5.364222635223633295e-01,4.997672873513301500e-03,6.191096849571283700e-01,-9.269154989689485369e-01,1.677354323173273210e-01,-6.802092340531525894e-01,2.097113431267211558e-01,1.896256184182087690e-01,3.119014681398632124e-02
3.796207941050783741e-01,2.310151375537930207e-01,-1.190789707531833219e+00,-2.728732590911183697e-01,7.121103729264685045e-01,-1.281594066491084927e-01,-8.068113549015226097e-04,8.719264986144464880e-01,6.289007764392482436e-01,8.358999398524816771e-01,-8.012623305029619170e-01,1.024820944010150336e+00,3.528725919757446650e-01,-2.030062670560432436e-01,-4.826145559127419382e-01,4.738490520709287904e-03,-2.995407831160923906e-01,5.193896544140303995e-01,-2.306205626060369995e-01,8.263122887208540490e-01,-3.822062460060966782e-02,2.259540289518653991e-04,6.102971763099563490e-02,4.457227499480648225e-02,2.697846359348288203e-01,-7.153191479400163866e-01,-1.852573684928035883e-02,9.580596119900434970e-02,9.985610568727186498e-02,5.652360638094393597e-01,1.029778968932799493e-01,-7.548963678664611932e-01,3.458721528008969481e-01,3.946891366219096864e-01,4.604624409425757126e-01,1.763282808257216339e-01
1.718440186013718216e-02,-8.527998432845182997e-01,-6.329044141547867097e-01,-8.558924147129192139e-01,6.020587808653202755e-01,-7.363223808084993216e-01,2.440321340172011133e-01,-7.302278232225360988e-01,2.378143541329383881e-01,5.047105987944390249e-01,-1.768355580175314801e-01,1.065561589046672752e+00,-4.398486596418579864e-01,-3.395100191021766523e-01,-2.796835512479124430e-01,1.915734661546976136e-01,-7.574161698114325290e-03,-1.453882360563792386e-01,-7.437741033706691818e-01,-6.312948999219152313e-01,7.981055560402480764e-02,6.945575230959803725e-02,-6.675311007422054521e-01,-2.670795923796506766e-01,8.899782634376535162e-01,1.782559181180884411e-01,2.547221647914490461e-01,-2.782556877440373611e-01,-4.290236009672169226e-01,-5.042914536756577526e-01,2.287178320391297925e-01,-1.048092650500280998e+00,-4.304037203991067928e-01,-4.167933830686142149e-02,6.609149757844695605e-01,-4.228654877380371158e-01
-6.744260748430200847e-01,-3.208702088250920403e-01,-2.683381009946836926e-01,2.418769314765906731e-01,-4.822930374117865848e-01,1.706725212084375942e-01,-4.187305478014023002e-02,8.040335517257639619e-01,-5.516772522383122102e-01,-3.316326150734569267e-01,2.347592659964205242e-01,3.159649355086699418e-01,-6.659295903225356805e-02,7.518132700749567965e-01,3.998857310141354371e-01,3.828976342278296308e-01,5.679249299684289154e-01,-4.850261219916451871e-01,4.702991555294974146e-01,-6.821209886621117102e-02,-9.395202197904040098e-01,-3.218869099443447679e-01,9.206500403990596215e-01,-9.691680778819065090e-01,2.423455271874826178e-01,-4.405275783159028902e-01,-1.991869662698018267e-02,1.321779115248982173e+00,-1.682835077066360485e+00,-2.470558436408598069e-01,-1.968306179075149653e-01,-4.818439115207098222e-01,-1.084064271448440309e+00,-3.713050469929401465e-01,5.296478377570887908e-01,-3.962199432187814008e-01
5.301444625878657391e-01,2.508314045227240732e-02,-9.819596691311256453e-01,-5.034367944933045708e-02,-3.843612218551996640e-01,3.678382268059605664e-01,9.709887204723385290e-01,4.506465234848796020e-01,4.019305617314639784e-02,-9.348737850085672707e-02,-6.919745543393118759e-02,6.648112320966307331e-01,1.071348043798079797e+00,1.090312826607918506e+00,-1.241946838904264688e-01,-9.060594207645356057e-01,-2.013491572965031284e-01,-3.571840874635291430e-01,2.871484492019251156e-01,1.308286249442484617e-01,3.943612411599361350e-02,8.513338346058966222e-01,-1.816467025441556304e-01,7.298253176154412269e-01,-4.319654368734123229e-01,-4.130071416803482998e-01,-8.594817602722444605e-02,-6.098030406120974467e-01,5.547844782086083226e-01,-7.682743976014135001e-02,-6.436062691653655632e-01,-1.504239546076041878e-01,-1.194486632904479262e-01,1.317568130665591308e+00,-2.643446525748759379e-01,1.187445263436765597e+00
-6.782792443213737643e-01,9.361874755156625039e-01,-7.944159807822771535e-01,-1.832683025312541680e+00,2.213889475225300912e-02,6.309976852094744126e-01,-3.914096703272172406e-01,2.310167879774062683e-01,-4.342672231150243589e-01,-4.124096389474084523e-01,-1.995645043189134826e-01,-1.665008881906332450e-02,-4.262618426403831373e-01,-1.740109411015513308e+00,3.881062194794974163e-01,4.607570045958274685e-01,2.264426068964825733e-01,-4.409563890021820365e-01,-5.948946227177958068e-01,1.301961507928220962e-01,-7.929141856709519265e-02,1.346317654848870893e+00,5.867839280857920503e-01,-2.838017826925201548e-01,3.464934508272278502e-02,4.868291475968392623e-01,-3.238551085871091417e-02,-6.688081926523982146e-01,6.527249015526161990e-01,4.932241729224451920e-01,9.125638806831057881e-01,5.604344192961581150e-01,5.900720702226850412e-01,-9.058185142960915037e-01,7.568834343737151915e-01,2.712861695784777871e-01
9.626709389106011261e-02,-1.010311502725951716e+00,-7.960573131535428892e-01,-2.461413326504032495e-01,-9.172227676307669331e-01,1.044813010702941997e-01,4.413106289177938790e-01,-2.552329718546191284e-01,-4.717561941754880861e-01,-1.211397751509668774e+00,-9.353945247585807587e-01,-7.779432959116088231e-01,8.864735007094562413e-02,-9.449940937860615287e-02,-5.617406992349844863e-01,-3.497902738644071419e-01,5.144868683870851278e-02,4.322408480034970468e-01,-1.093620195681773932e+00,-6.458212669081836443e-02,-5.273387792809600128e-02,-4.976271108738887783e-01,-5.074917624865556975e-01,4.571611944808477018e-02,-5.688294194539920134e-01,-5.306462944649037450e-01,-3.745997261175896820e-01,-2.469075707389643548e-01,-1.038434734778631796e+00,2.385463009297321135e-01,-4.955008401621043834e-01,-1.272856248459670159e+00,-6.707928024043782189e-01,-2.155513792745663293e-01,-6.673701252496896386e-01,-3.974160870808052803e-01
-3.233417580227012506e-02,1.668704482111578180e-01,6.389180752023265741e-01,-1.071493497724706145e+00,-4.592655583136845965e-01,-3.472135332967947463e-02,-5.021078721092555597e-01,-2.080968920093790586e-01,-8.877309767616061720e-01,2.637425661190206938e-01,-1.104274955439447314e+00,9.774046545384679208e-02,1.137476000203581528e+00,-4.110354785984031145e-01,-2.659547997562913824e-01,2.174239796749697362e-01,5.889991918196009202e-01,1.555132556155503776e-01,5.498631840196277487e-01,-1.879949790552629674e-01,-4.612916359585627624e-01,-6.699202326986232192e-01,9.048425329246130300e-01,-6.623595427687379786e-03,-9.159733782009553404e-02,-7.974982253934372045e-02,-1.604024418339067060e+00,5.059260151808574468e-01,-2.429960599835173651e-01,1.572543984635461634e+00,4.359521103254415664e-02,-5.155908020794501834e-01,-1.170339084975373506e-01,3.827338085544405577e-01,5.773057669200744035e-01,1.672963626735779197e-01
3.315360876051985928e-01,6.103120652427445059e-01,1.197013862520565491e-01,-2.584690492505834492e-01,1.650800361346258294e+00,-2.140861094311623247e-01,6.398769410203443142e-01,3.236723810401201940e-01,4.384639806034299481e-01,1.210984080490504322e+00,9.780651801217249419e-01,2.194757133174764785e-01,4.090601659193356943e-01,-1.015932543622009021e+00,-8.109442870107872459e-01,3.423272142886171765e-02,1.269003149184944057e-01,-3.858096347705051721e-01,-3.750229010153155462e-01,-8.081084781635942960e-02,1.314993152932793230e-01,2.743431267253484407e-01,4.198760176549030110e-01,1.975269184337344053e-01,3.689608682460329692e-01,8.923218537650488488e-03,9.044189509185651676e-01,6.930525485252849727e-01,-4.133408686940697185e-01,-8.150312933355564615e-01,-5.507539338788233763e-02,6.428259467234719304e-01,5.606367313352965676e-01,2.928844646010673736e-01,-2.378933326302816453e-01,-6.881321305147486411e-01
-1.114072921994275767e+00,1.645792240635716164e+00,-4.768991088380943322e-01,5.624037453809249860e-03,-6.514016021147460700e-01,1.042625991656370849e-01,1.257657019413734312e-01,-3.529213943058258085e-01,-8.871539586866985516e-01,-2.082680141963543785e-01,1.324746831604299624e+00,2.034651235039432460e-01,3.277698857146751354e-01,5.457716289334859638e-01,4.231949676688136486e-01,-1.047245928143833771e+00,-2.895305746492106147e-01,-1.108474350456075230e+00,-3.178807661155538256e-01,-4.748473685014985568e-01,4.690951990281054806e-01,-6.007826167632890346e-01,9.057509835225605599e-01,2.866923496087862011e-01,6.391724094898608710e-01,-5.514495928329533614e-01,-7.634574697598437432e-01,8.130935248641117941e-01,4.516879007842905525e-01,1.028104021983584637e-01,-8.351785155014459505e-01,-1.050394622505526510e+00,-1.222959690767662311e+00,9.066795864207990441e-01,5.850730604366007892e-01,4.157950334006891291e-01
-1.514983382081751566e-03,-3.033367068133638877e-01,-1.212253808186769949e-01,-2.235424534836862598e-01,2.978732011856653761e-02,-4.696927311877547861e-01,-1.552158945260118106e-01,2.433930960164727361e-02,2.159757029253981109e-01,5.294325462709763563e-01,-5.949999908904395340e-01,-8.429047194636479778e-02,-7.795978374106898867e-01,-3.879272885838955243e-01,-4.343570468847891552e-01,1.127646004641588984e-01,-6.833955863524882046e-01,1.039943756358691247e-02,-1.603547514932944340e+00,-8.722294903495563245e-01,1.550079720760533519e-01,7.246023061348593197e-01,-1.059641531565704564e-01,-2.716846972122367587e-01,-3.902229631570361956e-01,6.118614778624130723e-01,-5.553738402900836035e-02,4.969887123814179519e-01,-1.756446659793947651e-01,8.359977870359854846e-01,7.407757434109063510e-01,-1.708043413438054547e-01,2.648007470605663882e-01,9.022270489021899653e-01,5.925694401637553455e-01,-1.589654308881327249e-01
9.818168714831738697e-01,-3.853502457110261764e-02,8.325651379582241773e-01,-9.647660137324943763e-01,6.599997346952094501e-01,-8.774717981313916448e-01,-9.081664466584185927e-03,1.991524700555718508e-01,-7.877295914254827114e-01,-1.012272391289845697e+00,-8.406030854939091634e-01,4.604964124435377837e-01,7.317699279374352550e-02,9.944628970218459818e-01,-3.592918634050429882e-01,5.923533210852750530e-01,-8.693508324245743379e-01,1.005318627956546029e+00,-5.083573264968601624e-01,2.963585219192207965e-01,-3.055842432778782536e-01,-2.270262725195156539e-01,-6.700842994203690117e-02,9.504590812712048198e-01,7.849241330883414136e-01,-2.167964441891340743e-01,2.543423680052623870e-01,-6.929914365838213408e-01,-2.717657496119224581e-01,-4.735591373263073889e-01,5.107384924360143241e-01,-9.577341438113651240e-02,8.997060334024151729e-01,-1.912033581161320106e-01,-3.233476766772212518e-01,-8.128376284347804681e-01
-6.495922301960415091e-01,-1.758862390294275435e-01,-1.003258724383786049e+00,5.803948445383174531e-02,2.554443615097014564e-01,-9.074876700329459478e-01,-1.140515185115856811e-01,-7.668535741599417088e-01,2.508583509826650682e-01,2.724917113060612017e-01,1.301722552051821191e+00,-3.749842092014046835e-01,1.308983548346624171e-01,-8.421483059577770935e-02,-8.408329426684434393e-01,8.899624395848605707e-02,-8.283742516428885816e-01,-2.514554591950326490e-01,-1.743995396844517931e-01,5.016037136089829263e-01,4.346983312549692613e-01,-4.823460692308988440e-01,4.518409808972260189e-01,-3.114780659414320696e-01,-7.507324634525157636e-01,-6.765669247657422058e-01,-9.009263112916415794e-04,9.119047334511518610e-01,-5.222798835088777736e-01,-9.746995562792540313e-02,-1.225569162461212502e-01,-1.096016342478391747e+00,-1.747689597428629948e-01,4.625084376795795538e-01,-3.760842118452015215e-01,1.266658985560620843e-01
-6.595227083009689295e-01,-6.773805236175324263e-01,-5.870523126653778290e-01,-1.886769483843102613e-01,3.368345412133612049e-01,7.174128642336511374e-01,-6.555161117904324541e-01,-5.851560317182781523e-02,-5.581160338104430574e-01,-1.405294307960617717e+00,1.748579848051854124e-01,-2.025144566003553304e-01,5.453533740700022836e-02,-1.711926662761830698e-01,-2.044734745103084228e-01,5.765884433819539190e-01,3.126784259046816450e-01,-3.542203313074652749e-01,2.891712284898205754e-01,7.461090145213513658e-01,4.694391798635841884e-01,-1.167337062492522920e-01,6.606483637704245737e-01,-4.426781262232349912e-01,1.015265525909663680e+00,1.829631047990808168e-02,7.993897348949118298e-01,3.809240015379373179e-01,3.144882223826617751e-01,4.445745990050413710e-01,-8.779833938208881916e-01,5.392428986787288769e-01,1.259330289006817649e+00,2.258269863589429938e-01,1.556777558917094850e-01,-5.678774088974044565e-01
1.364997734101411897e+00,4.657019417015297730e-02,4.818747822163254452e-02,-1.354689275865617881e-01,3.480487175109235332e-01,-4.988704984649264818e-01,-1.084251076439207928e+00,6.320021222096425806e-01,-3.301246515752577770e-01,-3.701636322645201482e-01,-6.327492344002499935e-01,-5.976858827494829773e-01,-4.804796428329536906e-01,-2.181880660123516891e-01,1.087051444715351201e+00,-6.352742023834132001e-02,-1.106161251433926962e-01,6.082679896024304478e-01,2.383678448683537454e-01,-4.192404575812985756e-01,-5.622363896155235796e-01,9.635231408886353599e-02,6.462995519990973881e-01,-9.123238774917389327e-01,-4.094310595362029015e-01,-9.667890176058623330e-01,2.462689460919278428e-01,-3.360597350180303255e-01,-8.940742781880071932e-02,7.663733581435552278e-01,1.190461807465346356e+00,8.403706104156821732e-02,-7.420991023214742466e-01,-3.116348267988880982e-01,-7.182110044599669951e-01,-3.172513585233015763e-03
4.003871062529070213e-01,-7.698108692618870208e-01,7.970632428492580024e-01,3.367872613884905775e-01,6.263753028881157148e-01,-3.427547148365155949e-01,2.144343855643777719e-01,-2.028297510621600019e-01,-3.357931016671716895e-01,-1.576467581720252531e-01,2.538786601831988787e-01,5.161504604373902128e-01,-5.092340323591335594e-01,3.707763635449738970e-01,-3.383710418063689551e-01,-4.589006814249368960e-02,1.337632654385686459e-01,5.277605852497273958e-02,-2.236698989236281243e-01,-7.934069019613092522e-01,-2.690776548158949066e-01,-3.921793493233798056e-02,-1.379344826745614039e-01,7.440198293015337638e-01,-7.326840480740007822e-01,7.234880578956630615e-01,-1.202941292135087714e+00,1.875243567728483163e-01,7.282697256805359398e-01,-6.057082929930573956e-01,4.805008194996652215e-01,1.448546276523321463e-01,-4.413810799231496218e-02,-5.551023992741010993e-01,3.054998440474219201e-01,-2.185457235793001607e-01
3.616615197969658135e-01,-1.118354046670864577e+00,2.605587419036328040e-02,-8.326905968138380576e-01,5.544995750447759830e-01,-3.953208417211308001e-01,-7.089123299841542103e-01,-5.649874155720855384e-01,1.137147030220658550e+00,7.747508355984560058e-02,9.944884724459255310e-01,7.548942566842241353e-02,-6.387019711213283435e-02,-3.140073634962712856e-01,1.281307043245090593e+00,1.211442977703998947e-01,-7.979075392320835736e-01,-1.447092810724754687e-02,-5.183011471940534021e-01,3.625941200369792172e-01,-1.158157412254869012e+00,1.351754859803603548e+00,1.079908711131913002e+00,5.872100685637748896e-01,6.909259810741728014e-01,-3.903990249319068129e-01,-4.483338389943257174e-01,6.920873487134332480e-01,-1.792787332088641161e-01,-7.800681039298488217e-01,2.771511659851925158e-01,8.669123809535380643e-01,6.671569240944473789e-01,-7.660884892043485772e-01,-5.168664756402766569e-01,1.826995321752295787e-01
-9.378282743710218694e-02,-1.856517347081458325e-01,-3.384342875631894398e-01,8.561467909634081774e-01,1.338447697953829840e-01,9.005444509168301914e-02,3.406385490041893838e-01,1.933417459554469253e-01,-3.118602156949690229e-01,7.984719677859515308e-01,3.456851952338285683e-02,-6.548964094179124951e-01,-1.020764875650167047e+00,-2.178742500226174272e-01,-2.785246495634564612e-01,3.936656787654951306e-01,-2.779726086559488052e-01,2.090077253660835577e-01,4.364809871514662709e-01,-4.409889899239856637e-01,7.479640709568035062e-01,4.743547284598920721e-01,5.511088100579447646e-01,-1.287907640410758559e+00,-5.279502561189788334e-01,6.782023515516916179e-01,3.565059234570030489e-01,-7.527441716041550768e-01,-3.202316625498836111e-01,3.246972138586227130e-01,1.259755412652477091e-01,7.709513275193506932e-01,-5.001224636694526909e-02,2.226361995891438794e-01,-2.262610565556421316e-01,8.644672263617417807e-01
-5.942666460634120629e-01,-1.922580170248429365e-01,-2.874330335208296616e-01,7.135888991041243745e-01,-5.044159740281364268e-01,-7.263150097201048760e-01,-2.385757973032044954e-01,-6.931303568970013096e-01,8.603780606474458192e-01,3.380855705850394632e-01,-3.533564347801799177e-01,-3.897657480022667653e-01,1.026433717981380500e+00,-4.474624693408047471e-01,-2.843903947774255037e-01,-4.015001529920768641e-01,-1.057438106689263968e+00,-3.804694218911633952e-01,1.431060378756554008e-01,4.106705767081428315e-01,1.201784626323283839e-01,-1.736355153036618082e-01,2.721312136940730597e-01,4.988815654605699423e-01,-4.146450375796831289e-01,-1.364651659057430910e-01,-6.959179605788471390e-01,3.354490217371011163e-01,-5.569956859338239807e-01,5.954879186195148888e-01,-3.648292291465236592e-01,6.984782477655832045e-01,6.204159365790459235e-01,-4.700672345658131746e-01,1.270076426036919504e+00,8.734495774651699351e-01
2.853866522086062063e-01,-8.566707591957896106e-01,-3.518002737759738929e-01,-1.816123129897710131e-01,-3.355154894147692191e-01,-3.494355247705573930e-01,-3.047619246750232214e-01,1.294292520382142042e+00,2.181361954822565341e+00,2.981868853331696156e-01,2.601650720686060625e-01,4.437713064907978788e-01,-2.329189588626336405e-01,8.063684641636242878e-02,-2.297258588903264842e-01,1.169215899170700457e+00,-8.468052137195419826e-01,6.960711767733228639e-01,-4.107528476732750788e-01,1.343217159089792334e-01,-2.207229751848351629e-01,7.543963985715070875e-01,3.579298880800859117e-01,1.457177912904760453e-01,-9.390148514878303432e-02,6.045533647969467683e-01,7.230084376731543694e-01,-1.769669798811712991e-01,-3.365869225640750750e-01,5.229450306661366232e-01,3.522682727032040439e-01,-5.691037091610950949e-01,9.243480781661370660e-01,8.847444591899708555e-02,-6.606148518323632368e-01,-1.053920791697137815e+00
-8.933933337131809704e-01,2.891248479274066141e-01,2.339426577041079647e-01,-2.220696743965011322e-01,-3.980640830814204389e-01,-4.483452748989188996e-01,-9.165840292767841735e-01,-1.602878940038575395e-02,-1.070819559089861484e+00,4.314473676560064419e-01,-1.294769187349208706e-01,-4.507168658934846417e-01,1.095240010087562998e+00,9.650391804371080129e-01,-1.534445729291953331e-01,-8.237870516863148307e-01,-1.121059517414984885e+00,1.950736199731284148e-01,5.125659236259283436e-01,-7.920214428608177704e-01,1.866202983362124646e-01,1.756572944148644677e-01,-7.707980596445130894e-01,-5.175958125462276627e-01,2.765658990640756376e-01,-7.269894418976204920e-01,-3.239509100830685884e-01,-1.323643251085075134e-01,2.160151788530861039e-01,3.602573695829896366e-02,2.635041606115860469e-01,5.512027367212141149e-01,-3.374771103356124374e-02,-2.385544979215233619e-01,-3.464045762736948086e-01,6.868921434051881159e-01
-8.147247210389594319e-01,-1.997833099289295922e-01,-4.477535580768879364e-01,-1.837732583014322629e-01,2.835596531074920934e-01,2.080265670545086987e-01,-6.877971175024110151e-01,-1.874184630062575851e-01,6.009129037100351400e-01,-3.513760818094314176e-01,-1.643710714560575603e-01,5.546015940746299444e-01,8.378587691344269173e-01,3.683636207447237854e-01,-8.705579542431908513e-02,-8.004032473242631562e-01,1.193916909986358021e+00,-5.086642440249649066e-01,1.704491558670255813e-01,3.146070742542337872e-01,-2.593078007780786898e-01,-1.382041969711957918e-01,7.669517625718844100e-02,-3.246969132522432577e-01,3.666251507451687153e-01,3.168357926070304309e-01,3.786416202101596795e-01,-3.744404363357344834e-01,3.954085579458961885e-01,-1.801671806184087066e+00,1.974765774040723176e-01,-4.900510293461806111e-01,4.350036831200028709e-01,3.394705323988162493e-01,1.410875614831413327e-01,5.067056938036440528e-01
-7.616667469030925508e-01,2.927079927297598916e-01,9.660055727016090277e-01,-8.978858338826668783e-02,-3.689845950003276670e-02,1.072715287837634257e+00,3.528390602418124966e-01,3.051931107440639668e-01,-6.434562595919602890e-01,-5.675683433340656947e-01,6.950124635060873635e-01,2.308310624849944093e-01,1.020521827102812473e+00,-1.623682903409336076e+00,6.063740596108293524e-01,2.735523863691399771e-01,9.227728121722306165e-01,1.778622240247747788e-01,-9.065229427202567969e-01,3.690116266327180816e-01,-5.938725650358512853e-01,-9.681457902911076996e-01,-1.230544638173954208e+00,2.816993446727691364e-01,-7.595244120055236192e-02,-1.055148496641618999e-01,-2.447433982933163721e-01,-6.658055252445638228e-01,-5.334083106503284544e-01,9.942128705118880028e-02,6.329483895816487848e-01,-6.180921457728301149e-01,-2.073784258820250692e-01,5.521693303145254195e-01,-1.152762137156726263e+00,4.119462722435758284e-01
-2.129541275591702032e-01,-4.119867656967947100e-01,3.074367686581381265e-01,6.014416801858496475e-01,3.899426879154774817e-01,-1.252438719517292354e+00,-6.774625106412885955e-01,4.625352312465612625e-01,-2.007693547607082019e-01,3.544096325246714474e-01,-4.759296431121511350e-01,-8.411041353287572742e-01,1.980561552121078706e-01,9.245291234280881287e-01,7.097277677911827398e-01,6.707522890206467359e-02,4.291314654028696024e-02,-4.600314411168031636e-01,-7.037688244069103538e-01,3.249912243873515627e-01,-7.530230633394009443e-01,4.367680421202046470e-01,-6.977868010221693895e-02,2.076911004214654632e-01,3.513368380544004688e-01,7.438139056903555479e-01,-1.212042499057849776e+00,9.296282749635062514e-02,-4.215299960755856667e-01,-4.421790299175824557e-01,-4.419595490742555532e-01,-1.281138756478823248e+00,6.110781111416281330e-01,5.721437780775275872e-01,4.941680437151506622e-01,-3.138277686923936494e-01
5.113650687070878664e-01,-1.671440236535379098e+00,9.325062564248397246e-02,8.939339107474338908e-01,-5.496419824929313913e-01,-1.673785795958736111e+00,3.661379134489454179e-01,-1.321203527162833291e+00,-7.384359723626124916e-01,7.784023828879804707e-01,-6.863000271863244350e-01,-3.112842660061947986e-01,8.319120001307545031e-02,-1.648090582915611446e-01,-1.171834057941287116e-01,-6.332516476650245085e-01,-5.989198200258580851e-01,-6.916841156812628677e-01,-5.221159003537155785e-01,2.980809867819658732e-02,-7.592417776695130627e-01,1.172323186732969980e+00,-4.300695686102485871e-01,-1.031929173239999262e-02,1.240635980538212335e+00,2.071841216869783064e-01,-7.412608043639906663e-01,-1.513707543293705937e+00,-8.553484868965879895e-02,-5.401265438726650103e-01,2.280518566909408573e-01,-4.714400475825459291e-01,3.296406027008919604e-01,-2.071361415540130535e-01,-1.108020170364176771e-01,-1.339192704523292754e+00
2.132093767028780673e-01,1.216293463820496079e+00,4.767606617723524898e-01,7.895652278639863075e-01,-8.628927720904498999e-01,9.711774028884233578e-01,-9.359023129005075714e-02,4.234543880578495734e-01,1.172121447728758703e+00,-3.243331053743310766e-01,5.513121031557256524e-01,-1.041305463962899185e-02,4.145233662588318491e-01,3.796308546285091512e-01,-3.471888162917458834e-03,-7.321569126797158322e-01,-6.839113947899504442e-01,-7.808444472935762715e-01,5.269065089362841015e-01,-2.817068833411060513e-01,2.699801137723610855e-01,4.787191957185901042e-02,1.045150843356721593e+00,1.006337549592959180e+00,-1.061719228445976021e-01,2.372434339595755337e-01,-6.259080061965210939e-02,-8.669621904952502789e-02,-4.620362247796855337e-01,-3.585660823347818216e-01,7.711700370572528440e-01,-2.595166236492523204e-01,-1.235023080629325198e+00,-4.841662676770075446e-01,7.475778791427586424e-03,-4.549016795704086125e-01
-1.262565957586483600e+00,-9.736576805627987774e-01,-1.981892329113510431e-01,2.280904998090296232e-01,2.765906850497891756e-01,-6.866626466324355915e-01,7.778327596736767102e-01,8.615255393142650098e-01,1.057641728400445569e+00,2.317609206452068693e-01,-3.655317651084490777e-02,2.292960268281357128e-01,-8.253066483519039265e-01,-5.871004191517297244e-01,9.505462250077468811e-01,1.457062595668972560e-01,2.784405679252867083e-01,1.220942643234405227e-03,4.367698024282646307e-01,-5.949469057389132898e-01,-5.411114693724414781e-01,2.309158011863752247e-01,1.400265709497845734e-01,1.027662533153262059e+00,6.609265391750590579e-01,-1.049128998492314668e+00,1.446120274169626074e-01,9.867028784434181965e-01,-6.540684640514802251e-01,3.375864420557539436e-01,-1.439372994422602192e-01,3.405278549881149974e-01,3.073633695613331995e-01,1.765921393888021163e+00,8.991026895958643683e-01,-1.638620888515994467e-02
7.802825175992528228e-01,-1.366271908582803452e-01,4.850596673330477282e-01,-9.964436998462165018e-01,-2.107077994114258390e-01,-4.020662320426851566e-01,-8.862413772912874910e-01,5.234998911737486112e-03,8.504564245680227286e-01,-1.203638486640012273e+00,9.904044667941830360e-01,-1.724764944704500147e+00,-3.927221454167390546e-01,5.495534616278991979e-01,-3.556307068482469358e-01,5.185675796979068997e-01,-4.191472752935043178e-01,-6.365846528854185449e-01,-1.140916573368342402e+00,1.229155035031826160e-01,1.053931225031452118e-01,-9.542416332518488531e-01,-5.996272097209393026e-01,-4.575905375384257678e-01,-5.055683864809837891e-01,-5.278269212019871537e-01,5.474740678685708489e-02,4.512377064069886951e-02,3.817168957313473721e-01,4.283752730044340096e-01,-3.468072454693518769e-01,-5.349795911029483486e-01,-5.098938763961852194e-01,-1.303950311104480120e+00,4.399980448758979423e-01,-3.861284162344681969e-01
4.820671890032866003e-01,-5.743062182136463578e-01,4.084084325132489868e-01,-3.102914286544121159e-01,-9.648621316847311169e-01,6.275580618067954086e-01,-1.084051435962169130e+00,9.061783647447063661e-01,-1.379685010254261268e+00,1.668216196014003436e-02,-3.116514029489817483e-01,8.381809886004358834e-01,-6.657673670626526041e-01,5.703575288960367473e-01,-4.679839519032005235e-01,-8.559815103367210409e-02,-1.122256123648667447e+00,5.609792631376016303e-03,-2.648354582770786059e-01,-3.504690835230266366e-01,3.359531569723242517e-02,-1.303629716447323839e+00,7.696163919654595050e-05,-6.043671206837254034e-02,5.329399117869421110e-01,1.490228952537162310e-01,6.171849170928725981e-01,-5.220508845131095477e-01,-1.373006197932159500e+00,-9.150997239129530225e-01,-9.330947110185736637e-01,4.133038496029741715e-01,4.968800535367589588e-01,-7.571838185706835089e-01,-1.713438015964671435e-01,-2.788784414743799012e-01
4.531624955875201977e-01,-1.259848361242642822e-01,5.776869405677352853e-01,4.485773743422323268e-01,9.533492251831413578e-01,-2.288922520198984345e-01,-2.055808632031916605e-01,-5.263763310228217751e-01,2.154652333467116931e-01,-3.760108419668152790e-01,-1.171788720445928744e-01,-1.060514156642698769e+00,1.383067540982687617e-02,3.858555949164745313e-01,-1.007428573251003101e+00,6.158262202252150486e-01,3.052723104995412884e-01,-1.045117838123433174e+00,-9.012436869663619232e-01,-5.867740927135379758e-01,-1.391194043508676981e-01,-1.005608594619492147e+00,5.063777496411263623e-01,2.350951871091168377e-01,1.248702420182670636e+00,4.750295457819463940e-01,-6.290760411738995916e-01,4.115338177860334845e-01,7.121350486317888917e-01,-6.167075021482140151e-01,4.650145806657990377e-01,1.589372767298042666e+00,2.453925099109403318e-01,2.401899035673970839e-01,-7.733658651841244236e-01,-2.252664297205868582e-01
-2.631224415202589317e-01,7.897740597976014021e-01,1.388828525485484855e-01,1.169160351769248818e+00,1.737647592719923362e-01,1.212819553220041702e-01,-1.177700596920477627e-01,-4.593610995123383889e-01,-1.192995924334254720e-01,-3.590039518344737557e-01,6.305947785355539015e-01,-1.626858401584206637e-01,6.710581355838199924e-01,-3.127402721288630172e-01,-3.351815230611678298e-01,-8.593570011977399448e-01,1.482197268814721580e+00,-1.525219220713880941e-01,1.839419329883126564e-01,4.314921218869454678e-01,4.459029919820144405e-01,-5.198277230664185428e-02,-4.950570217027886466e-01,6.164306686944679425e-01,-5.972786856959858559e-01,-8.596634884119951359e-01,-5.812159136932673054e-01,5.855586251839373091e-01,-5.818429341311377456e-01,-1.222145103753811274e-01,-3.390018990741721638e-01,-2.665453143600142738e-01,-2.941413155409704494e-01,1.417339465590395253e+00,-4.010988067011757030e-01,2.750166138272733501e-04
1.056618027826180389e-01,-1.034360043514029215e+00,-3.012574860877266225e-01,-3.347775495636940435e-01,7.625689706614134922e-01,-9.670571964062110171e-01,-9.425226729645246326e-01,-3.869495044899901037e-01,-5.928215074346918634e-01,1.064113538937162318e+00,-3.846712137339878268e-01,5.323541078016545969e-01,2.905766199085914603e-01,-3.919974306166285755e-02,2.679688107956550991e-01,-4.761541893621355492e-01,4.486046436121407521e-01,-5.074554572724114809e-01,-1.345631501486912684e+00,2.801749363670755222e-01,4.935436222871462109e-01,3.685699411846473095e-01,2.192791248614870403e-01,-7.836434318314231540e-01,-7.747730512802974978e-01,7.703925377954008724e-02,2.978503410235127657e-01,-2.227968260102248035e-02,-4.533644388516563928e-01,-2.959135337136030719e-01,-2.228116568507886308e-01,-2.912564993703641303e-01,3.303292971415146551e-01,-3.763444379352047231e-01,-1.958870112852103829e-01,8.347770282890765170e-02
1.597730824368593372e-01,-7.500253355203979622e-01,4.600947731135023033e-02,1.457772603312815329e+00,4.358349662158810811e-01,-1.545623761917641059e-01,2.932264793214635068e-01,-4.968865738258015918e-01,3.822808294240078730e-01,-6.658079502536985439e-01,3.451575614138073789e-01,6.265755196118601988e-01,-2.254489891251691691e-01,1.729144005323298428e-01,-8.528383738755423993e-01,4.972656734452290950e-01,-1.097311792137553171e-01,-5.718134984226481698e-01,-4.491104646665300404e-02,-1.742523311673942754e-01,4.399588198122375560e-01,-5.984705296701676724e-01,4.624232922325398065e-01,-2.910005851469236737e-01,-4.893729765113445929e-01,3.543383605193497488e-01,8.837967993697609659e-01,4.460262894016299162e-01,-2.237605494712028784e-02,4.139056460335205356e-01,-8.894999373584940860e-01,-6.062471355827055985e-01,-1.229329059788531353e+00,1.711498373590623068e-01,-9.625952159081465620e-01,2.779803737768997696e-01
-3.809477294443194828e-01,3.026130030844521590e-01,-3.861792994230345832e-01,6.608056880491294249e-01,-7.142977564061950280e-02,-1.654508844371217202e-01,-7.307173609455237806e-02,2.466159195705362392e-02,9.378486084888477681e-01,-3.994908019178662895e-01,-8.225829671441524660e-01,1.282053476989351570e-01,9.066046687466343401e-02,-1.135064506685095731e+00,-2.136338797484370611e-01,7.523532156760855474e-03,1.926660538497364794e-01,8.202608842099594622e-01,1.499202872954485122e-01,-1.561421003319751089e+00,1.563740447228770813e-01,1.706831701265897894e-01,-7.725287666786003760e-01,-4.025742742524273665e-01,-3.118515798685202456e-01,-2.973253570883100938e-01,-4.902644650347453559e-01,-8.770129658331100864e-02,1.434737833269959795e-01,7.436450144430318820e-01,-3.784087257289601713e-01,3.716704765467758118e-03,1.852969891140319458e-01,-1.201228817948402083e+00,1.507893619050620027e+00,3.954527139197987484e-01
9.171275335527936390e-01,5.317237946191364362e-01,8.635967967688179536e-01,4.155328624377408464e-01,5.363058720535298640e-01,6.076464579613649608e-01,-9.978412297172086776e-01,1.404576769831604975e-02,-1.137057254126210143e-01,-7.903858208650221817e-02,4.630578098182747127e-01,-6.498432536962706063e-01,-3.301754392950540518e-01,-6.543527810554716773e-01,-1.891926311786104320e-01,-6.596048459270423825e-01,-2.370601268602862688e-01,6.628394407225039753e-02,-6.736737320799378592e-01,6.943811735502740390e-02,5.172260939141402059e-01,-6.167437542252659499e-01,-2.166251242486923800e+00,-6.903327376473317178e-01,6.406537651583900095e-01,3.427265533539242681e-01,5.094390441302992789e-01,-3.900090891978034158e-01,-2.026580884078783840e-01,9.960139363964885806e-02,-2.199202720120624621e-01,9.531652012672082730e-01,9.624888861802107787e-01,-1.195926911888311461e-01,-3.851694910506701097e-01,3.841095134425393520e-01,6.929773825187625080e-01,4.978478098807347374e-01,1.603699714166638033e-03,-2.991889533867477802e-01,9.331854987725871631e-01,-3.755248064139906639e-01,-1.414611550126551598e-01,-1.225320420478498845e-01,-7.873832060733791660e-02,5.615747206950923998e-01,-1.083957919299576300e+00,1.616449131200655420e-01,-3.128667590519200181e-01,1.027987103797764590e+00
-2.893526681718743832e-01,-5.149563073070960728e-01,-1.887276868273420616e-01,8.854929564926792285e-01,2.208553804370068929e-01,4.028972676016661092e-01,6.757223454710655774e-01,1.152509668958580230e-01,1.177305661648886254e-01,3.202738630123515007e-01,4.599500723882553321e-02,7.451222656344627104e-01,-5.654254052466758385e-01,-6.262758924145517270e-01,4.276341046737929807e-01,-4.978745559110988594e-01,-9.712641714681143901e-01,6.212239662106074922e-01,-4.116219299919095936e-02,1.545354470651352508e-01,-1.204100922823114095e+00,8.245202392991594076e-01,-1.844859461574158699e-01,1.550043580178071867e+00,4.966742941436115277e-01,-9.038835897309983602e-01,8.123414256692594870e-01,-3.371861667862265377e-01,-9.483529010916894597e-01,-1.774618869768956608e-01,-1.184766483176328544e-01,-1.269164343115365634e+00,1.359082713508912577e-01,-1.335808559541803886e+00,-8.106004969752844680e-01,5.406721886670886601e-01,-1.175851573968053343e-01,-7.256471259843602084e-01,7.921808766343942931e-01,6.554893417872484362e-02,-1.864951226253219740e+00,3.615885972417468563e-01,-3.128212510294849369e-01,-7.307379094999407743e-01,-1.038795856955870706e-01,-5.463500611018882180e-01,-4.854127178254384334e-01,5.394570230748877426e-01,6.733968947420948536e-01,-4.343504060009574230e-01
-1.383182618338411329e-01,-5.675517582931919325e-01,3.311447722336115507e-01,7.314336925654946198e-01,-7.626673820575449181e-01,-5.428248176683825310e-01,-1.503729339400438347e-01,-2.450610966356687181e-01,1.477887257971201018e-01,-7.982338940060796917e-01,5.595481142179518086e-01,3.215327244218266767e-01,3.832400314478860981e-01,-1.496944072309607521e-01,3.843256174911713341e-01,-6.419414933457132655e-01,3.497484267618430342e-01,6.460066215681894430e-01,-1.015664149583974385e-01,-1.365982255521533961e+00,1.498924337449598077e-01,-9.729229905228029551e-01,3.131380170107336824e-01,-1.109001093424263562e+00,-1.066705835609891073e+00,-1.444067683551101045e+00,1.959361071737878712e-01,9.579808237417574146e-01,-9.805974219851459894e-02,4.326171814455264664e-01,6.819858447102610244e-01,4.017174687285980372e-01,-6.893276929837738320e-02,-3.436279617265327047e-01,-3.532800818216081939e-01,-6.266061411418809568e-01,-3.931731368043470121e-01,-5.142689676879069749e-01,-8.911627688979645301e-01,-7.544216681730420149e-01,-8.115126527781198196e-02,6.504947028990920588e-01,1.292043143467473731e+00,-5.431553803201147890e-01,3.411963705382117240e-01,1.232955946351319332e+00,5.608172304497592853e-01,-1.014016053691180863e+00,7.208480445684269100e-02,3.395660726762656512e-01
-5.367973143821199722e-01,-5.885350517048184571e-01,2.188662654891948001e-01,3.644124191319393913e-01,-1.125673285854697503e-01,-4.098959499737144241e-01,-3.671197180487765777e-01,-2.446306829950446182e-01,-1.123605677231575596e-02,-9.266392968924380691e-02,9.933707709233827732e-01,-1.298715276553850939e-01,-1.478696708246181490e+00,-4.145539989156096089e-02,-8.982017160805252365e-01,1.533091096906418448e-02,1.406025467783152405e-01,-4.378695939157316031e-01,1.013253617760833530e-01,4.426752596476931090e-01,9.204559579478739373e-01,-1.248728679955783544e-01,1.772563980248071866e-02,-5.809810199079882276e-01,-7.669194966409250691e-01,-1.280113480573959794e+00,8.757228213776578896e-01,-5.975469902838475011e-01,-6.565665428215420631e-03,3.389797940299988377e-01,-1.193810797751990171e-01,4.421854894504881339e-01,1.045752079079066421e+00,-4.748342635782675236e-01,-8.186989023610214966e-01,2.926736254054906339e-01,8.980524553965084644e-01,-1.890698589637799243e-01,-1.128527234223279052e+00,-3.320854630996710188e-01,9.054081091333383569e-01,-1.719200281177034051e-01,4.765991673571918774e-01,1.027650361862270795e-01,-4.875323865883000041e-01,-7.773925074204931507e-01,8.842225770908409554e-01,-1.413384834749079833e+00,5.814422784450565818e-01,8.437687538846875279e-01
2.749252857304608777e-01,2.325897455443080158e-02,-5.472970415461211324e-01,2.247599027489338361e-02,-1.368704186469788864e+00,-1.017899337270579796e+00,6.893418115999623286e-01,-3.509421241609032571e-01,-5.258151033854101541e-01,-6.240043058401808507e-01,2.824223658787958224e-01,-9.601813068637545800e-01,-4.453817988804044115e-01,1.616430875414465451e-01,-6.795646784311878963e-02,6.968235086765220965e-01,6.313893945222205373e-01,-2.681759208017129859e-01,-6.719041656015671826e-01,-1.006253843221639688e+00,7.117362090345318304e-01,-8.725701467705758718e-01,-3.611791776719002200e-01,-2.114432193351549194e-01,-8.968788238070198870e-01,6.643619368179213280e-01,-6.794521819810060981e-01,2.116472416273836726e-02,1.310467537551256889e+00,-2.804550660809865259e-01,8.425902141947391177e-01,2.079043972288859565e-01,4.432728850414979771e-01,1.236726888106860711e+00,-5.656687908710417156e-01,1.019229560081752195e-01,1.855883052911111886e+00,-5.001585908595141960e-01,-1.484614241456014283e-01,8.921961744978741393e-01,-8.531100860081414217e-01,3.113126217771741699e-01,-1.386597662952434140e+00,-1.300201817665595228e-01,3.536265608329888788e-01,-2.079358779446761341e-01,-3.764207116827583688e-01,2.385348639648040003e-01,1.069038211793037901e-02,4.203557427549337588e-01
6.675784703694139788e-01,-1.078251570910102181e-01,8.468122337081575995e-03,4.829819990931434326e-01,4.282784069709450470e-01,6.745877506121991107e-01,5.439830666044342955e-01,9.390103825119955339e-01,8.788010273537875949e-02,-4.027513881235543214e-01,5.443841179291780685e-02,-3.351706888610260227e-01,4.645456862986098168e-01,-4.087211120426780253e-01,3.826204290910166783e-01,6.213545656200645910e-03,-3.870440992132791469e-01,-5.763375104269656823e-01,6.940679103540052797e-01,-1.749369974756835588e-01,-2.950349663041169634e-01,7.348185335021280296e-02,-1.249776753196799456e-01,4.546469228862799472e-01,1.040595151892566239e+00,-4.916266876078055903e-01,1.281938345482982022e+00,1.738862819038298757e-01,-5.409432052050012762e-01,-9.293475792588725692e-01,-5.161730804885743540e-01,-3.359488529718422378e-01,6.709321519566624481e-01,3.381073932206993815e-01,7.575708837477034274e-01,-1.352406632736421199e-01,-3.007673239800147114e-01,-5.169123108099801245e-01,-5.641575157450611222e-01,-2.482418069502642377e-01,-1.412613161641533277e-01,1.869537033706381857e-01,-1.388538049990758194e-01,-1.050786984547845915e+00,1.292019778494838622e+00,-2.990690884040836939e-01,3.263136717290135991e-01,1.701609535866937806e-01,-8.405789447057754327e-01,4.193951350637876163e-01
-6.095817341202541817e-01,1.780234686438977032e-01,3.343584527274341966e-01,-6.873803984042777815e-01,-1.059369445788726494e-01,2.731522390443621440e-01,-3.492869526991928542e-01,2.641625980995336298e-01,-1.130912589744578645e+00,4.945494378269927466e-02,1.571251253241724155e-01,5.415303994543321231e-01,-1.365170292018448028e-01,5.144577125427723940e-01,-4.116580039393327173e-01,4.225433710060974568e-01,3.781780756024765572e-02,3.398471446497684512e-01,3.620350753833049273e-01,1.742195429370380910e-01,-8.630540453482056229e-01,-1.117356642423116553e-01,1.436954896439562590e-01,4.593922972665730464e-01,-4.141402530652438796e-01,-6.505131353336633948e-01,-4.290470981831659980e-01,3.034058678491843852e-01,-5.606295700644553515e-01,-2.745871024691340923e-01,-1.898134404631016459e+00,1.895505935033711398e-01,6.614008537725897252e-01,1.715505174526268106e-01,3.069243353716106237e-01,-5.608107455275235242e-02,1.582001399982698592e-02,1.253618931494921318e+00,-5.953155696930998442e-01,-7.485595131502273958e-01,-1.805312418866668045e-01,1.902546987091678077e-01,8.443611407525520862e-01,1.668084115090795183e-01,-1.692418387971249272e-01,4.756230841314690871e-01,-6.955587282970535634e-01,1.156610029361322678e-01,-1.505923083718322675e-01,5.860714109848316200e-01
5.107709960094747315e-01,-2.070093147255609375e-02,-4.532815495219433277e-02,-7.375764220150289319e-01,-4.976381894873637135e-01,-2.204452155909686628e-01,8.368207999959969001e-01,-1.152997385509222816e+00,-4.331050803687245820e-01,-4.930302477077708190e-01,9.736998256116158323e-01,-1.729643660828623641e+00,-7.117438229392881732e-01,-2.713043996154599902e-01,-7.341198668892564561e-01,-5.074676590971585188e-01,2.635974549153562857e-02,-3.790356851272968508e-01,2.080718794110134051e-01,-1.013994382373334169e+00,-5.693954373882205156e-01,4.322568499796281688e-02,4.187721531097186034e-01,1.846147291413986757e-01,-7.879470124200310677e-02,-2.502162337991561403e-01,3.728619019480092223e-01,1.806475502335761207e-01,-4.828684727953745370e-01,-1.209353312213901077e-01,-5.931936599613753247e-02,-6.897963106043299153e-02,-3.417113984843275776e-01,6.727872789905376960e-01,-5.329386904197145336e-01,4.597996550575520480e-01,4.178291654804451305e-01,2.663762904504162754e-01,-1.040245686607866205e+00,-6.646510443749729935e-02,-1.695595327857282453e-01,1.703248778854899170e-01,1.000544780577277137e+00,-2.655464953868698075e-01,1.187880975272475603e-01,-3.583507946288242985e-01,-2.563677427792281915e-01,-6.043519924697777768e-01,7.291221315657135937e-01,1.033810982486982333e-01
8.207648786971170063e-01,-4.249750340680377020e-02,7.063942641098459596e-01,-9.715719004096312617e-01,-4.449433125976062775e-01,2.558636042868024929e-01,-2.787930173242118004e-01,-4.275726389182023524e-01,-3.374601377857198714e-01,-5.063534785829791884e-01,2.881135872579275725e-01,-2.111484817052611263e-01,2.278253233910412789e-02,1.693913887153394582e-01,1.550372206590353297e-01,7.739973956835795033e-01,2.776748013240166735e-01,1.109231970335077117e-01,3.464164965692281273e-01,1.628484935334204575e-01,9.692107185197059716e-01,-5.328249572440445503e-01,9.820925530379784885e-01,-4.977071430941201191e-01,8.744497468848705379e-01,7.462158944363760371e-01,1.463455296968854680e-01,3.482888664770468767e-01,6.595560835055594984e-01,-1.294427710167478651e-01,-6.479862377228042813e-01,4.642793520651045114e-01,6.925553248963713937e-01,-3.569814855855014124e-01,1.246013704403806377e-01,5.531310339746328131e-01,3.291368145621628161e-01,-6.934698581834790598e-01,-4.434943119146805279e-01,-2.851074015110652837e-01,1.675756860571215867e+00,-6.095720496892836904e-01,9.461076389784188467e-02,-3.569684913856301933e-01,7.242262529650668190e-01,2.256601459881535376e-01,5.939878099418858248e-01,-1.281687724633495007e+00,-8.051654699431193274e-01,6.024985150399821132e-02
-2.639288027325548125e-01,1.339090927665549380e+00,2.092901618901599758e-01,1.902514238139426939e-01,-6.059016377389886410e-01,1.341356055287650006e+00,-4.816997695255885170e-01,-8.921305708825856273e-01,-2.582104369401834743e-01,5.155324564494710993e-01,-5.261599489792777133e-03,-7.469207869426930380e-01,2.677692065909327845e-01,-1.304096814304944729e-01,2.133078887107443533e-01,3.851316158889258046e-01,6.069776282359851116e-01,1.762238550602592269e-01,1.774887073644200175e-01,-7.882399804981792268e-01,2.648188282664566406e-01,5.547954467730573658e-01,4.412627522638492561e-01,-6.350161100744122766e-02,4.044434869487990025e-01,-5.770021932298167178e-01,3.368707776624557670e-01,4.950911894037197114e-01,-1.029662998146499975e+00,-6.715085248127549145e-01,5.579818141566559309e-01,1.481424393873864986e-01,-3.566965879596266098e-01,1.242188325317831743e-01,3.657796122148506551e-02,2.102913228549689040e-01,6.623117494904210423e-01,3.985517779730328447e-02,-7.859103433120512294e-01,2.572786376488498949e-01,4.670337225421810623e-01,-9.442476522422704743e-01,2.776714068369942057e-01,-1.163134704499865446e+00,1.305510406545470348e-01,9.442843459247295401e-01,1.493139935266277973e+00,-4.260574781304119485e-01,-2.664605294319353779e-01,2.019308272200204604e-02
-6.477688358602619045e-01,-1.260844033798302233e+00,-4.098312151715471363e-01,-3.706054390902743800e-01,-5.477025481569969267e-01,2.369600291580441220e-01,-6.941355893651678377e-01,9.883760226267082061e-01,5.812787131242447280e-01,5.619174709189809214e-01,-3.304950079760678866e-02,9.340193613960980079e-02,-4.244588959521376492e-01,-5.734994726892790329e-01,-9.945295704820251992e-02,-3.720737571030405255e-01,7.414211440678011300e-01,6.440231708666489530e-01,-3.366352670896519683e-01,-1.741950871662639733e-01,-1.837516023688466060e-01,-5.306445599201822239e-01,6.675583654582354365e-01,-6.424088600861175280e-01,-6.754232193422752273e-01,6.850864451748686634e-02,-1.387743400432893015e+00,1.774180778098091438e-01,2.538239699101052082e-03,1.144994741334671939e+00,7.574839219713912497e-01,-3.885280465837901986e-01,1.041930064179549947e-01,-4.976387117013348349e-01,-5.999632212186088720e-02,-1.696735223249609958e-01,-3.845211629049898883e-01,1.394679855254688239e-01,1.031038868659723606e+00,3.824937047313674982e-02,-2.150693564939299696e-01,2.487425610895420414e-01,-4.842173207272430085e-02,-7.151888665437669719e-03,6.072721467641389870e-01,2.688190503711760937e-01,-1.287286207012178663e+00,9.921488002236883430e-01,1.564235972874894742e-01,-9.360223069327872070e-01
-8.014085811354139111e-01,6.436597083212446391e-01,3.797719004300960655e-01,-6.939270590204057454e-01,2.952445943526924022e-01,-6.194297711182545907e-01,-9.014911955455349180e-01,-3.804066365003114791e-01,-9.183249213504078856e-01,4.577561288386848837e-01,-8.865068791449187691e-02,6.187144386722503997e-01,-1.474868306962002551e+00,1.246073243480579490e-01,2.667184984878918641e-01,-4.201783703578113732e-02,9.600520506426495349e-01,-1.898935442641468962e-01,1.104173303991682342e+00,8.684800595189218209e-01,6.109941838890095012e-01,-5.432351582849485050e-01,1.990575847750978566e-01,6.929716649956488839e-01,-8.072178996942132034e-01,1.545876052866635153e-01,-8.654487958908879675e-01,-8.370276719814473410e-01,-4.894736330559095183e-01,-2.398854770133890604e-02,7.173981768384313229e-02,7.251827667471425487e-01,-3.353287345811058473e-01,3.921839952011810237e-01,1.294089924329015595e+00,-1.439036936082356055e+00,1.560626209536741360e+00,-3.433312879647777982e-01,8.584282258988188419e-01,2.859094944169801034e-01,-8.666251387011804086e-01,-7.988177944855933132e-01,1.002091027332166623e-01,-3.655612301620858040e-01,-1.245050411402212481e-01,3.087481987903994973e-01,-1.912365015291242754e-01,-6.032949694829235765e-02,-1.166601039421674146e-01,8.539275590077471945e-02
3.362001124937520902e-01,8.568227517058196741e-01,-7.719290551292362634e-01,-1.620378814871445972e+00,-3.611569071351188320e-01,-1.911574615414746714e-01,-8.314066504024706372e-01,-3.906156168903530262e-02,-5.630868207531017910e-01,8.115576223381508747e-01,-6.299181520634498099e-01,1.403708281194885554e+00,-3.505533795060586377e-01,-1.113143312874167734e-01,8.353619087517142328e-01,-3.975113526139743558e-01,-2.899424169156755160e-01,5.166589406405376339e-01,6.950050507482300466e-01,4.580704314331817129e-01,2.626985945735342831e-01,-7.842266167492970563e-01,-7.258291933248790517e-01,2.465775226137859599e-01,-7.514977401105289445e-01,8.439259343096815469e-01,3.731165696061987669e-01,-1.328298834432363462e-01,-3.022076331328744092e-01,-1.171187326025561193e+00,2.730608897552061487e-01,-7.179427699070594082e-01,-5.036549383540857017e-01,1.832097016792757355e-02,-4.146397306703190622e-01,-1.003505554142434947e-01,4.701118971934430402e-01,4.412923007543379517e-01,-2.834282316699903159e-01,2.286185859783989027e-01,-5.205490577207514541e-02,-4.626445790526806379e-01,-6.648946782495133156e-01,-6.832828482651117641e-01,1.433517557731866371e-02,-7.402870061744794283e-02,3.258285070164703146e-01,1.256848816936399826e+00,-6.485052464987169918e-01,6.826549369906080855e-01
1.061906065407916211e+00,-2.191825148256268396e-01,5.358438635696747415e-02,-1.832505721122202821e-02,4.578515313511126728e-01,2.606323741973769481e-01,1.396541500585624443e-02,-4.285518114092856101e-01,-1.437153294122159308e-01,-1.505178309068728459e-01,-3.611337419643248503e-02,-6.127297895475706246e-01,4.271279369175094431e-01,-4.289443554653284973e-01,7.095685236225256487e-01,7.431889711170377999e-02,7.593450979707828674e-01,-1.351437768922740534e-01,-1.273770657738603207e-01,-5.764439851971641104e-01,-2.846336469025467775e-01,-6.778232454002726115e-01,-4.701382149744565836e-02,-5.049371949398431259e-01,-1.325442261241834840e-01,1.806732206665253582e-01,2.635503794154601120e-01,-7.793713992443841443e-01,5.175421715313383020e-01,6.684027156113542256e-01,-3.326711040829945926e-02,-2.370945523068103133e-01,-5.135148179329761531e-01,-2.023011755844656701e-01,9.125501111435800894e-01,-4.840395938611892213e-01,-5.659754377435209927e-01,-5.302852682483465419e-01,-3.264225871024830639e-01,-1.767428315658499671e-01,-4.745323121830087865e-01,-1.157943224287673933e+00,-6.879175915042233524e-02,1.542272984691267501e-01,-2.214783271475370945e-03,-4.482305335963902015e-01,-9.308717349014724585e-01,-4.238106946597164360e-01,4.698459534912172719e-01,-3.691059246808850447e-01
6.326158917659202574e-01,-4.844545657146930306e-01,2.764553156295275760e-01,4.481227226951445264e-01,-8.519363381322776485e-01,-7.007699563109698326e-01,-3.368902077619124191e-01,-6.224352057192767962e-01,-4.343391732175594377e-02,4.479771043589598524e-03,6.689230621517266995e-02,-1.646875081418992803e-02,-4.977389329715775079e-01,3.307172216161996525e-01,2.248712405773112960e-02,7.523511716558545226e-01,4.673609819830611828e-02,1.461660921524363443e+00,-5.570289673158471677e-01,-6.998375410622655890e-01,2.388192966505255366e-01,5.965793244807594542e-01,-5.410529672657875544e-01,-1.500303332693855851e-01,4.311842742957607277e-01,2.559180303865612460e-01,-3.588253687068351239e-01,-6.168728026889540583e-01,-7.438387699027592115e-01,4.181501218086169369e-01,-3.614438086382871784e-01,-3.904513988136224835e-03,-8.178425494981448329e-01,2.577308989810977308e-02,-3.867642752603145384e-01,-7.111433625965044025e-02,-5.616994023142464210e-01,4.917988556780535925e-01,-6.939989424832268550e-02,6.427382998646324896e-01,6.732808151410816233e-01,-1.036187185243027331e+00,7.403184790815570127e-01,7.492772442566406621e-01,7.879784828620740589e-01,-1.523511748198920879e+00,-2.082383539594357680e-01,6.292799021324565478e-01,3.828263902655730244e-01,8.124515665463819536e-01
1.698880709691266422e-01,-2.920015944223884885e-01,-5.350802017292898283e-01,-4.798370535715661966e-01,6.282367857971496994e-01,-1.921635513341194701e-01,8.706780230870054746e-03,1.697479750775733043e-01,-1.663570822446336361e-01,-1.995848675264544070e-01,-1.438971113039901439e+00,-5.260663060207426689e-01,2.180195155177387933e-01,4.559277148233817356e-01,-9.024638751075461096e-01,-1.113022186903624977e+00,-1.527463495099236623e-01,-3.916252976387810669e-01,-1.255075974990680576e+00,6.138383421500225312e-01,6.184079648363018933e-01,-1.879866667880171135e-02,-2.083495085845707695e-01,4.796466726513922696e-01,4.472780871734865354e-02,2.098082732473251499e-01,-6.676370218273663948e-01,2.843886639180626674e-01,5.088886213904348921e-01,-1.482149109006520027e-01,-2.874037779667641679e-02,-5.331375631644382773e-01,1.842286946927950558e-02,6.356713882509028302e-02,-8.968150588233014808e-01,-2.490744690960244173e-02,-1.633819408522757310e+00,5.768954923964775966e-02,4.184160095209705221e-01,5.673414425461998922e-01,-3.855510489873956170e-01,1.100578528531947597e+00,2.342454101650881526e-02,3.494982660900831095e-01,-1.381917695881676567e+00,1.487854340558814395e-02,-5.154645624486677846e-01,-2.780393078140818708e-01,2.962237028022371987e-01,-1.193874847534107941e-01
-5.532211385381488045e-01,7.563504338883841882e-01,2.858812434169114569e-01,-6.287439093516413724e-01,-2.891677158732351427e-01,5.260429295143292938e-01,1.143965705469307315e+00,1.246845150976383237e-01,-3.094498127147033428e-01,-9.674458844407044511e-01,-1.004419486282657648e+00,1.746784405759890524e-01,-3.548674541151654038e-01,5.551675242063941473e-01,-1.491145969861518372e+00,6.890793977599246611e-01,2.310433572108169242e-01,3.220305631974663685e-01,8.795093088407565651e-02,-3.606183002307077334e-01,-9.807088576331774998e-01,-1.028268092325039379e-01,6.088731031934895288e-01,1.320220364086299447e-01,6.303616659295980806e-01,8.987309455242175060e-01,-1.103016262431771422e+00,1.444631007171305083e-02,3.151324030202225512e-01,3.523933006482984354e-01,-7.899396507414109536e-02,-1.195629974136932228e-01,-1.113317396920811830e-01,6.485005583543249630e-01,-8.602945901461928058e-01,-8.221428311784968468e-01,3.697063279623808429e-01,-4.046900040151871769e-01,5.187492697216886661e-01,-1.359631168903758791e+00,1.696097238050931766e-01,-1.304083188931861592e-01,-2.894562266758004404e-02,-4.135892056997569344e-01,7.505361781010092548e-01,1.141705632841702567e+00,6.709341413697261780e-01,-4.646131931045788255e-01,1.037265170435085482e+00,7.055415395198386674e-01
4.007812616382429582e-01,9.706612528195902867e-02,1.184662896100550755e+00,-1.467326963204202972e-01,-3.222848568580868878e-01,-7.529757765039519768e-01,2.712901525327550689e-01,-9.380605425575487821e-01,9.814403910154224642e-01,1.469451379798031754e+00,-1.090074044261103575e-01,-1.478833405392329992e+00,8.655064862215332278e-02,3.374199090513336219e-01,1.238390252344695464e+00,-9.504498604135239725e-01,-1.186993213861954111e+00,-4.980489839907394356e-01,3.444035387715114749e-01,3.493714784052985856e-01,6.853882566803304321e-03,4.962402437104524444e-01,-8.409460785290383544e-01,-8.291521534717708475e-01,-5.059002087444212092e-01,-2.804579194883849783e-02,6.088973102848321828e-01,-7.375467914004898984e-02,-8.187284973791132403e-01,-6.615793269002042676e-01,-9.449261521711954659e-01,-2.893146539528665406e-01,5.556264107679823594e-01,2.608961422528757127e-03,-2.346060564507523871e-01,-5.473608076610422812e-02,8.748783051722877711e-04,-8.845738155680117343e-01,1.046306491244281434e+00,6.106758497183701895e-01,2.197092744767924766e-01,1.043512532066648957e+00,-2.519333797418214504e-01,-6.518347568105030687e-01,-6.706919821678767324e-01,-6.925913681806650235e-02,-6.971633886360702193e-02,-1.628805359955270149e-01,-5.501195027370096025e-01,-1.191783199659830927e+00
-6.173450464613002009e-02,-1.156751414006015555e+00,2.286161068129301255e-01,-4.274536475997814944e-01,7.878529769867512189e-02,9.094389499857586934e-01,8.788910723154178539e-01,2.058843252447435102e-01,-1.364032647279214139e+00,1.315577408239016144e+00,1.096765720063626937e+00,-2.004060369365224803e-01,7.565796073784095688e-01,-1.324892339490839066e-01,-6.954884849084104204e-01,-5.495170832593242460e-01,1.641113888844202562e-01,2.760698791367311444e-01,-6.885837707393653861e-01,-5.161519042826417936e-01,-6.195013129719452172e-01,-6.457056294351896930e-02,-5.261134479281300708e-02,-9.195788254017426278e-01,-4.885750272897079749e-01,8.683861983908114368e-01,3.340629216373136590e-01,-1.286165284833312161e-01,-4.465633859991622462e-02,-2.457699304662092077e-01,-3.328390137333995247e-01,6.803703441813954145e-01,-9.141081722324509995e-01,3.917723539292559121e-01,4.667374454981692428e-02,3.829005595290147501e-01,-3.612875605054770289e-02,1.115403227865911645e-01,-4.754469114222249493e-01,-3.095976190241594983e-01,6.356362246882409917e-01,-6.662517421342883939e-01,-4.084652411504323677e-01,-2.271251354800535027e-01,7.886169940833855085e-02,6.080822890676410575e-01,-4.792005480303669906e-01,-1.766172028578940623e-01,-6.235488444665991947e-01,-1.061834455557799206e+00
8.912998427804715018e-02,1.176101109052348992e+00,6.991293972940868517e-01,-9.519064308252781492e-01,9.497125497851099940e-01,6.506910611442308090e-01,-9.735673751199275250e-01,8.756539660077063969e-01,-5.082395657481606488e-01,1.071107730918658518e+00,1.620280075640613549e-01,-1.957035775809653932e+00,1.346024503192686239e-01,-4.439034838948063277e-01,6.082182389810187884e-01,-5.189735126842752733e-01,-1.274601847122942659e-02,2.429811426069616587e-01,-2.155384497807695809e-01,-3.420734099596335898e-01,3.688445249161335093e-01,1.376189022851773969e-01,-6.825421056544752618e-01,-5.724035151515780573e-01,4.778558224370577090e-02,7.531996507347519243e-01,-7.645375309737731939e-01,-1.567945462772100673e-01,2.619804121429527566e-01,-2.285652901474672094e-01,-2.260109954062695936e-01,9.669963106944483577e-01,-3.469734496363509058e-01,2.987329140535951444e-01,-6.330726759270279835e-01,5.337682833999636278e-01,5.545847477988998797e-01,-5.019879452049917923e-01,1.291421647275391438e-01,-6.624082863194689086e-01,9.087824001704677412e-01,-8.079802120681350841e-01,-7.681392422269373021e-01,-2.646671753907617886e-01,-2.772864872512051382e-01,-5.839094895889859194e-01,-5.237510454553567785e-01,-3.249567044085591161e-01,-2.966805049596903943e-01,-1.136988568090152363e+00
8.522131840121376367e-01,5.197383506688788568e-01,-7.309511635800536311e-02,-1.046376606273370591e+00,1.077848520197808302e+00,-3.256962933745652933e-01,-3.610156956473949408e-01,-5.158188626940577448e-01,-2.509407400682381883e-01,4.677555364803883120e-01,-1.323846456553442019e+00,1.850945268241408759e-01,-1.343012917648717108e+00,-1.502667488021990905e-01,-2.392575898057640593e-01,2.876615901339683590e-01,-9.742252547292580278e-01,5.019175501892859242e-02,6.271020254880547151e-01,2.343556413570965433e-02,-1.955552994433254477e-01,-8.845434451483387139e-01,-7.898776226975572357e-01,-6.299243286598693592e-01,-1.539401611834579492e-02,1.171351845486422683e+00,4.302292272651856431e-01,-4.824950988634945648e-01,2.394233842929096023e-01,-3.736643446152495551e-01,5.842323079367354177e-01,-4.610398424735033807e-01,5.270946697688508320e-02,-7.765784603072428682e-01,6.776171820026487547e-01,-4.552290407125020866e-01,5.369144761161661478e-02,-8.101520865565114971e-01,-4.507461111452715219e-01,-4.677395060883064726e-02,6.797475912481220073e-01,7.619273502213896876e-01,4.200345019228557963e-01,-8.456832137732137600e-01,-9.225385353840961922e-02,1.302616131844247738e+00,1.745995516531001213e-01,-9.066280312593234803e-02,1.226337112025425613e+00,3.916959017251451236e-01
-1.060818546327896156e-01,-3.708699715983339029e-01,-3.204852547504830618e-01,-7.555568015530261805e-01,3.097030927072054740e-01,7.383485322076734914e-01,5.481293565101206244e-01,9.252642068622479732e-01,2.631220273018268774e-01,1.082761556219546728e+00,1.079585837943958904e+00,5.879116510416335650e-01,2.499813278981460329e-01,-4.933595729491968562e-01,-7.524618879303159036e-02,-4.186239044160952605e-01,4.335444213542286040e-01,1.245520721161304190e+00,1.446910415794822324e-01,4.923609984846132326e-01,1.601815854560832308e+00,-5.831621339425263617e-01,7.574243346756837081e-01,-2.663885842226076939e-02,-8.321694525647536089e-01,-5.778653332795959975e-03,2.829748982354764464e-01,-9.113778524137882142e-01,5.205345371906564544e-01,3.097630009215611713e-01,-6.826508398342178152e-01,-3.201000970410389224e-01,9.046213232005310134e-01,6.533352573085608739e-02,6.087278684401314921e-01,1.604251183939433834e-01,-2.623445712495436899e-01,1.577560511533883103e-01,8.573062259422707665e-02,3.144176121501339183e-01,2.576531730700655776e-01,2.072982351542854706e-01,5.809473716318350744e-01,-9.061495673232861092e-01,3.376468901663944311e-01,2.532582127090298174e-01,-7.594552783928422146e-01,1.210902381055117827e+00,2.439312382447610950e-01,-1.150186084423555410e+00
-6.425006034910408781e-01,1.203114009773827542e+00,7.261064661135485654e-02,-3.132872892590160552e-01,-7.565557841446445275e-01,-8.625410809207000318e-01,5.889212274702845251e-01,-2.401388236456474812e-01,-4.327743727671822804e-01,-4.165390554029229087e-01,-6.584164214460662412e-02,-1.250793147977350417e+00,-2.879278730434036149e-01,1.939978381975926147e-01,-4.949337922186904937e-01,-5.341129932903893041e-01,-8.900588805613171006e-01,5.991025886110064036e-01,2.372004236544461020e-01,4.180807451333271724e-02,-9.646927136844631046e-02,-4.019198389511049463e-01,-1.399478743286275140e-01,-7.480525862221536482e-01,2.345365060561481127e-02,3.339001953811016610e-01,-2.947524866716857428e-01,1.245994710601558420e-01,-2.145944327986779032e-01,-4.210918039467871354e-01,6.699902114202648251e-01,8.236790076320360532e-01,1.181993714452690518e-02,-1.025795708534839701e+00,-4.112462175084415361e-01,-1.144595105947380453e+00,1.534584141307235305e-02,8.246175349747245642e-01,5.915855112771692959e-01,-1.781664550386463375e-01,-2.138251694995743080e-01,9.387157616808773641e-02,-1.779683668906081595e-01,-3.144729416561897750e-01,1.465773905066511673e-01,-6.939269979179675252e-01,6.991429574866160346e-01,-4.656981673844147740e-01,6.103727902967447383e-01,-1.966182715009019977e-01
-7.649320025859824845e-01,-1.432454099590318108e+00,3.212991811519173013e-01,1.219645347778580691e-01,7.254903514363225669e-01,4.826194998359182864e-01,2.173533760677541504e-02,-7.503054275325172773e-01,-4.058534477064535406e-01,-1.850124714073219656e-01,1.807751804083968308e-02,-4.816447230154012882e-01,-1.538137771038834423e-01,1.552659827768770318e-01,-2.015576000386494482e-01,6.355413911314532482e-01,2.926873444160078552e-01,-3.560428618178155813e-01,-1.258335672609619538e+00,-8.576799155977914424e-01,-6.686190086210684613e-02,-3.697540883010692059e-01,4.049756209595436474e-01,2.029069090744718695e-01,8.061285489252040248e-01,8.947654256613092605e-02,2.468364840005043692e-01,2.004082353137184580e-01,-2.366750750133539416e-01,3.739438884892091752e-01,-1.662321226555696363e-02,3.199372831836800879e-01,-4.220525659194611090e-01,6.801086993697413874e-02,1.122923411323470511e+00,1.875475097977470640e-01,6.497903948457053325e-01,-6.455988762631175160e-01,-1.327955664292259086e-01,-2.844696815907296616e-01,-3.713377320901339873e-02,-9.364285223664168267e-01,-5.150521538882266714e-01,-6.209956228834685454e-01,3.161239297614765187e-01,-2.601680338287714056e-01,2.399918054162844538e-01,-2.462351507403198747e-01,1.478025383384786937e-02,4.072127653007458041e-03
-8.058807851848737158e-01,9.010873569990521803e-01,-4.400290350995973987e-01,-2.177121866529597993e-01,-2.970659025060093938e-01,3.858428447473645218e-01,-7.721701157275504546e-01,-1.665623934242688731e-01,-8.342459608998183118e-02,-1.318391850586259628e-01,-8.206985647249119553e-02,-1.681269872181027913e-01,9.430490289365576206e-01,4.852730453939214650e-01,-1.569958570446366330e+00,1.257961715703355687e-01,1.405107159619232386e-03,1.287455929274861299e+00,1.709515581151695440e-01,1.614383481349694061e-01,4.041745979792197533e-05,1.193673871778200057e+00,1.842811178562857657e-02,2.982407994709194710e-01,4.996303147428883019e-03,-5.795188145513485711e-01,-8.152260583736792299e-01,-6.386983936646217774e-01,-5.610289906350041100e-01,1.215665228679826626e+00,7.232080419868124332e-01,-1.387783981939868794e-01,6.656747763577307575e-01,3.123064029254934981e-02,-1.150205825070327731e-01,6.616149505779893580e-01,3.325360996992567375e-01,1.558032058844476542e-01,-3.208528162432696673e-01,-1.917892338649018202e-01,-9.441344268251002092e-02,-5.733157281017804696e-02,1.515238113196040459e-01,-2.235445809506862724e-02,8.403635898052249642e-01,9.787586914990855647e-01,-2.589658710559842869e-01,1.503514595012808153e+00,4.334541903890364728e-02,8.268461526302797182e-01
-2.390987157617430747e-01,-6.133443124941965197e-01,2.331978545080758691e-01,7.469882559738597050e-02,4.121354485836642989e-01,-3.509163927117660009e-01,1.027533496376830335e+00,6.997391535976483778e-01,4.910664740826801156e-01,-3.479763424241331116e-01,2.035348843536793073e-01,-2.998670609134831411e-01,7.090028487886503861e-01,-1.777938035951695250e-01,3.670138706078392432e-01,-2.868182468267099217e-01,-1.016917374788309791e-01,-2.291032549901466930e-01,-1.070623507543942754e+00,-1.256226919410526444e+00,-3.879526986996887361e-01,3.059145784239323818e-01,-5.111192575509470037e-01,-7.575416886545659201e-02,-4.397589129396236030e-01,1.909432688156016134e-01,1.605224119198377930e-01,1.973908159740130341e-01,-6.337594981052807608e-01,9.464590959968355310e-01,-1.175524893896479767e-01,7.394439227701615769e-01,-7.224236376280588345e-01,9.765773511855105893e-01,-6.500225755629794600e-02,-2.504306858275104353e-01,8.608904326315710565e-01,7.136286110530679072e-02,-1.689498755024742560e-01,-9.313084540494185326e-01,3.251961660800353066e-02,2.378477694505702345e-01,-1.462926696581307306e-01,-1.421441091872696516e+00,-6.116112366854793425e-01,-6.182165415652295382e-01,1.815120053598145988e-01,-1.149637907251771063e+00,5.572950452050392384e-02,-5.654001334743256058e-01
-8.819740202767208104e-02,1.354028696518459751e-02,6.669376436026389632e-01,-8.667106557990592042e-02,-1.400246328626149506e+00,1.075779129004027640e-01,-1.096005598501539557e+00,1.117274624884387890e+00,-4.226775255287368860e-01,1.593955354290152171e-01,-5.173020136067316699e-01,2.034139155151705736e-01,-2.525138979578330778e-01,7.592041025844883384e-01,-1.827508943161138544e-01,8.892486246927814308e-01,4.075975013341365250e-02,8.547173582386635715e-01,1.848764197031476930e-01,1.392187167291480121e-01,-8.937494645583842212e-01,1.478371906100609534e-01,5.215070590321055910e-01,-1.535049602064153806e-01,-1.753376958723467383e-01,4.568030743775796099e-01,-9.704212191705823276e-01,2.568420940386924034e-01,2.958025442600844546e-01,-1.835415169738928987e-01,7.160699681782045634e-01,4.607824245211530889e-02,-5.076334842219559773e-01,1.086559101499170663e-02,-6.761975097097442378e-01,4.467387194608576917e-01,2.375176166468150885e-01,-5.949159955287142143e-01,5.633747208388117933e-01,2.477011661347349181e-01,1.091474829208955999e-01,1.556107147414836467e+00,7.080944773752732013e-01,1.940199242606392982e-01,6.946187668329866227e-01,-5.789291004966811149e-01,7.036790296022169544e-01,-1.167342098694218455e+00,-3.340113621273085309e-01,3.705789140572052776e-01
-9.957624147443151774e-02,-5.624879937002749131e-01,-2.828104421657334222e-01,4.673373530019436783e-01,-6.914129733999986316e-01,4.722188939377761074e-02,1.943814906045882029e-01,-1.002293299720277364e+00,1.645779461725268081e-02,-1.086248521291812708e+00,9.381879372709127363e-02,-1.670492336086393026e+00,1.018309591326626684e+00,3.575732405708942907e-01,-9.663359584130794266e-02,-3.165852809555462413e-03,-1.953349143611527450e-01,4.351260266542731903e-01,7.332755517594224948e-01,-6.995115042248406523e-01,-1.476290892658012888e-01,1.698483782837483663e-02,-3.409320419840767835e-01,3.310704063195233360e-01,-3.974824728664198559e-01,-6.039170215115390317e-01,3.148458535293368055e-01,7.530048182130028023e-01,-2.175094437261931579e-01,-6.638938519912253311e-02,3.647854626858897942e-01,-3.900066089263903163e-02,4.142281573565341768e-01,7.810059690893328410e-01,6.792118850321890444e-02,7.495969625192311359e-01,1.070189150870038963e+00,1.390377354075777727e-01,-1.414226813872250688e+00,-1.231474974530546884e+00,-8.953468884206454703e-01,-6.127425752934625436e-01,5.217403875550850056e-01,-2.916940643328345684e-01,4.463381748156967643e-01,5.125019880152509311e-01,3.460727882618195861e-01,-3.263397848816977920e-01,-1.435716288323051204e-01,-1.195586208363391134e-01
1.366250423239500300e+00,4.082832675933865674e-01,-1.875414747417375808e-02,8.182205123749203279e-01,-8.936986392368171869e-03,-5.162322484879008355e-01,3.548487188999542852e-01,-2.689307340987520320e-02,8.919334591774257248e-01,-5.527876344921699436e-01,-5.891126508098956105e-01,-1.481980844080616963e-02,-4.639515250472208141e-01,4.000653538214002936e-01,-1.875785958512442564e-01,-2.901202620560838219e-01,5.966456077833703214e-02,-7.973142005680623479e-01,-2.274744030068306389e-01,-2.845904661390714074e-01,5.722539048418808783e-01,-6.485020282925940682e-01,-7.710869572705041086e-02,1.243277776373278076e+00,2.691583311239133525e-01,2.873999845531290398e-01,2.449964897762121341e-01,6.647677329053567341e-01,-8.771161177630600048e-02,7.792527416593224288e-02,-9.040834140704467892e-01,-1.138862998851801756e+00,4.683490545610362599e-01,-3.690180366047250970e-01,1.975396357645577139e-01,1.166400198099669522e-01,8.236902076967452802e-01,-4.972081432074269003e-01,-7.165635315937001204e-01,-2.949702834424476339e-01,2.357535389703927300e-02,3.788271214751349203e-01,3.397646185301708699e-01,-2.314138426314949482e-01,-3.893631653735970533e-01,6.443415026335596041e-01,4.684316135531442216e-01,8.371487539634967501e-01,7.339086004704683530e-01,-8.167763192622254920e-01
1.177016468011522043e+00,3.406568201021814013e-01,-1.768355224787179214e-01,6.149846306938707707e-01,-1.054077847355709086e+00,-5.328213976028108867e-01,-1.174397100793326959e-01,3.016128935142207701e-01,1.081762592263197043e+00,-1.110930567998549140e-01,5.898271729289799037e-01,-7.437185983494394304e-01,5.392318519976378038e-02,-5.846502154724970701e-01,-2.997931568022826898e-01,-1.018619862557903766e-01,-1.883870655706257335e-01,-8.328830203721059311e-01,7.079390541622946342e-01,-1.881919449179438597e-01,8.322255390702960609e-01,-3.258187853146136681e-01,-4.496306469134297989e-01,7.457030942446678523e-01,9.796335490806267199e-01,2.610805346917561068e-02,8.298890253510322612e-01,3.240537614944976608e-01,-1.032390216653471526e+00,6.933898584638714668e-01,4.486748781080661663e-01,-5.606627894889969904e-02,5.009455430744166327e-01,3.859324336744604511e-01,3.808920719693685286e-01,4.686775517961909165e-01,-1.314836556126558031e+00,5.617842740251629552e-01,3.535040128206138471e-02,1.466543519400266282e-01,-1.340627653388536990e-02,-4.966409520813936940e-01,-3.021144245570530490e-02,-1.390552979800510625e-01,-3.879453478483310680e-02,-2.215613898212720201e-01,-9.830185942920544040e-01,2.512466199028017821e-01,-2.337962085988374572e-01,-2.079714780724738477e-01
5.638690738196764363e-01,3.683837555824699961e-01,4.304497256463474253e-01,1.254078618287984836e-01,1.806726243783850716e+00,-5.232473757262144920e-01,9.970649696993089117e-01,1.108419902932358037e+00,-4.938468661592895215e-01,4.103042933146260757e-02,6.692928906422114521e-02,-1.939141889939876851e-01,-5.437898307202593262e-01,1.001783893597912312e-01,-1.342435235684205086e-01,6.696615137127354123e-01,-5.311848798384794651e-02,-5.020745239196729992e-01,-4.512047580820686132e-01,3.309500437617345914e-01,-3.392605312178578747e-01,-8.069061432692664626e-01,7.697492478371574520e-02,-4.375612818109674840e-01,6.777989573505167620e-01,-2.867874983519694276e-01,-9.027198370193813270e-02,2.381183975598608893e-01,1.187516755469461449e+00,-6.220131494645302350e-01,3.527195926688647676e-01,5.900152174276539485e-01,1.746663530253265983e-01,1.103690176297160430e-01,-5.627283218834806533e-01,-8.635641400654272548e-01,1.206721300034716338e+00,-4.552912081644606701e-01,-1.082806644860472844e-01,1.066349948312767804e-01,-5.844734124824406685e-01,-1.029979166251660194e+00,-5.262907989084861793e-01,2.853927204148501984e-01,2.181851180477539232e-01,-8.856091009620760124e-01,-1.183087627359526439e-01,1.935419407273313297e-01,3.443916210275637657e-01,-1.062301381611743256e-01
-9.626822164120074632e-01,-3.344343948771192343e-01,-1.048191765722251478e+00,-1.133695753927690841e+00,-4.417563199369409221e-01,6.888721558798996392e-02,5.159799529463681145e-01,6.364888316319856632e-01,4.831262750696809771e-01,-4.435499391762578320e-02,1.677854320581078848e-02,-1.220314693091573005e-01,3.979601043399433880e-01,-5.430054288771649640e-01,4.151278215350766021e-01,-3.324057648243752827e-02,-7.443932460430896514e-02,2.910518222781406650e-02,-5.651896341084484687e-01,1.958854244902130948e-01,3.406278566930860674e-02,-7.120481765788183592e-01,1.305674053527819956e-01,8.025933191886283069e-01,-1.501388872388378926e-01,-6.329221639512753184e-01,-3.955719828045482500e-01,-2.728360570113100847e-01,7.776830040275098943e-01,-7.889367865004177638e-01,7.370940041449252078e-01,8.604875944257082965e-02,-2.825664544939763267e-01,5.528907093759886093e-01,6.237239328150818718e-01,-4.365976676140356227e-01,6.921233550193951478e-01,-6.343580905929252500e-01,-2.848600717428630968e-01,1.364732559653265787e+00,8.908157668156561904e-02,1.794824829115288845e+00,1.229977479526507683e-01,3.841574864969881653e-01,7.840251928063307618e-02,5.981175575871577887e-01,2.309842289354586686e-01,-7.643417078481521409e-01,-4.666809294533941221e-01,-2.094551279286404333e-01
-2.796034135580648394e-01,-5.736208780494402859e-01,-2.838529334663651982e-01,-5.823972142856006506e-01,-4.891259738708167437e-01,9.282356373329229970e-02,-4.570217947965672933e-01,-5.598169189999046003e-01,-1.118629905794342599e-01,3.793960745804754731e-01,5.533786623302969776e-01,-4.727262663005773469e-01,8.872625991543563462e-01,1.442661600525691146e+00,-8.321633889020852992e-01,-5.749664063256986202e-01,-3.821310027160692013e-01,-4.605317950605699595e-01,6.566955044639010142e-01,6.203622370381461915e-01,-4.630844271939301149e-01,-2.668987449619545371e-01,1.812605824728958925e-01,-1.222886208860337609e-01,3.137915050357384383e-01,-7.120794540020177754e-01,7.477972489074733442e-01,4.875879344447920372e-01,8.676424711976308060e-03,3.432084136674429242e-01,-6.272505608518115228e-01,-1.573931745606653498e+00,-7.225218771474033463e-01,-4.206579115867840613e-01,-5.591107605634479949e-01,-6.692922053255577763e-01,2.737023264987815674e-01,2.077936022347610379e-01,-1.029110979093271983e+00,-2.265206911474535179e-01,-1.224049092478262102e+00,2.810680270958051397e-01,-4.256705887139970446e-01,-3.406098066241995959e-01,-2.850939870907928664e-01,1.030631541258875128e+00,-2.541423881865514586e-02,-2.217540614314034708e-01,9.405682044321578283e-02,6.491844067051932843e-01
3.316365632181963452e-01,5.193672402794187182e-01,6.646665257139633409e-01,-2.461368675175389653e-01,-6.656509581560974276e-01,3.639028364670305327e-01,7.336450778684880936e-01,-3.081755768740665480e-01,8.917376520422085617e-01,5.428880738229724390e-01,2.235952416568509349e-01,-1.036121105333684955e-01,-6.801234277588226185e-01,-1.315064941572409163e+00,-1.758721835179312132e-01,-9.525994558089401210e-02,-6.131185519741378931e-01,-1.706815479578551592e-02,-2.489123343392298238e-01,-1.031355592109973185e-01,-6.883784527098395500e-01,7.753315587984089818e-01,2.741307745274922381e-01,-1.655775202494036702e-01,1.182146261324476116e-01,3.913655271553072024e-01,-3.163604556906471355e-01,-4.525407082407388315e-01,-1.860718006031600869e-01,4.265636737636548104e-02,-2.531028420320414196e-01,5.511826324770837671e-01,9.246586006820464165e-01,3.836040345489685754e-01,-4.816502278558188466e-01,1.792926379806556447e-01,-1.803545696615577454e-01,4.580508693172648527e-01,-2.716578056709711420e-01,3.745912416216092833e-01,4.529614760947710261e-02,-9.984079162274879238e-01,-1.547452358721710164e+00,3.267868713388282775e-01,7.323965272503063506e-01,-6.937451765370501455e-01,-1.073329610977894921e+00,3.676727193572839614e-01,1.291828394744199138e-01,-1.184054991009894503e-01
-4.290417049589272946e-01,-6.319788684678285806e-01,-1.898149080417195766e-01,1.483090143958832319e-01,-1.598849250611627637e+00,1.173827907117991898e-01,7.843083131026430399e-01,9.570694228356095568e-02,-5.055309622962733673e-01,-8.421657424134324499e-01,3.638936396987075828e-01,3.007247616295619652e-01,-6.785385102652321532e-01,9.701985504079947420e-01,-1.588296283075325555e+00,2.663019640155361856e-01,-1.801136114140828581e-01,3.130662151311970898e-01,-5.026305545120749764e-03,-7.761669420783743334e-01,2.557196675189117863e-01,3.081990826925597449e-01,-7.507663520670800894e-01,-3.407288104161213527e-01,1.429270607209826460e+00,6.843151119836157203e-01,-5.127980238233670329e-01,-6.945994315020110887e-01,-5.435999673251715736e-01,1.328950732359554798e-01,1.196606167766254836e-01,5.820771519645135950e-01,1.324821173885374792e+00,3.489149390010709006e-01,3.397350163768051434e-01,-1.279945447482274679e+00,1.728617126868618181e-01,-2.274937571770197509e-01,5.540755546729726477e-01,-1.667721943155761943e+00,6.027660305837100330e-01,1.716579704271243012e-01,-1.220139039714217999e+00,5.781694151444706220e-01,-6.435039747769710772e-02,7.036329409765934573e-01,1.092956486771094804e+00,1.016258206879738640e-01,5.136495620678589030e-02,-1.053370217727369190e-01
-9.373447277960134105e-01,1.763564933052313988e-01,-6.833028931964180153e-01,-2.224402790883168723e-01,2.864766919227446640e-01,-1.617096126868955208e+00,1.569064301865129296e-01,3.179864847309930020e-01,-1.109054340330413169e+00,6.267633226656065260e-01,-2.742745200620907986e-01,-7.200577985102659673e-01,2.483668587139283568e-01,-7.974072202988166103e-01,9.716737571800778683e-01,-6.437374016111173658e-01,-1.224880310323475940e-01,1.866307585950797640e-02,1.170334458774240360e+00,-6.367238090059651467e-02,1.076267100664974885e+00,-3.864051685218855003e-01,7.974602354185832132e-02,7.954196812362503977e-01,-1.182780355478518231e-01,7.468329372735109661e-01,-3.269566613637782670e-01,4.978049137792557866e-01,3.984217035922756334e-01,-6.400176286202399201e-01,-2.059378533633881292e-01,6.672321272820508353e-01,3.776647176021107888e-01,-4.148726692566875873e-01,-3.008617307858205137e-01,-2.538733936012751990e-01,9.039801961339007930e-01,1.633686684385879939e-01,5.572652037384241419e-01,-6.639253979079665635e-01,7.246833607915130482e-02,-7.377991243823255330e-01,2.571010380975159437e-01,1.752005871510943225e-01,-4.539459133196430130e-01,-1.127886356615081853e+00,1.194748868569257549e-01,-1.054698672900258760e+00,-6.930346562511857655e-01,-8.517442179119813495e-02
-1.783876090338741005e-01,1.031652053394407631e-01,-7.958657353590764538e-01,1.183367534469627280e+00,-6.211809743513260207e-01,1.003889280242709625e-01,-9.528369614384080144e-01,-1.881398309470647123e-01,-1.725013081601127096e+00,4.153288156618267224e-01,3.577061864517810941e-01,-8.601573022461541651e-01,3.974303787814104094e-01,-4.324068776401260861e-01,5.401016833580651877e-01,7.835302977713070050e-01,1.414665564017713040e-01,-3.207261474822905023e-01,1.124689859745435561e+00,1.835084043875022664e-01,3.640216643595732271e-01,-5.082657997029170482e-02,-1.297000589138407323e+00,3.025692265984058493e-01,1.696208109869989933e-01,8.156786560656181795e-01,-1.592107782612046663e-01,1.913067450110116086e-01,1.006414177477990002e+00,6.814367483851678786e-01,5.802733563567395725e-02,-1.077818648303557447e+00,1.322743829412811545e+00,-3.045530139491352609e-02,1.936875267964216774e-01,5.978986433745533402e-01,-6.261331421699575239e-01,-4.861652704760571209e-01,-6.960370047585514586e-01,-2.202416817509499913e-01,-2.004008235584294195e-01,-3.281568594040534248e-01,-5.529301455286456113e-01,1.012315346181513309e+00,3.057664185046928829e-01,7.210293941887740976e-01,-7.600568574539234845e-01,2.151904520050043068e-01,3.094070967680067619e-01,-1.299656669513683971e+00
1.923494243998765674e-01,-1.139206470091525536e-01,-7.174654927297992035e-01,-4.243142414059947742e-01,-2.842070501472380162e-01,-4.580048250058204595e-01,1.829823462335184170e-01,2.210690330218009203e-01,-2.100816017054168428e-01,2.207500037477598542e-01,-7.084391954573432404e-01,-1.597803064627872693e+00,-5.212061865356992091e-02,6.423101326831862634e-01,-3.868025060995345377e-01,1.144837793891837263e+00,7.381909432955532369e-01,1.129228208498446628e+00,8.987520129018451431e-01,2.502847898499778179e-01,-5.284687202774749348e-01,7.372178013394952156e-01,8.357103308315140255e-01,-1.673701315517001353e-01,-2.035434420577163506e-01,2.714028825974574288e-01,2.987201597731011238e-01,-5.988459755123062278e-01,-9.065019185691380876e-01,3.985569701717226465e-01,-2.086468556354089399e-01,-4.430392463742274245e-01,2.244643607400527152e-01,-3.178608034555366335e-01,-7.375025993417442249e-01,5.480375110360471425e-01,3.003049671543021604e-01,-6.888504523697184245e-01,4.874381338360470051e-01,4.637892912633096998e-01,1.178199830847161400e-01,-1.383570058145115189e-01,-5.385643156067271980e-02,-5.875689161447691378e-01,4.746794532511781073e-01,2.295738932575247804e-01,-7.480837935862132415e-01,3.706113867569965636e-01,-2.960640415641807577e-01,3.996004105459852740e-01
-7.137861361198116761e-02,-9.030994514410080054e-01,-3.256145195908233814e-01,8.677572613740381913e-01,7.792206936140383400e-01,-6.382768564783380949e-01,3.702229297555972298e-01,-2.678414987007957104e-01,-4.281131615546980851e-01,4.815924498409988874e-02,-2.278609263348838343e-01,-1.293919424938589635e-01,4.822768454720693376e-01,1.627073202948087771e-01,4.425435246756816432e-01,6.079694603712885170e-01,-3.740730925506258742e-01,-1.648322453622236838e-01,-3.080987927465019260e-01,-5.101101380820526054e-02,-2.672338406473055983e-01,-1.260070279674158078e-01,5.122777489554691810e-01,-3.024368028338133424e-03,2.261993916286223483e-01,5.688062742220730827e-01,-6.172376847389054316e-02,-4.117251936571565962e-01,3.529695631831318292e-01,-5.161184126003958150e-01,5.715648885182560424e-01,-6.689037819096238513e-02,-1.184854657305311587e+00,-1.170969018201122314e-01,1.768747338519727208e-01,5.162917211639241888e-01,4.285664568693703935e-01,2.253633281701446223e-01,9.381534112845060225e-01,-1.284522987525119897e-01,-1.737756141891741990e-01,1.313300074231645187e+00,8.565416525358928723e-01,-2.617754378128992476e-01,3.684617491671698386e-01,-6.693918232917769329e-01,-3.423800766757655878e-01,-2.135321563990801030e-01,-2.323336280279628130e-01,5.632755413611509332e-02
8.995390936475526900e-01,-6.407807999946347755e-01,1.230157120705934132e-03,3.973818683030069798e-01,2.487761549010868989e-01,9.386583856864151587e-02,-7.898761370108310642e-02,-1.361141527384467809e+00,8.773153689404062927e-01,-1.596327956755453359e-01,-6.768809265087571969e-01,2.149030653874470509e-01,2.806842977553399843e-01,-1.474026050991534553e-01,1.036157561382410330e-01,8.125480659362503966e-01,-4.105355432338341770e-01,-3.728587193080799000e-01,-2.434090607495625613e-01,5.903254991263002793e-01,-5.855866765450081779e-01,-8.679611081943591211e-01,-1.078289465303991085e-01,-7.318931101388038707e-01,9.696028824944737945e-01,-8.324830920729030248e-02,-2.943289454643445713e-01,1.916469609249177586e-01,-1.020390504499716910e-01,-1.863435236311179743e-01,-2.639863628577196475e-01,8.058069371241863843e-01,-1.337395842892146469e-01,6.281074996961629742e-01,-4.754074437298689837e-01,5.842680920605793915e-01,7.907506950920245581e-01,2.719133642000967632e-01,-1.002671443808161311e-01,8.709469072358445862e-02,-8.154319633692767022e-01,9.357570944431998772e-01,8.473943730698041410e-01,-7.439810947472736968e-01,2.906839019914312927e-01,-2.063035479994106136e-01,1.466564037283753785e-01,-7.183416373653612741e-01,-4.592776914430670154e-01,-6.682935609837830082e-01
-8.697003777420519999e-01,-3.909795141501820614e-01,-9.674812085052097999e-01,-3.625586901252680905e-01,2.087392523402331335e-01,-1.274788581184148339e-01,-5.510072788039641623e-01,-5.195975241763169938e-01,4.252551607646228304e-01,6.976563044870331964e-01,3.155482086891722715e-01,9.851694573238141406e-02,-1.063662588372087242e-01,-5.262937398449503146e-01,4.356909603398345099e-01,1.152915484184763528e+00,3.849239635665508419e-01,3.574066932147711984e-01,-5.349174031772244708e-01,2.705395865110729048e-01,3.103162350569824146e-01,-4.155816564093675614e-01,5.190539492150614276e-01,-3.210864944401634613e-01,-4.626765840332420776e-01,1.955312275005459399e-01,4.065157001090386468e-01,1.040003168396068878e+00,-4.298461956545606699e-01,-8.742428494817293672e-01,3.461700846336345228e-01,3.627587600980159421e-01,1.778700945358106800e-01,3.705381914157582224e-01,3.906306043954925755e-01,1.633043982478243339e-01,-6.099434381885052714e-01,-1.755540070838332023e-01,5.613497897897117284e-01,1.607429404407476614e-01,1.925079405176427852e-02,1.576732365581520467e-01,7.610673068919783235e-01,-1.118383257044658768e-01,7.203815460217401212e-02,5.193871716229441216e-01,1.328667201921046814e+00,-4.943021323421294411e-01,9.061822357803108741e-01,4.489779241852205893e-01
-6.973441775808749687e-01,3.780364639352923328e-01,-3.203940825882762300e-01,2.923843369627016076e-01,5.396546621582412051e-01,-6.974917228900260335e-01,-4.934571432081003017e-02,5.762018996085275235e-01,9.896679184485510650e-01,-4.252390806099118348e-01,-3.324242538080979803e-01,6.786244437494086679e-01,-8.146138240760970595e-01,-6.303686233602272260e-02,1.046956598689896989e+00,3.029028257873081498e-01,-9.179357762350336125e-02,3.719317630925116358e-01,-2.941251092840295109e-02,1.136390509643801838e+00,1.659891298272631877e-01,-2.103663429226247661e-01,-4.689074017303004882e-01,2.937542910712542810e-01,-1.369757046298314629e+00,5.062061851947431412e-01,6.371532458062589659e-03,5.127130527224588175e-01,-1.164278347279311815e-01,-5.894080332876220490e-02,8.012912671650630481e-01,-7.619621336086469521e-01,1.074511137320547788e-01,-1.304589678351145421e-01,-4.553733567656836900e-01,1.866587580118935108e+00,-2.986545971411458389e-01,-1.270973245947484509e+00,-5.073991548836398469e-01,-6.636884114561283909e-02,-1.521102663126289167e-01,4.363611567922279222e-01,-1.951899539485379420e-01,9.320962913619348367e-01,-3.425451326490319692e-02,8.530934180603266803e-02,-1.043447923300425545e-01,6.710966999958997148e-01,-1.451046480640946490e-01,3.857806978664274355e-01
