3.600000000000000000e+01,5.000000000000000000e+01,5.000000000000000000e+01,1.000000000000000000e+01
4.781757244311669042e-01,6.378308235502051782e-02,8.480547613781505012e-01,-2.159601939428374417e-01,-5.059838707664127133e-01,-1.055207710662301679e+00,1.290232675888791369e-01,4.274963624975091081e-01,7.679944805064110591e-01,-4.131311593823121242e-02,8.589848437074100174e-01,-7.964023225463455757e-01,4.824709604816779795e-01,6.938188423558570017e-01,2.493628586415731485e-01,9.384288342809567196e-02,8.184634102121817190e-01,-7.758893846007536288e-01,9.399394715624563856e-01,-3.767515179647523138e-01,-4.523430120107802543e-01,-1.025322991925239124e+00,1.752803370859517262e-01,1.386053713107387453e-01,1.783774047648069641e-02,7.723416423816797938e-01,-2.975268350876765777e-01,8.038387187973752845e-02,3.360623928126596494e-01,3.814401836107143007e-01,3.664361201089949005e-01,9.077609315541032009e-01,3.184549127797461909e-01,3.912055124115090821e-01,-4.280385793768983205e-01,-1.898320114860064245e-01
1.064215215617482668e+00,2.453752693529135387e-01,-5.041463227959807059e-01,-2.502068892523163224e-01,5.803374186202260310e-01,-2.739033978133428859e-01,-4.552732917631078791e-01,7.600377614891887582e-03,3.716309431330032664e-01,-1.092477333330788447e+00,6.326191666312253048e-01,-7.000147501044632348e-01,5.289978234009204416e-02,-1.939710507534525910e-02,7.372392284389245320e-01,-5.583948313505222583e-01,-1.249628669303903816e-01,2.658492703316482353e-01,1.876648400044843290e-01,-7.627408902729003459e-02,4.121788530640597137e-01,1.292016920371242272e-01,-5.059043141198009685e-01,-4.178980071242829331e-01,3.959390025563407911e-01,1.053218569008708937e-02,-3.049120712697821478e-01,-9.539431368255660848e-01,4.899708513185895009e-02,-5.182810484458092448e-01,1.434384964201146084e-01,-5.544759191657057107e-01,1.753232304695721833e-01,5.277813141183664847e-01,-2.934707289100520478e-01,1.435878631468824329e+00
-3.522183957776386931e-01,4.692912889492170669e-02,-3.242241904271480624e-01,-2.088134510578052716e-01,-6.440791449233669308e-01,7.420211930014691815e-01,9.447671238725234844e-01,-8.199303929213178077e-02,2.483793705093294557e-01,2.931840453283467429e-01,6.166468181771072032e-01,-8.058429880604250917e-01,-2.436118647645758029e-01,-6.871894023979814581e-02,-8.167063239666793040e-01,-5.621409292326501328e-01,3.842902831622336257e-01,-1.649105955153254144e-01,9.005711263842265668e-02,3.704196049705087979e-01,7.363482019217985897e-02,2.243892184978246163e-01,-5.111868746966858890e-01,4.177127968485591647e-01,-5.394596462027482359e-02,-1.492326102343318972e+00,-4.229447307830175862e-01,3.199662024942827032e-01,1.152007610957580669e-01,5.558389216035941605e-02,2.170961009678825937e-01,-1.454348594719667431e-01,4.052249024068568795e-01,2.033456662520328473e-01,-2.356212623846251630e-01,3.673299624598547752e-01
5.609226903345965881e-02,-1.842274446658964671e-01,-1.864077624749813367e-01,-5.341805933910330761e-01,3.649972112510360689e-01,3.019677502781836775e-01,4.393818733521113185e-01,3.950708722902472325e-01,-9.449870483447981862e-01,-3.505752706841529509e-01,1.860169710618471695e-01,-1.446483533017579037e-01,1.879848320298719566e-01,4.436032227908577874e-01,9.162510288434594363e-02,3.662470485906581530e-01,-2.558207330508374122e-01,1.554327812183272872e+00,3.497313108394897035e-02,4.367180432448771743e-01,-6.975626173841030786e-01,-7.690236643967329755e-01,3.971804156251080853e-01,1.035811140466033731e+00,8.530437021362960448e-02,5.464308260449588506e-01,1.132517501770653572e-02,-5.841070296663678496e-01,-1.060965726392548270e+00,9.014116353915355706e-01,4.301624260515730658e-01,8.248195015630300775e-01,-1.100912163782195030e+00,-2.286862335380918099e-02,-3.203932888504342769e-01,-1.174868798797106262e+00
1.259526435320887892e-02,-8.621568510429263865e-01,-4.648376065902580789e-01,-1.819496997271796701e-01,-1.142103468114259862e-01,6.407623626324328026e-01,9.953828585444997046e-01,8.130014689282327733e-01,1.061132661455500559e+00,4.706476434721847402e-01,3.639809227715205542e-01,-2.193597986736291472e-01,-2.923898280049881393e-01,4.045180262158142304e-01,7.797179694004673367e-01,3.021813950610242605e-01,-4.616535171810981497e-01,-1.216751957657789818e-01,-1.237537512772172131e-02,1.168760440083623342e+00,-5.361219257331588661e-01,-6.658595407790460774e-01,6.190753567190611095e-01,2.840058583767872125e-01,2.578067877043322409e-01,1.164884225066362022e+00,7.134033536546878773e-01,4.457862489483502832e-01,-5.395298856285273281e-01,-6.692066377046950176e-01,-2.724986523206952560e-01,-4.712642014942630131e-01,-7.372018909363963202e-01,-1.570454857074444766e-01,1.604779570907264308e-01,2.887106344195761176e-01
2.365173266399070995e-01,3.501930446033234001e-01,-5.933463252908366403e-01,-3.041164478345845246e-01,-5.633356175290936685e-01,5.153215581281391788e-01,7.079027136785553953e-01,7.984238743993053722e-02,1.799327069458453721e-01,3.621402493662264077e-01,3.888670447521104523e-02,9.218939826097204415e-01,-7.197714846314635928e-02,-1.679066692723374665e-01,-4.371230428547499547e-01,9.311679600170502669e-01,7.328210630022070626e-01,3.269006888568422309e-02,-3.259477221349096343e-01,2.957141236733519182e-02,3.698871793947297593e-01,-3.457531700544516085e-01,-2.970155112451506318e-01,1.947304925844575985e-01,4.848080932924774822e-01,4.963199490432034650e-02,-3.986934362582993385e-01,-5.534569664706835701e-02,3.220995271555070483e-01,3.329198511321923015e-01,-3.732003435798162544e-02,5.280508317092256210e-01,-7.902148450690711645e-02,2.622996044833091900e-01,-7.951174519241152039e-01,4.167398000239190270e-01
-3.553252580414841266e-01,-2.998186167023069726e-01,-3.951004349064929366e-01,1.085809688470943613e+00,3.365644885023778843e-02,-1.028903429608573061e+00,1.002090973422965270e+00,1.639161343771048385e-01,3.410169320657108205e-02,7.853706335964993901e-01,-2.662596765442145075e-01,2.106366180817813849e-01,-3.647594014129769135e-01,-3.071387901666958187e-02,-1.093047602891975972e-01,-4.774083714855642535e-01,-2.861932305954358324e-01,-3.385956072961167629e-01,-9.618066760738921417e-01,-2.378600759672940823e-01,-1.281654278599546171e+00,3.962800312728517044e-02,2.876729509634980975e-01,-8.526880513711877496e-01,2.724223123339210573e-01,-5.058754886331952028e-01,-5.570755900488809642e-01,-4.261358194564069529e-02,3.891800527372789587e-01,-2.794880353841965870e-01,-6.179285855511699177e-01,9.436320870871343913e-02,-4.955419995512174158e-01,4.729391424753898732e-01,-7.593009285418391707e-01,-1.699099983811484194e+00
-1.010037489592893634e+00,-3.251109286638242946e-02,-5.787680892152630152e-01,-7.735620399505489519e-01,5.237227856823407635e-01,2.526953866496529644e-01,-4.079728665788185382e-01,-9.312301757436288741e-01,-8.403272975385331911e-01,-7.591659088383418963e-01,-3.041916451187751808e-02,-7.984941452319510580e-01,2.508339713988037012e-01,-7.294856266763342090e-01,8.420656561077836944e-02,1.634326376262589919e+00,-1.032018606605586974e+00,4.555397971167558513e-01,-2.632625575238299320e-01,7.588624191525384921e-01,1.483597605089698734e-01,-4.070532588474078950e-01,3.337857612269806706e-01,9.660513460188538959e-01,1.424271576058093514e+00,-3.945441591810237569e-01,-4.302651067676319108e-01,-5.290357830353263902e-01,1.333434913421881030e+00,2.090928051293912404e-01,2.304996891655888003e-01,-1.133146222474300302e+00,5.220582861740100666e-01,-7.467354177498032597e-03,-5.747096545696555453e-02,-5.498772221127469217e-01
-4.367851657612347727e-01,2.104894889736090569e-02,3.355723158418077445e-01,-7.314601775299088837e-01,5.529561938225611289e-02,1.192690570525323013e+00,3.095690502569908853e-01,-1.101141433852915297e+00,3.388744695320867195e-01,5.609584653633675755e-01,3.171851235333750796e-01,6.299508102228431605e-01,7.372849763581147409e-01,2.364955100639670738e-01,-7.491031475130834894e-01,-5.814705097678387613e-01,6.401184003523781307e-02,-1.235628267232901312e+00,4.119746270612353878e-01,-1.393071360425336969e-01,5.382666108094305013e-01,3.192903973838528420e-01,1.022461375445961329e-01,5.599600945652735140e-01,7.797683319647575884e-01,9.742466672487160029e-01,-4.717437629229626617e-01,-2.704712090638943245e-01,2.947276345715297285e-01,-3.474597842815634330e-01,4.571435952794090651e-01,-2.583743411756990183e-01,-1.282774745342813161e-01,-1.953230582932422299e-01,7.199605676112913466e-01,1.331402794852067362e-01
-2.004859459871714822e-01,2.634410947218093213e-01,5.740612481932092503e-01,-1.394122663039795984e-01,1.003542689309606661e+00,-1.009875268284401439e+00,-5.204380885247923416e-01,-1.401401162394490252e-01,-2.519807809206940363e-01,-1.141012629782250709e+00,-3.340621974509284664e-01,-1.159696368189579330e+00,-7.044673957226451622e-01,4.653750001103171829e-01,-3.143708478179461641e-01,3.362796706459016405e-01,-7.579915325646363611e-02,-4.608248360658697557e-02,-2.359163200481727007e-01,-8.099714326791936092e-02,9.209235985699034677e-01,3.224032074731941200e-01,9.428615734264516046e-01,-4.905079505595610900e-01,-3.491375911533449727e-01,-1.374068394564427198e-01,-7.062113798723069769e-01,7.840642387083717191e-01,5.583423323735985377e-01,5.154529506764909952e-01,3.480056077252248192e-01,-4.656000808976381439e-02,-4.716236795280612931e-02,1.289278094745651138e-01,2.459224291747108271e-01,1.157852358996809716e+00
-5.018584696696418712e-01,5.379402756429454424e-01,-7.039144864419386027e-02,1.008862690324967115e+00,1.658987960835623665e-01,4.125289544616098647e-01,-9.508417692046490233e-01,2.553076468962321988e-01,-7.248598435624595826e-01,-4.500085871433652518e-02,9.083739957820263777e-01,5.690024689278024850e-01,3.644510903046594974e-01,2.877525931183245317e-02,-1.643303777402666532e-01,1.673047840106250517e+00,6.455339962059204462e-01,4.936345860464848995e-02,-6.053346695853444315e-01,6.893600579272467395e-04,2.358115627640938738e-01,1.616416475646224316e-01,-5.248837491174618980e-02,-4.630800122434584609e-01,1.188976941077240501e-01,-7.194983866599204969e-01,-4.736359248335798577e-01,1.295490071269218113e+00,-3.178017200792926933e-01,4.949017564974497185e-01,2.428911417428595843e-01,1.479897010782840056e-02,-9.854169640433051436e-01,1.058136667559927080e+00,-6.337172249958812342e-01,-5.141279773798946851e-01
-5.065795793983653983e-01,1.723601164074478331e-01,-1.807674525866506399e-01,2.676385292447695519e-01,-3.235511645197078345e-01,1.783987649184753110e-01,-1.410870503161950618e-01,6.512211252007938933e-01,-4.371006560110653472e-01,1.193136573104272236e+00,2.700390684758011695e-01,-3.033052393218063081e-01,2.816738682547899053e-01,-8.244699882555244219e-01,3.271937841758312815e-01,9.465941335195963147e-01,-3.532512970069998648e-01,2.449711645293180251e-01,3.911417853591186433e-01,-1.126106530092624153e-01,6.181143419878632611e-02,1.554448802194005608e-01,-9.176685370278060416e-01,-2.185900281358078845e-01,-4.520473408664351656e-01,-8.012203739960023219e-01,-5.488832964865840713e-01,-4.076069740835260719e-02,-3.796933828205421857e-02,-3.966220171417414453e-01,5.652877673755193344e-01,-9.769149119969484929e-02,-2.434725798769555583e-01,8.416864671604494530e-02,-7.925373712764632872e-01,-6.237827348125541543e-02
3.050983880902340406e-01,1.718114705349489957e-01,-5.983951902761450725e-01,1.024629383615710099e+00,4.013964652079729523e-01,-8.543534726828988513e-01,-6.161110451294604662e-01,-1.125136807599957378e-01,3.190046608078648260e-01,4.007171854185527793e-01,8.816512733830524917e-01,1.633090303663739806e-01,3.982515501404779168e-02,5.105065128174709477e-01,5.377215446833047974e-01,3.582500662647702949e-01,1.163211154193978469e+00,-4.318234360956247318e-03,1.627345231530043235e-01,6.438863470143348922e-01,-1.453045599732419646e+00,5.741339433392523839e-01,-9.228209290927469333e-02,6.794425606588125333e-02,-1.240323332045933091e-01,-2.104052802136907319e-01,-1.269514775462542988e-01,-1.691053226531810949e-01,-1.860024950327482662e-01,-5.569274244103289417e-01,-1.161806250439572502e-01,6.140986858107854163e-01,-4.684919807678217807e-01,-7.682194355497630467e-02,8.240683258130452327e-01,6.489141805627012261e-01
-4.657194188172421034e-01,3.474609713682585421e-01,-3.574731830935390930e-01,-1.852875859435065553e-01,9.692917611573739767e-02,1.009267007694357454e-01,5.433516179447257510e-01,-3.705169050064206770e-02,8.028897219862440870e-01,6.438803753977716537e-01,7.176818526544397059e-02,-1.120660285045366189e+00,-5.484743373921103782e-01,-5.606426159398841813e-01,-1.035193201807943275e+00,-2.681995847110209552e-01,8.374463661460259667e-01,7.401689841720026086e-01,-7.147114518076014278e-01,2.724641612301093585e-01,-2.074976842879062144e-01,8.937570236721018579e-01,1.718019880126980536e-01,-3.645331567084875712e-01,-6.635078776706485604e-01,-8.178634464613060429e-01,-7.989304740435897445e-01,-1.595734751475880731e-01,-3.658336614764227113e-01,-2.104610425252173567e-01,-1.996485434627551236e-02,5.715713996690258147e-01,1.007025066529954049e+00,2.692361191610157523e-01,1.035192995986237152e+00,6.908036522255613932e-01
-3.128315544707475082e-01,3.149725315063383602e-01,-8.537021121565482318e-01,1.017206444018685652e+00,8.638347977781960507e-01,-1.250544951104418878e+00,5.046612093865866511e-01,-1.464553945563705328e+00,6.289127015886395444e-01,-7.835292708030215936e-01,-1.069571792025266095e-02,-1.206147066586393368e+00,1.268316329620963190e-01,-3.557871213548042255e-01,6.718461205838793804e-01,-6.757496150277030322e-01,1.012592030509478214e-01,7.418090481533194946e-01,-7.468435477598055483e-01,5.329409886037270727e-01,-6.762619515680389215e-01,3.300514857394670765e-01,5.946725576287381632e-02,6.365923234676946763e-01,1.281848596362765713e+00,5.716566676425757221e-01,-5.246560029314329965e-01,-3.801030019550213912e-01,-5.951674091180865211e-01,-9.568714122598741545e-01,1.012469943903598485e-01,-4.597285592507376339e-01,2.933055779026231269e-01,-7.681817339920868869e-04,-6.076832485315994958e-01,1.090480954689037607e-01
-9.910406606575820898e-02,7.201506779118288515e-01,4.293724532392784177e-02,-6.752612572028949822e-01,-1.881430865193368940e-01,-4.867558940671049550e-01,-9.285155749346025722e-01,6.694812658548536799e-01,9.138665564489405480e-01,-2.717276406548273585e-02,2.476603874522349258e-01,-4.430484536218981528e-02,-1.223258724822296473e-01,-3.414121746188991113e-01,6.122407217446843575e-01,4.920415459371488276e-01,2.327642279206536616e-02,-5.200081222536433456e-01,-3.146064809441974086e-01,-7.307594875724450489e-02,2.730815495216608046e-01,-2.783117218602730314e-01,8.677553585072962372e-01,7.313327975909773571e-01,-1.195531895936196715e-01,-1.086797197967741768e+00,9.601725281327519457e-02,6.116185993965762568e-01,1.340495485556947863e-01,-3.525768876812470087e-01,1.307392947717707886e-02,-2.632964518743385329e-01,1.375655409548378338e-01,-6.548813810542973846e-01,-5.368606725547467873e-01,-8.682872410086557302e-01
-2.353945362960287863e-02,5.579906074212872408e-02,1.274142715666561620e-01,1.125140757157799154e+00,8.258278060291061873e-02,7.308769048156873449e-01,-3.642883880192762658e-01,-6.455200560930526299e-01,-3.313306589295366145e-01,-5.719611825505672292e-02,-5.680223406820655851e-01,3.693434996097601508e-01,3.605633065152143990e-01,-1.128131164008056020e-01,4.653892918522607447e-01,-4.578087424205490863e-01,-5.163163898098909188e-01,4.886435588623149751e-01,-3.975546547106125206e-01,-3.925250726412042868e-01,-4.860583664733680344e-03,8.109750408946251321e-01,5.366132571980947175e-01,1.262317691662044605e-01,-7.667105657366624083e-02,1.821900497806470953e-01,-7.794421108913033303e-01,-3.767892619672668086e-01,-1.522708888276095851e-01,9.385010720730730949e-01,7.248695424293966072e-01,-5.974034913049389717e-01,-4.053346322961572379e-01,1.228680976060422259e+00,-3.116767581035472245e-01,2.168418053315259997e-01
-2.501083761744587464e-01,-2.795364045883235171e-01,6.260724170220542950e-01,4.179070984941394284e-01,2.693183066432475736e-01,9.172937947217798538e-01,2.397346230593211391e-02,3.248555365494268377e-01,1.995459259700818055e-01,1.407804882543010061e-01,7.212619373469079109e-01,-8.357194610671878632e-01,1.133455132985705660e-01,-1.981965905393652874e-02,2.211574200075162311e-01,7.955276465622930226e-01,-1.793355154478004088e-01,-3.270634204015902546e-01,1.551251086541353963e-01,-5.756063990253874607e-01,3.875740495984672518e-01,5.119894444322699301e-02,-4.566147122152018623e-02,-2.045467805374110992e-01,-4.251997778131146322e-01,1.912778810392664341e-01,-3.615077773873606182e-01,-8.144994248826697980e-01,-6.336954908734599989e-01,-1.348730344156683914e-01,1.136991685960814014e+00,-1.002089215477142359e+00,4.354181947065149383e-01,-4.438255162171581003e-01,-4.107018949900979876e-02,-5.752785797513031429e-01
8.329312370629119444e-01,-1.297476768457870300e-01,-3.402929975511587712e-01,3.900289247651018698e-01,1.158883143210250655e+00,1.884375609369428051e-01,-1.139769060836711700e+00,1.363821278815261218e-01,1.920705393990954357e-01,1.090187507262028399e+00,-2.865063548298821816e-01,1.097440891625802162e-01,9.111663610731697283e-01,-5.639808403489403321e-02,-3.800205634620096307e-02,7.673992518413227382e-01,-1.961786290795599075e-01,2.653109627619179567e-01,3.008161713823284122e-01,3.115847417629041827e-02,-4.451757258687428775e-01,-3.688651496830348542e-01,-4.897169251856134387e-02,2.305919750097367715e-01,-5.832837148430229934e-01,-6.621312402691888199e-02,-6.983968723516916777e-01,-3.066994895404007715e-01,-3.337499168708819020e-01,-1.019952493996235887e+00,-2.147324509545299118e-02,-5.621797384951132681e-01,7.590771104770341338e-02,-2.238966386708243217e-01,2.301932663029209250e-02,-1.455004717329099639e+00
4.240247690477014775e-01,-6.734451146298735535e-01,-1.031975696388118369e+00,-5.371643223875726125e-01,9.548536728631993320e-01,2.238899139125055584e-03,4.473179162414614995e-01,6.173951097655213660e-01,-6.819631568634691998e-01,4.888902296878305798e-01,-3.050147771270659836e-01,-2.389051867954778696e-01,4.100332667046249768e-02,-1.704389751945958320e-01,-1.277164119084338356e+00,-7.680057608755213039e-01,-1.796496399553834944e-01,3.774785417612004923e-01,-2.910026375059985293e-01,1.177255142979941382e+00,-1.153102909352511585e+00,2.940823394238662510e-03,-6.420445159372818733e-02,-5.956810254200650689e-01,-2.355953497372723429e-02,8.334937682096299483e-01,6.249338543231679477e-01,-9.976959520857502373e-01,2.058953103015470354e-01,3.642315366198310977e-01,4.451677580021094482e-01,-1.344270308739870190e+00,-5.560666679063148710e-01,-1.128915695117590628e-01,1.219367480416362337e+00,6.867758120162182900e-01
1.992120833660246948e-01,-8.585179036193818503e-01,3.777947470832772603e-01,2.678049784662800414e-01,3.814093917073010237e-02,7.528763233120800979e-01,1.154620099228767516e-01,-4.352982214583417941e-01,1.234091666990111191e+00,-1.573432431564563416e-01,-1.722619338864407601e-01,5.761315832961109162e-01,7.481935525907960072e-01,1.468622965810341130e-01,3.818838315902676750e-01,1.482925322208971664e-01,-2.975265477942053982e-01,-4.039644941713190218e-01,2.744781934945917934e-01,1.696920653225875431e-01,6.948107957631016740e-01,-6.008108799335620115e-02,-3.429901540305681507e-01,1.387307968899627493e-02,3.371717408073952038e-01,-2.030142760735964280e-01,-1.003450757268349536e+00,-2.573223573619209947e-01,-1.994961075969171327e-01,7.870308489751270953e-02,-1.287111384967390304e+00,8.208359203083119560e-02,-2.709006464675064452e-01,7.173174400689825703e-01,-8.039261370648882743e-02,7.266885483614794472e-01
2.255500685252578574e-01,4.026725063195238374e-01,5.618358355172631963e-02,8.054543213136660107e-01,2.074081080029237800e-01,4.113085540036122700e-01,-4.474835944872233573e-01,-1.627678281849100905e-01,7.623420954268517180e-01,-1.025323878575151504e+00,1.342245653457427579e-01,-1.124766612421606693e+00,5.162069952670787082e-02,1.091152134337076557e-01,-4.695347030381684661e-01,1.085937853304866474e+00,5.120666277739093220e-01,5.660774442230525061e-01,1.966552276964981527e-01,-7.597538273917089358e-01,-7.009528314215612843e-01,-1.417486755299181556e-01,1.410221737860941314e-02,-1.066014392492155904e+00,1.084242312847858658e+00,-1.234724779636028474e-01,-1.222759074475664232e+00,1.850620366186772892e-01,3.261107539439048620e-03,1.164287477414624128e+00,-1.055052986314200192e+00,3.361091791358793990e-01,1.878480610502265488e-02,1.004736658171762054e-01,-1.167791612011963714e-01,9.857037135227664226e-01
1.188893148697664603e+00,-1.217935792290839370e+00,2.699641704479364690e-01,-4.494333246076420152e-01,-6.904747639927919511e-01,1.046597464706259917e+00,-3.185205392315448858e-01,3.349415941802554308e-01,6.187333445827664091e-01,4.852549236430918067e-01,3.831301109229589552e-01,-3.707756752016391766e-01,-1.771401887339387471e-01,1.524394834478058069e-01,-6.245593346333672136e-01,-3.650618870806748295e-01,-7.227723508095383886e-01,3.642001605426908317e-01,-1.041360939208166303e-01,-5.327253538135451327e-01,5.530481911567427522e-01,1.892248990732738334e-01,-1.768338458296872806e-01,9.046754510743200139e-01,-6.347163201533571365e-03,-3.760123845349532812e-01,4.539515374864794978e-02,-4.425909682157936342e-01,-8.995797730341442699e-01,-5.727289738955346765e-01,-1.090951165245249710e+00,3.886936509190476174e-01,-2.730477006589566158e-01,-9.350503374041173599e-01,1.409848801313520750e-01,1.671577563798773425e-01
-1.086884968444379984e+00,-2.003234454790683503e-02,-1.050978873806115210e+00,-9.491892889961017765e-01,4.886189509820886290e-01,-5.786875843310043677e-02,7.065048554041591933e-02,2.479138464128243999e-02,-7.892659396246125558e-01,-5.279558079661728076e-01,2.105871694835665664e-01,1.883626234772247388e-01,9.140281742128146814e-01,4.110229066493207850e-01,1.236977680934517654e+00,-5.161644793681192667e-01,5.442401010282478246e-01,-5.404513047270244064e-01,-7.377137733777935913e-02,-1.091648383251996313e+00,4.821292372579377150e-01,-8.501242104733943705e-01,4.647390200372533142e-01,7.729326140993368899e-01,1.347341007976975646e+00,-2.539651005798162497e-01,-7.027861552632781450e-01,-3.043525663194325548e-02,2.342616058266098200e-01,-5.526909442014373841e-01,-1.217101576153424014e-01,-7.691683170925356361e-02,-1.634115739266200684e+00,-7.112637096668373848e-01,7.615514053809209483e-02,-3.031114595069037687e-01
-5.262695715398956198e-01,-7.239025388056811172e-01,-3.930000923271376873e-02,2.070181847921784835e-01,1.431917619755584681e-01,8.711037561579548782e-01,1.491538775365067737e-01,-1.610340330874046599e-01,4.225898686526581294e-01,-6.203747514577718780e-01,3.600204447232017713e-01,3.633159002453746345e-01,6.139974196207456658e-02,5.675028942094465512e-01,8.718946637105804420e-01,-2.401681382421513022e-01,1.048146331781904195e+00,-1.225110528303147428e-01,-2.586600631115423821e-01,-4.677614150241361513e-01,-2.310439842073757633e-01,9.240572141699526787e-01,7.342685728395487166e-01,8.599282669654600975e-01,-1.090137503904936134e+00,4.066029469055494339e-01,3.950963042216707466e-01,7.741701752637603073e-01,-2.652561713375368724e-01,-8.265922899973850158e-02,-1.347725188402531249e-01,3.840335828845953259e-01,-4.838242286591108998e-01,3.053258197568129492e-03,1.191343637342005213e+00,-8.019388609675507373e-01
-1.575724147679228859e-01,-4.660267195634399950e-01,2.442084828589627110e-01,-7.021790254715137847e-01,-4.741951898302291246e-01,8.208703407411920006e-02,3.143608320666139710e-01,-1.261332615182707562e+00,-4.436664751113435501e-01,-7.608779463777800567e-01,-3.902949084824993142e-01,-8.185679767249480765e-01,2.283285178083984124e-01,1.034986297442919811e+00,1.215232829759755884e-01,-5.137281976537897421e-01,-3.027691523933906392e-01,-1.008733203013799651e+00,-1.467040412647369341e-01,-8.948533165426522107e-01,2.567552049441543804e-01,-2.704758271950150061e-01,-4.587746120986432863e-01,-3.497293889859210969e-01,-9.060796745071680869e-01,-3.626513304805603632e-01,-1.657613850268977451e+00,-1.765752740378188079e-01,1.968345855389905807e-01,-2.691269071185839468e-01,8.744294089329651687e-01,-3.673835311043238128e-01,-1.733332946505413141e-01,-1.034480105934007188e+00,-5.530137080770688440e-01,1.027581260710862088e+00
2.308113170869963704e-01,-3.875239634894070972e-01,-2.829624663000270268e-01,3.449603753598159961e-01,-1.050867176767124267e+00,-4.725903896902596268e-01,-5.403310367940910020e-01,2.105956873416726938e-01,-6.434551162535231406e-01,1.612722705756189645e-01,1.372433277294502041e+00,-1.724177186728760747e+00,-1.161548042840722772e+00,4.092544786000566065e-02,9.778887327857955780e-01,1.215651696838528473e+00,-3.628374015861605129e-01,4.749542627472085887e-01,8.989180157537174365e-01,-7.919728936824435017e-01,1.025161997224409927e+00,-1.442587214318116207e-01,3.108133119064360739e-01,-1.202691293498594938e+00,5.019045113184573692e-01,-9.160200304317790421e-01,-2.142258572710181545e-03,1.090950349497290944e-01,7.027633827826719193e-01,-1.221205550181647004e+00,-1.918543238060194805e-02,-4.499383897512405917e-02,2.242054347585013124e-02,6.008967319617081193e-01,1.755528219959811287e-01,-1.821646948757499052e-01
5.914445824392471351e-01,-7.828571602087818215e-01,3.670719703662319033e-01,1.085646248897464972e+00,5.125947751435193656e-01,1.441964796070213384e-01,3.844508297596010982e-01,-4.663864472099970016e-01,-2.431485043628753839e-01,-6.164545804267395068e-01,1.002690522184540356e+00,5.844594501066784353e-01,-7.736990699558097262e-01,2.171886346817036295e-01,9.937084573935101028e-02,-8.182393754358090465e-01,4.999676009533654542e-01,-8.396073150609919544e-01,-2.670927034934485467e-01,7.584337693663032454e-01,3.727455276971884945e-01,-1.321227456308858406e+00,-7.368001450252711360e-01,4.003504914400895509e-01,3.540625666388798609e-01,-9.698052158070969986e-01,-3.507844935756376237e-01,1.038142574364828263e+00,-6.075643434169492041e-01,7.655638934982167410e-01,8.301969249670339002e-01,7.561159937670883791e-01,-9.681885983114579819e-01,-2.414749178389245521e-01,3.093531509818364111e-01,3.245933197765242251e-01
-1.091930102715219508e+00,-1.068708096818558273e+00,5.534220247715437857e-01,2.412221898567862011e-01,7.081952035878931184e-01,-2.687009469203868184e-01,-7.696445776815320494e-01,-1.773796331924318292e-01,4.181816603831200324e-02,-4.412642396001075634e-02,-2.297334925861854726e-01,-2.031486448154691538e-01,7.902480208908233550e-01,-2.476995002823059733e-01,-3.914740853286117761e-01,-9.054678178848545311e-01,1.591342122577786844e+00,6.498409190730564111e-01,-2.505139345522735539e-01,3.133684694724406250e-02,6.982232191990224157e-01,1.950590715231946826e-01,-3.649346409451286743e-01,2.204701909341660604e-01,6.100004537962893103e-01,6.687469162088077734e-01,2.068206234061182314e-01,-5.313906040528026953e-01,-1.345187137482507067e+00,3.336579062960575714e-01,7.097859891383884179e-02,-6.108567788487936356e-01,1.195564378881128986e+00,7.568090701241141083e-02,-4.007214615470592878e-01,-2.816220408663916430e-01
-2.170717704123157621e-01,1.630004288791488121e-01,9.089515490232812078e-02,2.956182029314758375e-01,1.085285254968910040e+00,-7.596925273650000365e-01,1.575108692317271908e-01,-2.180224954846198548e-01,1.300991547756850109e-01,4.527379110181702360e-01,-2.927695370008944198e-01,-6.505310385531940520e-01,-5.064104772743051042e-01,-1.155818552388578890e-01,-1.232697752312196249e+00,2.977331390596593685e-02,1.612001207819753479e-01,-4.308399772137200268e-01,-1.664232875545010648e+00,-2.094219864567268830e-01,7.657880036373029831e-02,-4.038868064104313982e-01,2.908753665463537086e-01,-6.427774559202298343e-02,-9.197028628592238686e-01,-8.984667282156854062e-01,2.706012586117126362e-01,6.684053698312254488e-01,6.390490803165074229e-01,5.652500482382926128e-01,-1.090566346824206834e+00,2.522333366390304144e-01,-3.204569349284516061e-02,-3.336849335347207707e-02,9.007928143343989225e-02,4.794851089152835644e-01
-9.779986255217617552e-01,-1.248901414745550609e+00,-9.314358629137118317e-01,5.383699916473569935e-01,-1.442044759457505876e+00,1.338083314554115721e-01,-1.489597205638027722e-01,-5.658369239063270051e-01,5.975805369358385688e-01,5.822533722660998556e-01,-1.018252958086466181e-01,-5.595522275763445963e-01,-5.709016715356153293e-01,-2.866839133074495782e-01,2.095352603401259839e-01,4.814366649072015364e-02,-5.560642432091571496e-01,4.984415528360276043e-02,-1.468987605304655428e-02,-6.381136500165713876e-01,8.145485577630117158e-01,9.942494124724104987e-01,-1.809363883323299727e-01,5.702145900572838100e-01,5.393348063174424611e-01,-2.053329715531825028e-01,1.144644656084472745e+00,-2.566608697498407032e-01,3.978145189472343524e-01,4.260903675811185121e-01,-6.829838295798510428e-01,2.633415490427264971e-01,1.173791126557700348e+00,-1.088432426688717841e-01,-4.460727100961633940e-01,-1.217705688481336868e+00
-1.000146673473960163e-01,-8.252269256648088469e-02,-9.319396234245236332e-01,4.765425832474960433e-01,-3.954560823697140237e-01,8.602709496373779352e-01,1.181815460817114971e+00,-2.998838931731695467e-01,1.763223987012193239e-01,-6.237031766619667295e-01,5.475613648274126888e-01,-1.674276470938909078e+00,3.684386276008877470e-01,-4.755181693948144495e-01,1.115171199257853907e+00,7.516254103238163564e-01,3.853451559975152457e-02,8.271470424823816892e-01,3.364769390490974788e-01,9.611760923883191921e-02,4.386420517277231368e-01,6.128434850861322891e-01,7.116438148380654916e-01,-2.312660667556026492e-02,-7.713760751129666859e-01,2.303690243262043191e-01,1.265346795908925737e+00,-1.157638592804660083e-01,4.036244719542908532e-01,-2.094367726247432782e-01,5.802345974673801532e-01,-1.553495022846431262e+00,-4.538118870805542548e-01,1.444662363199786526e-01,-5.259485112094828274e-01,-1.223407053615937490e-01
2.695056108604730327e-01,6.249063711641137386e-01,2.502294648000607524e-01,-5.566510099410133527e-01,3.899364357547139837e-01,-6.970056686592350781e-01,1.098883361478006471e+00,4.964386425366173472e-01,2.057007426465987665e-01,-1.210323389826261087e+00,-7.680761411642230696e-01,4.551275518221580690e-02,4.606217982952179879e-01,9.591376870533704357e-01,-2.307108044358178733e-01,8.543874722121603815e-01,8.459304697552053609e-01,-3.381078603947565431e-01,3.271676629938288783e-01,1.470754958352248343e-01,8.376582976522738144e-02,-1.488299877095611420e-03,-9.991193634095306697e-01,3.253085248244767524e-01,3.246270086184547404e-02,-6.162282323231192960e-01,-2.796510958160520199e-01,-6.969451302671775261e-02,-6.744773479418445516e-01,-2.068246920930583432e-01,4.270157049416345441e-01,-1.106372454931850990e-01,-3.138053283104403346e-01,-5.020894085633323956e-01,6.222949490838549647e-01,7.009345607175111459e-01
-1.132713625609765851e-03,1.604391214506007135e-01,-4.866919633638758236e-01,-5.849608868285665064e-01,3.806500533917833717e-02,1.254349044948973146e+00,6.082496811258747416e-01,1.040805375470889027e+00,-3.893949205705805050e-01,4.229852270036435491e-01,-1.055754609848295500e+00,8.211587035710904425e-02,-4.335345191745261229e-01,4.137819758743276899e-01,3.150848101619667108e-01,7.211013510684868288e-01,-4.923249516402594117e-01,2.567870549469233321e-01,5.644543842947719048e-01,-9.553336505238834153e-01,2.684767717266800524e-01,-7.341107070585375372e-01,-6.254752149574909215e-01,6.181868830110890389e-01,-1.362375538238466133e-01,-6.683910336757971082e-01,4.983801336871659382e-01,3.410306678107206668e-01,-1.327789440230918716e-01,-7.512793701939873836e-01,-9.562506331247773439e-02,-9.114804338877151579e-01,8.006273631517608624e-01,-1.204545836033967809e-01,6.833876435104278835e-02,-1.362842660069153722e-01
-6.076397178261488952e-01,-2.800260822806491801e-01,3.709215387699931199e-01,1.083070834299969532e+00,-7.557193581045752451e-01,3.692908907404983676e-01,-6.556337691725209194e-01,1.024291209088509375e-01,1.188764067660779578e+00,-1.732577424256714627e-01,-5.773518294385910493e-02,2.673683974612703906e-01,-2.592614287025571951e-01,6.738203254362624961e-02,3.955077058933937906e-01,-1.887265918955969290e-01,-4.072148421769534177e-01,2.202906543132954545e-02,1.316426722402886496e+00,3.376016285249670013e-01,4.522832166578955593e-01,1.090001228718924103e-01,1.977508372486054822e-01,-1.596575204205573362e-01,7.420588478108878228e-01,-9.100086734694438073e-01,1.193408135034704332e+00,-8.023360256350545727e-01,1.359430162083096472e-01,3.270762837445933546e-01,6.350739607139668230e-01,1.133039564493163232e+00,-1.289755714246642315e-01,-6.621112554996222421e-01,2.272797949167527642e-01,-3.965837926187113505e-01
1.087722667860552717e+00,-8.488181959969209878e-01,-5.801340901899627589e-01,-5.695892342139168008e-02,-4.704600961928834257e-01,6.458143410766462589e-01,-2.273991079238231183e-01,5.129436046251891756e-01,-7.094065402850303625e-01,5.078848456080205936e-02,3.049177203309084705e-01,-1.808198569430709834e-01,1.517784185157803611e-01,-1.493028442900582731e-01,3.181383751907906898e-01,5.119555337406316298e-01,5.132678538728981943e-01,-7.130770827332296724e-01,8.611464442077908510e-01,7.792027100675903706e-02,-4.270747644329832560e-01,-6.277608679755367627e-01,-1.031221177636384156e-01,5.399609010242567564e-01,-2.845605417416956495e-01,4.488407565650058273e-01,-1.040839108597745311e+00,-1.993284413551834888e-01,-7.486757120586767789e-01,-9.441984481296251674e-01,-1.099675580017601788e-02,8.485908188547143238e-01,8.649494303285339969e-01,-6.260086839972548445e-01,-8.886223193827637035e-01,-4.244875190315801627e-01
5.687374450276293930e-02,-3.952036619301316223e-01,-2.303701446366993033e-01,3.626205221095826770e-01,-8.617728511024880245e-02,1.095662693402320587e+00,-5.635111047148071428e-01,3.569977587939109354e-01,-3.530702007720512570e-01,-1.596402368764837432e+00,-1.168100878651399527e-01,4.544286501937565559e-01,7.921836984870541665e-01,1.768959871119023530e-01,-3.148840455447601272e-01,-1.405062815058095438e-01,5.413306088803995220e-01,1.155634958069077456e+00,5.229132788785429975e-01,1.920799928865796480e-01,1.622852227367415356e-01,-4.533881522716960710e-02,9.475112852241295291e-01,-3.171041513467858231e-01,-1.276427648417108596e-01,-1.164448696447290432e+00,1.776448923761038967e-01,-1.404612043880764771e+00,2.554645109893306509e-01,3.289428589174195339e-01,-7.580677438174867611e-01,4.447115502883072224e-01,-1.963923233489990594e-01,2.038012110429404389e-01,2.208980278835974698e-01,-6.614869917231073204e-01
8.885121820455260666e-01,5.812656417262779263e-01,-1.008779060230400537e+00,3.610196533725416046e-01,-4.988982953866986092e-01,5.191013537218034379e-01,3.458872625304019177e-01,-3.411019158829435294e-01,-5.918122823043275860e-01,2.493230911014711684e-02,1.000282535233352643e+00,6.358669375552347125e-01,-1.329018011904176344e+00,-8.532186083376926133e-02,1.326243755443954342e-01,3.042075489099076435e-01,5.181290017781772228e-01,-2.202695379794064046e-01,-5.223591628221391225e-01,-3.193689846859492643e-01,-2.092824185395921965e+00,5.548687346822639421e-01,-5.645223773271320633e-01,9.656436122135864109e-02,-7.438158059549238033e-01,-1.173373116948645267e-01,2.483474690020388287e-01,7.251176712559302961e-01,-8.066588615170787735e-01,-1.901707532760056052e-01,-2.657837419022178183e-01,8.566248343088582740e-01,1.938878300219334105e-01,-5.140849505854148127e-01,-1.498727279661867251e-01,2.291548292121427521e-01
9.617340628216698717e-02,8.914494187117129320e-02,-1.517478495840090535e-01,1.308786675302234248e-01,-1.350384190961361197e+00,-7.100660041707335113e-01,-4.662805749417824053e-02,-2.864474217293621477e-02,4.418014524745363381e-01,9.430903133056804666e-02,-3.811058346021158894e-01,3.684885906410800271e-01,-2.383253020569878755e-01,1.128520871545672932e-01,5.549936682257760462e-02,-5.589283386504461104e-01,-4.472348059210697890e-01,-3.057294679979915553e-01,6.728382268660485499e-01,1.131004039172339048e+00,-1.036358811711465933e+00,4.287592690223200886e-01,-5.653269387467952933e-01,5.272746654439579572e-01,5.026678801031577715e-01,-3.967055797328867262e-01,-3.086690968127480672e-01,-3.754765382086050485e-01,3.765690116614608951e-01,-9.885740976134455016e-01,-2.582973321068767203e-01,7.901761596465176618e-01,-4.481777369096420771e-02,1.621541419172144172e-01,-1.755044134388004107e-01,3.905845340799919962e-01
-2.797401379018003009e-01,3.224104736045487751e-01,-6.329909449282917766e-01,5.050617142243252200e-01,4.526824190654463731e-01,4.931878136911426735e-01,-7.447728811292835260e-01,4.019138795276799292e-01,-2.186793322437718956e-02,6.141574813435768387e-01,5.611054885361446004e-02,-5.653004979508509109e-01,-9.341308284392840777e-01,-8.292659044925767553e-01,-8.962743794150197507e-01,-9.051896536909713742e-01,6.479104080546427280e-01,-8.901477996770502665e-01,-1.941653426902947011e-01,6.786804531380098426e-01,-1.456490186492189531e+00,-9.877312178693911648e-02,9.557879942800274753e-01,-2.555367087956697536e-01,6.824713875340995273e-01,4.986807956443224388e-01,9.163009266697316191e-01,-8.458083810473715491e-01,3.416832152573638925e-01,-1.429841252903311932e-01,-9.133415589841448190e-01,2.832820857009821225e-01,-6.060105020689716682e-01,-4.004706960482554701e-01,-4.609898167430768745e-01,6.740048805259077902e-01
1.265524924500928572e+00,5.044729432828101157e-01,-3.841972078178273464e-01,5.880024161620366341e-01,2.563845938469206942e-01,1.825973621079542142e-01,-1.370394471853653151e-01,3.656217172766637047e-01,1.455311406382519435e+00,9.303220301831973682e-01,-9.294037893463605315e-02,2.637123018237297334e-01,7.635143638737124094e-02,-5.881349452164909009e-01,3.126665456883644389e-01,-7.186441850325562264e-01,-2.435216251480608069e-03,1.895210952794214032e-01,1.371925688521393460e-01,-7.849458014486169199e-01,2.442624673232678956e-01,1.091671780242743361e+00,4.128353465298226777e-01,6.578318513420002844e-01,4.579009036161956203e-01,3.076912373023429348e-01,-4.175982575495942872e-01,2.077771011036785853e-02,1.068042410423324151e+00,4.391985483666099171e-02,4.074332625685575526e-01,2.885296285893665380e-01,-1.451606304798894964e+00,-1.063636621640759561e+00,1.494261262711389593e+00,1.830085174929678149e-01
1.215445693504027258e-01,2.727327249738422110e-01,-1.600651907362529158e-01,4.317616708355193622e-01,-6.601252653628176814e-01,-1.740898362531713706e-01,-7.768778131052721247e-02,8.080957066800281696e-02,1.774373306307335807e-01,-2.647772521761730391e-01,4.940779129995637731e-01,8.156910180568327506e-01,-2.028950354696523184e-01,-1.767081800844630748e-02,-4.257988234491287272e-01,1.225711349977643305e+00,-1.197083237021545399e+00,1.336887222707487666e-01,4.144198650550460217e-01,-7.136739894625543368e-01,7.202266946239029854e-01,-1.952882217483634941e-01,-1.682475727168665669e+00,9.775978794270481220e-01,-6.523486356537030462e-01,4.569654245188458086e-01,4.592874702157949129e-01,6.282618798882202427e-01,-5.785207725024561071e-02,3.900843567264797307e-01,7.213459697654448499e-01,9.200920282554710949e-01,3.142072782715343293e-01,1.952709204393476838e-01,1.003986094505742027e-01,-3.242706013484118466e-01
1.367375322005158489e-01,5.455339409365287384e-01,2.847232583142133011e-01,-6.804926670149094026e-01,-5.428064373255879760e-01,-1.401606145507573453e-01,-6.735810846270899599e-02,1.237182494228101642e-01,-7.483139790654101953e-01,1.501025741313714856e-01,-3.404000510187221162e-01,-1.000051052794687090e+00,-7.163792898440956014e-01,3.116384230134750521e-01,-6.351301167579593843e-01,-4.301267359610610463e-01,-1.267757651428061128e-01,1.179240121201891922e+00,-1.615419374989956747e-01,2.804527978910762442e-01,3.478673786805537849e-01,-4.518809741341502373e-01,-2.068939220468267448e-01,4.724787283180190839e-02,6.952320337258302008e-01,3.966190148746694955e-01,-5.174472711782220902e-01,5.640074491994598871e-01,-7.128566670240106540e-02,9.387359878341566821e-02,4.172185204310464579e-01,-7.449370884160084749e-01,1.477863265943665017e+00,-1.680780207082602506e-01,-3.456919914653771575e-01,1.009011778707048501e-01
-1.292359830626160777e+00,7.414156617565480500e-01,-7.218973157868581181e-01,-5.978478430617912842e-01,-4.547969140788824527e-01,-8.058064858620362925e-01,3.406767632699429504e-01,5.545505510410148053e-01,7.186946236340959748e-01,-2.591575910268119065e-01,-5.038666285407954887e-02,-7.395130160057978783e-03,4.273447886995423994e-01,-1.083699166741738162e+00,3.604001562892073518e-01,9.802812036887489366e-01,4.736728374407284115e-01,8.076581283476099715e-01,6.943745602001772932e-01,-2.805959659228375314e-01,1.255334498231277796e-01,-6.040730265488484241e-01,-8.341140237417824510e-01,9.646757876796281661e-02,-6.911545349259927418e-02,6.517288983717458573e-01,-1.379377273230213641e+00,6.383938198151942189e-02,7.281890846648652049e-01,-4.920128051933573415e-02,3.552103525308915599e-01,-1.164031743171750621e+00,-6.726255787813397724e-01,6.970007057922936733e-01,3.822550654535455950e-01,-8.988061941736179283e-02
-7.875547977370865871e-01,2.898365571444049271e-01,-1.130529029888088788e+00,1.263521363035587486e+00,3.182323003364022629e-01,5.531290881424514305e-01,6.231974627144810652e-01,-2.766108842063891848e-01,8.954595033551713268e-01,1.566271225990512883e-01,-8.192183631739465843e-01,-4.232746658155681074e-01,3.040476796289880990e-01,-4.037744575434349531e-02,1.192486470856800318e-01,-1.558992244200106403e-01,5.561030017467152309e-01,1.431133976671866703e+00,4.763299072929910172e-01,1.168947841692776629e-01,-9.410021295108429440e-01,-6.391006261975193392e-02,-5.894161733660242541e-01,-2.181713735909438789e-01,3.480738568035997016e-01,5.877228059492830559e-01,7.787668836607378742e-01,-4.327526497612856765e-02,6.726057651078859445e-01,-1.261979088455759124e+00,7.114500316932301782e-01,3.154005432386957630e-01,1.292223088015226340e+00,4.757728517847807648e-02,7.504726255373240784e-01,1.121311893881292931e+00
2.328207562488353588e-01,-5.513483030716739286e-01,1.061212903203826025e-01,-6.070569935639800185e-01,-8.144712661146148447e-01,9.110921140423163811e-01,6.959386360370461988e-01,1.318621186208140283e+00,1.021246054406714787e+00,1.398833004402741109e-01,-1.025939209295429810e+00,1.083906087175883437e+00,-1.690730653356208035e-01,3.586728262699660497e-01,-9.708327298502167357e-02,2.858904749126074951e-01,2.492253026023658058e-01,4.946656664295402961e-01,1.500858740451020135e-01,-4.552254224416138473e-01,6.194489058886976963e-03,-2.886953949679846865e-01,3.070992032215794088e-02,4.155925748066921499e-01,7.299704171904328742e-01,5.519258576348098355e-01,-4.808730347670400196e-01,-5.012187997874468781e-01,1.132537988217446612e-01,2.148228099876325903e-01,6.533665134833513966e-01,-1.264351246680938123e-01,9.310484207791545064e-01,-1.001401813964335474e+00,2.140570659384065377e-01,-7.426821082116082939e-01
-2.113851870161973789e-01,3.189150142441135594e-01,1.066158057717480068e-01,-5.198886871959369077e-02,1.220941937271506073e-01,9.148826415209481144e-01,9.415755201003672692e-01,-3.521949727578772144e-02,1.987702978811721477e-01,-9.984484223971490380e-02,-6.931829961801251327e-01,2.466345943680427755e-01,-6.742115663711919504e-01,5.174346802757281427e-01,5.746106898209130120e-02,1.523719585921139430e+00,-8.754335608883108133e-01,-1.195479744075802347e-02,-2.533201077755098396e-01,-5.306135608513343760e-01,8.776041248267460460e-02,-2.990417826833147719e-01,-5.137076169162957395e-01,3.947744444140862119e-01,2.491814930930044136e-01,-7.745377146885953357e-01,3.251579210563913525e-01,-1.415480988728215830e-02,4.538879234197118473e-01,4.457423879520139992e-02,-2.707955314651170342e-01,4.713266539043785008e-01,-7.989404843716565452e-01,-1.361607246267071136e-01,1.006078322187418106e+00,-2.085988459692482144e-01
2.141478008175709824e-01,7.997610511786933107e-02,-4.459036238711103911e-02,-3.583935152364081667e-01,-1.448372135117025783e+00,3.055532782834683991e-01,4.304905778304214947e-01,1.951829576851185633e-01,6.618490278510340101e-03,4.007509139729872327e-01,-9.055955387357017550e-01,-1.454877142879376639e-01,6.254191325690857672e-01,-1.970800227560612350e-01,-4.718627454738186788e-01,-1.201051454379335359e+00,-7.004932710859209655e-01,-5.038123859647661851e-01,7.575058178458733693e-02,4.965491239618946562e-01,9.666200959512502022e-01,-1.782131051045868331e+00,2.979339803346911508e-01,1.437488140790177116e-01,-1.690106029488058215e-01,4.515312627836479131e-01,-7.701682713896437216e-01,3.715361366325247716e-01,2.600808418332973826e-01,6.238556962083542379e-01,6.875907589987599877e-01,9.814921425701214064e-01,2.234893692850127844e-01,1.029408347230540421e-01,-5.392561129682270638e-01,-3.036004296260494395e-01
7.499660433375013868e-01,-9.785012627642448724e-01,-1.469208891014328056e-01,2.499407555501085287e-01,3.879104740531450490e-01,-1.173738691537521861e+00,1.890256792622236615e-01,4.080901455542154666e-01,6.694902937030661194e-02,7.559364443396426880e-01,3.738174503014936034e-01,-3.418142675495914329e-01,3.227386786323371282e-01,-1.113302230840866464e-01,1.451398496476271824e-02,-9.743312176420080295e-01,1.545322585106202462e+00,-1.760329494688566143e-01,-5.159597817113161788e-01,3.769549757859485539e-01,1.108226390441065856e+00,9.282106164667547343e-01,2.180421876164076733e-01,-1.619336734815648216e+00,5.343999779793152938e-02,-9.395747685060424903e-01,6.159864489199888826e-01,-4.408737594071805432e-01,4.034897111351390397e-01,2.067844476704502055e-01,1.237919548568612527e+00,-3.901733026119776904e-01,-5.472918200909847597e-01,-3.372888374417202240e-01,9.852624217798694461e-01,2.315320254035941328e-01
2.173370446337008211e-01,2.806672090014006304e-01,9.801132179633231800e-01,2.216169563865574149e-02,-1.272174115543494910e+00,-1.314289293769554945e+00,-1.007716432577587945e-01,9.861970534700201796e-01,-5.007591481976114700e-01,4.237984141699924212e-01,1.011364242045153850e+00,-6.330470209950790628e-02,1.615752316800576294e+00,-4.256195898125033628e-01,-1.256564785198458212e-01,2.168036609466134357e-01,1.113150313023153481e+00,-1.492884836197169718e-01,2.119638460812492131e-01,-5.880256054257217840e-02,2.682952592386522728e-01,5.064542693744976676e-01,-9.239814201917280201e-01,-3.969791107437423139e-01,3.669309872603066514e-01,3.452116921955244444e-01,9.872810018659347597e-02,-1.647732320445443044e-01,8.207443642681150342e-01,-9.805057515425956716e-01,-7.419414709465495250e-02,2.308362535995775455e-02,-2.266463079967115379e-01,3.807650508865833561e-01,-5.861500014256331159e-01,-1.253063616954963322e-01
-4.489013512429780306e-01,-3.349123328931364885e-01,-3.627531493035397459e-01,-2.619219492756226161e-02,8.385465532035110137e-01,9.343317082235406135e-01,8.200920387912097320e-01,-6.796593971941969903e-01,9.270862763897018688e-01,3.152684955993050320e-01,2.004797775293023221e-01,5.551806847908218323e-01,-9.785902782846088444e-02,-6.214396045124400692e-01,1.890581622833069630e+00,2.203143094093028831e-01,4.978157193459416957e-02,3.440159031727225147e-01,-6.850076541798466589e-01,6.736556576605482460e-01,1.024404519057417334e-01,5.588076313529742600e-02,-5.092566689135141073e-02,-6.098404464744880960e-01,3.019739482332475244e-01,1.214579145683312850e-01,4.298040769318418053e-01,-2.757103028465840433e-01,3.731155496843376329e-01,-7.941300516945029031e-01,-8.086443663136505533e-01,5.027537787792676349e-01,-4.119619953945675150e-01,-2.445792104277155765e-01,1.677988019895402735e-02,-2.686379861631162380e-01,-3.165784180839237849e-01,8.532637048612095043e-01,5.641622930161344085e-01,-5.636826620560085599e-02,-5.052427058273410987e-01,-2.971693429380577456e-01,3.130498945867609684e-01,2.218989931240927527e-01,-2.300240629581768725e-01,1.440985757798558753e+00,5.169280899951221864e-01,-8.760400043208106391e-01,-4.406715025942972153e-01,-4.655431871237923902e-01
9.187635266740540319e-01,-2.604476625913133003e-01,4.208335717470400028e-01,5.269931562392508040e-01,-4.982464184293321739e-03,2.336512113872637464e-01,-7.302121195436648282e-01,1.290505049482752742e-01,-1.140791735809863622e-01,-1.585449721554022529e-01,9.093340333618442628e-01,5.668635468585611070e-01,-4.593304068330429368e-01,-3.067949441190346294e-01,-4.965274646038404516e-01,5.832872540634013170e-01,-7.140838951255897848e-01,-2.193524288012403331e-02,1.077731180296725849e-01,2.314255584272015553e-01,4.670244683433049104e-01,-2.116068474307152558e-01,5.493101320678344113e-01,9.329054305237146627e-01,8.061041328405893491e-02,7.482129812116991019e-01,-1.181786022528675817e-01,-3.602088736590545737e-01,7.272800374643326737e-01,1.279990419495377285e+00,-1.182661420215417591e-01,3.366253910899080215e-01,-9.143043340423796794e-02,-1.930592081707917518e-01,3.717923894067654556e-01,-1.151119576455537641e-01,1.631478546393000384e-02,-5.698877199724243781e-01,1.350240610882644243e-01,4.194872512627280114e-01,1.230302097195425937e-01,-7.183102279831720116e-01,8.658314052926749937e-01,-2.912452483271586456e-01,1.723578785783475356e-02,-9.724387203159767790e-01,7.945274983434767735e-02,-9.201613003390987089e-01,3.497579224795743236e-01,-3.636977732801389140e-01
-2.646853282685310282e-01,-9.678047122761548327e-01,2.693656826199212206e-01,-8.078403503989031176e-01,-5.516409982940251311e-01,5.372886533689068544e-01,3.290218093803237709e-01,5.736525731186788990e-01,1.419064317568689004e-01,-1.154117514720670312e-01,4.534264310149039301e-01,-1.122592675639635246e-01,-2.423698451403964449e-01,6.725892346141937317e-01,9.958134820407371635e-02,-6.240643776930989706e-01,2.308962935400644678e-01,-3.535834456451312779e-01,-4.937635005494630525e-01,3.084728107869345037e-01,-3.598497831766750421e-01,-6.445435955776368520e-01,4.357055889148175321e-01,-2.844969581071197795e-01,7.290034054411660414e-01,1.022100950385308238e+00,2.706110535162971065e-01,1.430235613986421128e-01,5.265410883445316437e-02,2.223354310638604170e-01,8.547295037468124468e-01,-3.167907896325746209e-01,4.787858184717055376e-01,-2.184835191836491664e-01,-8.019842790199277482e-01,-1.225924456646701577e+00,-3.100176906889897527e-02,-8.202634224116612804e-01,2.042788543571962268e-01,-4.770957576975903142e-02,-6.214124903808584399e-01,1.510183144796745647e-01,-1.110890002851932623e+00,6.898756467189244290e-01,1.140267322275565487e-01,-6.438496585387603055e-01,7.145857917655563663e-01,6.691258191223933283e-01,5.569973742810317985e-01,4.471884097587229823e-01
5.506166528934848259e-01,1.367767136733133881e+00,6.365761842965299289e-02,7.967451139819174688e-02,6.635642211432702942e-01,-2.217469305571988236e-01,-1.018870415114025096e+00,2.372067511631237302e-01,-7.491038354820689360e-01,4.363546489946745766e-01,2.518869141120153032e-02,1.431776871137779676e-02,9.535881089743915018e-01,-6.047224490143350284e-01,-5.797785491616241904e-01,-6.192429413133954119e-01,-2.987028282622041231e-01,-4.369074713937115551e-02,-1.497575893683189774e+00,1.152219652518843007e-01,-9.801641073148743555e-01,-2.977318075214576698e-01,2.448333280035348281e-01,6.125451152657634957e-02,-6.138305748205449275e-01,-2.487603809631789842e-01,1.012562531407044997e+00,-3.851657342500220960e-01,-6.175109945443475745e-02,-7.630083713523647670e-01,6.519837208146243013e-01,3.524254821719101094e-01,9.730146116061605399e-01,-1.082066648983815771e+00,-3.911601144210160586e-01,-5.287610671947284846e-01,6.790759493735006036e-02,5.357032671337748075e-01,-1.754423752725860763e-01,2.765034693785096698e-01,6.369741821193315723e-02,-8.265576979458340023e-01,-3.506254381728827751e-01,3.996689061973217050e-01,3.711178601583739467e-01,-1.065605736028198414e-01,-3.454092342007843985e-01,-5.538657521710743659e-01,-3.040667051840573523e-02,2.775808571720281837e-01
1.006846624007693841e-01,-3.743201221771968457e-01,-1.088457472266500803e+00,7.097710658865841182e-01,-1.266125832615621061e-01,2.151630869222318221e-01,2.944794674424059955e-01,6.006665400477602113e-01,1.273698547499831635e-01,-8.175043347597581167e-02,-1.315003457938913323e-01,-1.718371035035566596e-01,-1.760479642031174408e-01,7.296888164478927685e-02,6.328400497123434221e-01,-7.156369857916616839e-01,-1.993419221565728705e-01,1.593057077183169801e+00,2.602926036948494670e-01,-3.565866807811449712e-01,3.548163122057383378e-01,3.574239223141510435e-01,-4.810336588958921133e-01,6.989188902635311562e-01,2.781701937304287831e-01,-2.262157812225733255e-01,-4.745497113748831097e-01,-7.275856060399231440e-02,-2.909046612501566265e-01,-8.228002068187805981e-03,2.727274736437985125e-01,-1.147192503100049332e-01,2.223076739484255993e-01,5.382531049680688851e-01,-1.846324373336351299e-01,1.072582097472406654e-01,1.387552258496349833e-01,-8.350675659120934125e-01,-6.525526042710654284e-01,-9.611641289440493452e-01,-2.855360903104984249e-01,7.044149867789092356e-01,1.255833760233908691e+00,2.161090129883329325e-01,3.134981713746038401e-01,9.379795054331012683e-01,-1.824455934314354044e-01,6.562755396388966767e-02,-2.888223769278759345e-01,2.537418663828534537e-01
-8.649788390995659729e-03,2.093492553833134207e-01,9.191694793131492958e-01,-1.463122120603510719e-02,-9.439113765231295083e-01,5.930679442234664672e-02,2.873845131445337819e-01,4.008747486057333553e-01,1.152818296900749578e-01,4.243146609774059996e-01,9.299909320201857899e-01,1.199098974434642528e+00,-3.618511337594844113e-01,2.810381630972290101e-01,8.316710535138653604e-02,1.507490085925083656e-01,2.883532957373457495e-01,-1.087997111112186888e+00,7.337840437006310466e-03,-2.756538624625734860e-02,1.768221538954151406e-01,-9.315715080626147948e-01,-5.548619917665335022e-01,4.609604722624469630e-01,-3.265587640845065698e-01,-9.811691361271519807e-02,-1.659920290643668306e+00,1.894192662482420686e-01,-2.453140100810793089e-01,-1.719299779260742733e+00,-5.792325940051422650e-01,-1.027431870431326999e+00,-6.066875892420171557e-01,6.002900351435097592e-01,-5.713625437887003278e-01,-1.082280442195517001e+00,-6.112404599091791901e-01,6.056780730155891801e-01,6.155249669949183211e-01,8.931142885359670547e-02,1.280338893988477167e-01,-3.433228901689521217e-01,-4.783971026786428271e-01,7.703551551674258091e-01,1.095222059341868226e-01,1.035516573386249917e+00,9.120280460912286724e-01,4.183623963275095448e-01,-2.190398504407822522e-01,3.655470412517800027e-01
-7.791816825003863300e-01,2.366845904296955294e-01,-8.617845358820185042e-02,-2.866665789881616133e-01,6.767846354992752556e-01,2.051443144597928925e-01,-7.677649023410485496e-01,-9.893168446064354304e-02,-6.047348159086888275e-01,2.967146505856317895e-01,4.349348570813638681e-01,7.144626279497182653e-01,-7.906301495316052363e-02,-7.164084117374638350e-01,-7.749372992103292779e-01,1.009690457074536640e+00,8.602112423540485275e-02,7.350547175023333102e-01,-8.616423605751354076e-02,-5.275363556444091495e-01,-5.072487610073829201e-01,-2.636766204177875550e-01,-1.364906672315546299e+00,-4.934860067162675223e-01,1.327929046711937358e-02,5.474898810645710823e-01,4.707439392536014872e-03,-8.192741675112444888e-01,-6.556862438438211260e-01,9.257802039351432644e-01,-1.522343363160447716e+00,-4.675418319784757082e-01,-4.574472805896144523e-02,3.581666037887894505e-01,3.072830914540656821e-01,-1.329765065542381386e+00,-4.672763618860958229e-02,-4.448423185544984615e-01,1.616219071182824485e-01,-3.774819882354036871e-01,1.279328381196034981e+00,-3.801071078387060348e-02,1.587278029668514057e+00,-2.071820553696668843e-01,4.662102006549883049e-01,-6.390487700896909651e-01,5.614213247591148814e-01,1.284789843434263612e-01,-1.327107219524891413e+00,-1.542815272873797328e-01
8.576031314882467393e-01,4.303848702319867381e-01,-6.825140027165033096e-01,-5.857483603088394775e-01,-2.638613825897120346e-01,-3.880178024930210356e-01,3.702780730669996134e-01,-2.188709639906966931e-01,7.996175208647494648e-01,2.074057777324737548e-02,-1.005501944239132472e-01,2.151896501182506694e-01,-8.294873707771269755e-01,-4.895952173337416724e-01,3.524491087641722920e-01,4.118737137760969218e-03,1.516864988224796429e-01,3.259692868700321267e-01,-2.337661792594233068e-01,-7.176997966128157991e-01,-6.655712708783593223e-01,-3.388213068866137156e-01,2.884725829683857379e-01,-6.308023236107588305e-01,-6.564506718527968188e-02,7.645196378374401192e-02,-3.474858204729074918e-01,9.013033415076806554e-01,4.229941048276074644e-01,-3.243749560059152048e-01,2.648160028826734846e-01,-1.436438331846930261e+00,-1.922605759667777303e-01,2.987143266352403348e-01,3.882630958749352934e-01,-7.442436430799415081e-01,1.036779300778988694e-01,-1.913541214179715622e-01,9.337392677336058266e-01,-4.705761585602267760e-01,-8.510965162579073318e-02,-1.811715922943830936e-01,3.756953404535368635e-01,-4.283527360212220914e-01,6.730300021657126264e-01,-4.590612990627731538e-01,-1.112305934232697552e-01,-7.000151669463632320e-01,3.569519438344925244e-01,-3.218417994397596016e-01
-4.192308430040033590e-02,1.931870489252384207e-02,-4.001377239993885171e-01,-6.651995498656082528e-01,-1.129300634575656354e-01,-2.979486219536263691e-01,-6.317441476264121780e-01,-6.613638324216895015e-01,1.083652146928299614e-01,4.616185188023266134e-02,4.143178232117276649e-01,-1.592276547508510998e-01,-1.397939836945752523e+00,-7.688198994595653035e-01,-9.919339502248468721e-01,-7.914373932199739725e-01,-5.254649529431356658e-01,3.847360634894191334e-01,1.552687127655783650e+00,-1.054306934561446640e+00,9.192352979396719581e-01,2.429574073650886956e-01,-3.691501605195462998e-01,3.897304789990736484e-01,-3.574576069068983730e-01,6.420707094002064963e-01,-2.468217137538876969e-03,1.244379201932948042e-01,6.481712415743696720e-01,-1.007714768122340621e+00,1.357551700091876035e-01,-8.928930877556929824e-01,-5.150963954200208361e-01,-7.478174845061404952e-01,1.722233024060979556e-01,6.040241075536081361e-01,-1.029970384320360477e+00,-7.740881790999140089e-01,9.818375206173769465e-01,1.162406434318838500e+00,6.888257178965492833e-02,7.608718910461059748e-01,3.897230550745333644e-01,4.386044773496623472e-01,-1.069515588878902301e+00,-1.160952575166882272e-01,-9.302198566439136285e-02,-3.505117393153185934e-01,4.309525156525560036e-02,-1.031540300245187725e+00
6.986579452016746794e-01,-1.037002940581676302e+00,-2.596517406104369985e-01,-4.376719396707549059e-01,-4.357053471593619332e-01,-4.671734994039266481e-02,-4.053704497861877580e-03,2.906951942193313210e-01,7.027404405655621744e-01,-3.464592366196823647e-01,3.301925895880187256e-01,5.793526271527156268e-01,-3.051356104762126820e-01,-5.024606096600537919e-01,-1.197402504994913019e-01,-1.265513542002827674e-01,-1.337621000167220076e-01,6.802797802703670627e-01,-9.229255738411688836e-02,-5.159452494320642124e-01,-1.928967975770317644e-01,6.199157956993210927e-01,-1.373425104365191551e-01,-5.370902934789499872e-01,4.852023989558745254e-01,6.200600473864577022e-01,-1.376860716410872598e-01,-4.560627779544334376e-02,1.609981974689285389e+00,8.792585025173262903e-01,-9.563998944460541107e-01,2.253158839032286254e-01,-7.279263421116485278e-01,9.353039551238160332e-01,-2.087118144102624862e-01,9.165613682604254464e-01,-2.532515128714262764e-01,9.851996123676958206e-01,5.269144906929574823e-01,4.561860043549543220e-01,-3.872283959519809415e-01,-1.129764452786019779e+00,-5.977469999629602126e-01,1.762323003715284553e-01,-8.593721235951502502e-01,8.442410595165321385e-02,1.563074959231842698e-01,-1.993465871130167266e-01,1.033566638278234778e-01,4.064060713686105664e-01
-5.894947706183030212e-01,2.542764561780413990e-01,6.028992689707425301e-01,6.571097932792531182e-01,-1.007897402502199391e+00,-4.910995362099581651e-01,-1.984705709942129248e+00,4.328304613446535831e-01,-4.278923713317457911e-01,-1.538377475294175623e-01,1.269520804827717897e-01,7.806156412648831977e-02,3.173410570104260864e-01,6.344566957990471767e-01,1.158927016953300360e+00,3.315533711283063373e-02,4.544368438745078898e-01,-2.883778557486565974e-01,-1.438642365946595225e-01,1.832283184645545210e-02,1.859149900688883694e-01,-3.786709486200915964e-01,2.081569983122217027e-01,2.827067547279902282e-01,-1.044339990749410668e-01,-2.215247825795043368e-01,-1.999475918187368084e-01,-7.953448531324698589e-02,1.434796634551293026e-01,-4.853415109714547260e-01,-9.142390939350019119e-01,-2.689638433034288179e-01,-3.863120458798898205e-01,9.940341046919892731e-01,-3.475584562565814939e-01,-7.958606156312021396e-01,-2.975502013667774559e-01,-1.488020844925110220e+00,1.278014134152766657e+00,-2.572707600082292378e-01,3.808369665517803981e-01,6.662669644477082764e-01,4.631369775700497349e-01,-4.452816948053380242e-01,-1.330539998932871004e+00,1.028007257521787787e+00,-2.208636130647020079e-01,-4.421536817926520757e-01,3.045105763997267134e-03,-1.630217710479936744e-01
-4.026813086677986653e-01,-1.917187751869526002e-01,-7.213881014488463528e-01,4.898637842303681378e-01,-2.160902977585809834e-02,4.899497148111758849e-01,1.065641495006539374e+00,-1.174878389713320329e-02,-7.081967577429902905e-01,-3.180787858337911778e-01,7.747872871078649304e-01,-5.077919397041732452e-01,-7.478841145931558465e-01,5.286527774902074484e-01,-6.506443296561149614e-01,-1.116828104744817418e+00,3.105090220825961755e-01,-6.119456885924674516e-01,-1.783030486025743858e-03,-1.594346910437600018e+00,7.102811728025516524e-01,-2.962886431630974982e-01,-2.998896719187526538e-01,6.548349471627582519e-01,1.013968640591119907e+00,1.459651610822659540e-01,1.099725312659654008e+00,7.146716285293396309e-01,1.505195283930142180e-01,-4.381412171405246192e-01,2.410124641810619250e-01,-7.013601597283498634e-01,-3.850890898832305953e-01,4.424829925666367014e-01,-1.254288237461544497e+00,-1.161910707226366940e-01,6.821216479678334776e-01,-1.248875006732227538e-01,-8.068193204402362637e-03,1.200348049721645882e+00,-8.217129794756780070e-01,-8.675282434498648998e-01,-1.485079720777338352e-01,5.050426816372710626e-01,-2.649182316255953018e-01,4.225963406534957029e-02,2.890726879529602611e-01,7.803207690665037166e-02,5.204754369270496728e-01,9.073471188451820435e-01
3.981540999019494986e-01,-9.987811209777592847e-01,4.503347544064784658e-01,2.286314017646013524e-02,-7.383565426231755158e-01,-8.878974235337699916e-01,2.047098171769530239e-01,3.118259502523766380e-01,4.927685957594901134e-01,1.952949755661081144e-01,4.255774056442665487e-01,-4.014112268497766617e-02,-7.357670118406927084e-01,1.429172734522816957e-01,-3.346227874917733214e-01,5.144838469239507162e-02,-6.943162976956074317e-01,-4.104309404967302899e-01,-3.678462987633110415e-01,4.822502438663032187e-01,5.834359288824797485e-01,1.106312565372388645e+00,-6.515296534596881628e-01,-1.247164641442817468e+00,-1.213018697473731561e-01,-9.482809196902749482e-01,4.115008875833772728e-01,-1.887914070427530178e-01,-7.527635323469098472e-01,-8.172203654777550064e-01,-7.229670383035974313e-01,2.832856287964704567e-01,-6.827127720434396085e-01,4.529084328632679846e-01,4.527355157885223358e-01,7.215469599571342485e-01,9.883365841626198245e-01,-7.917321336255455089e-01,4.061248879977757409e-01,-1.076942899642094886e+00,1.018783116383054521e+00,4.073763029653195700e-01,-1.985632177693224913e-03,8.246046203651988815e-01,3.667099279159798386e-01,5.696307450468691691e-01,-4.409317818516752530e-01,-7.382124317198951458e-01,4.668088746618074408e-02,-9.159295217642239306e-01
8.740631316783221694e-01,-1.110420720061193078e+00,-5.354841132572145668e-01,1.137140930031796948e+00,-7.687382899945963688e-01,-3.058110049078220927e-01,-5.340183581117461387e-01,-5.378338497697805476e-01,-5.230372873880815288e-01,4.731723545071284676e-01,-3.117825162328073385e-01,-1.108364388091033215e+00,-1.470233808815563092e+00,6.021753551572269630e-02,-4.437487161302183791e-01,2.803844607621831519e-01,4.299262470732034824e-01,-6.162994100911665107e-01,-1.140507868629159427e+00,8.219453164126071520e-01,3.141683520633791193e-01,2.267792959159783961e-01,-1.060912889614993720e-01,-2.940225772081823674e-01,-6.849761167206126489e-01,5.744538795412286181e-01,1.172033540895222270e+00,1.456378775434377770e+00,8.067210156618142003e-01,-1.629389892810183538e-01,5.601360661505183636e-01,1.456672209910478133e-01,1.802609823406733369e-01,3.255700105442798642e-01,1.227883868208200363e-01,8.118033048634553106e-01,-5.923655602665910125e-02,-4.187538249898194453e-01,1.473319796757507384e-02,-3.139329963329368089e-01,-3.285154351925401728e-01,-2.475822965492683325e-01,7.263026092325864935e-01,7.666681430984738366e-02,-6.926793566399802593e-01,2.396880738785306109e-01,6.771410363112220221e-01,-4.096427171191911157e-04,-8.902968474045280800e-01,4.261707542813542027e-02
8.404729825999783799e-01,1.063823281656959940e+00,-3.918282823323381847e-01,2.917827410764124996e-01,1.830224435255135840e-01,-1.545604863375219795e-01,-8.942589436613851417e-01,1.606434320278648853e+00,9.415829625154260862e-02,-5.291248949177052019e-01,-8.925223969286208980e-01,7.906499608258052980e-01,-6.165512516592981385e-01,3.836790896172566634e-01,-1.263061219252086531e-01,2.297967575952331032e-01,2.602546545971829439e-01,1.878605685386634458e-02,-9.231500046617733268e-01,3.983434039448461306e-01,6.621267633159438892e-01,3.583275586112046884e-01,7.626462038292552981e-01,1.659721750975092780e-01,-9.325294511897541661e-01,-2.131193583762693577e-01,1.174148224513819727e+00,-2.003590049107642213e-01,3.504398764542443478e-01,5.866503766406908627e-01,-9.098377930473237063e-01,-4.707439272323730717e-01,3.381056283597912437e-01,2.313366959322815108e-01,2.801012019700991895e-01,-4.228148890798921755e-01,-1.000669365741000627e+00,-2.805229043429043334e-01,1.477820879271481667e-02,-5.539395700232172537e-01,-1.460999637955289754e-01,-1.105071275361512173e+00,-8.558409508350924844e-01,-8.692659848870800676e-01,-4.668901565687372801e-01,5.243697004003926992e-02,1.463554948843062808e+00,-2.461710146816256106e-01,-2.696392601237477815e-01,-1.097033529943519520e-01
-5.819360278876749559e-01,7.177999989843538708e-01,9.549402461888885363e-02,4.292045396316420680e-01,5.785204955232246121e-02,-5.851899205631008183e-01,-8.752814831486688263e-01,-3.789452220810384242e-01,-4.597518234505666435e-01,3.144847733192350780e-01,-4.775469099466607137e-01,2.788761731655222675e-01,-4.476806086634279591e-01,1.431867852344144154e-01,-5.068335045084011448e-01,6.313954902799285840e-01,8.860459845156765102e-01,-1.064444421170468447e+00,-5.355048660922731019e-01,-2.765341913425473086e-01,3.351837330068979659e-01,2.463614686689347688e-01,-3.504493975208413103e-01,8.307721952230388007e-01,-6.610512961099637153e-01,-5.075241630858273907e-03,-6.998056496618312305e-01,-1.511112906554021307e-01,7.182892677436580886e-01,2.538358210699406259e-01,-4.390054633851651622e-01,9.910345241211754308e-01,4.474131764819841428e-01,-1.022946483011419883e+00,-7.472265878955640372e-02,1.936658459632102924e-01,-9.403663196150571224e-01,2.169147654685107118e-01,-1.113367540700477692e-01,-7.305402274861453327e-01,9.204390395417606785e-02,1.307361680518500380e-01,-1.082854638212701198e-01,-2.112517405433849416e-01,-1.453452239913908817e-01,-2.492213099347939942e-01,-2.728057093374710099e-02,1.441371653897771388e-01,-6.076584240762720190e-01,-8.164730582187156305e-01
-2.399385200099983517e-01,-7.482646870878604251e-01,4.951647638331712620e-01,8.039308428293451270e-01,5.451643566349371195e-01,-6.397915730552140579e-01,2.401470378642489301e-01,-4.834534074143598259e-01,-3.463929631172540380e-01,-7.331917782165816577e-01,-1.076687699693269495e+00,-4.952144607412621857e-01,-2.645046059630299928e-01,-7.556725524385142501e-02,1.423718227191839436e-01,-2.923725989619056775e-02,-1.972023426980856753e-01,2.932300580062542350e-01,7.179013159896606433e-02,3.601093105598465183e-01,1.655367741241434709e-01,-7.966196606186102258e-01,9.403764267928829690e-02,-5.471774308106659435e-01,-5.414320794833317185e-01,4.347547205737372633e-01,-3.829876419837354717e-01,1.276344116937386808e-01,-5.922376205448929287e-01,1.685169393849165864e+00,-4.098257718595875176e-01,7.607488579192374090e-01,-1.524192756581115082e+00,-8.904583789626079049e-02,-2.854836500062333804e-01,-1.351770625830620298e-01,5.168578185073235964e-01,3.613781538193338028e-01,-4.643235168170392058e-01,4.401669229690388652e-01,1.856274739057538758e-01,-9.602168428329495298e-02,8.018442074400554676e-01,4.221239678099039105e-01,-6.529794801368818957e-01,1.198634889900574985e+00,1.020616539534879713e-01,1.471602760256533193e-01,2.014952305150759793e-01,5.727134192427295600e-01
-1.885586330431199623e-02,8.268353162318758942e-01,1.238224800864201752e-01,-8.214127133260509250e-01,4.416130126071567963e-01,1.726583988692088900e-01,3.784493708994679517e-02,2.751356164280883698e-01,6.282237848567402416e-01,3.845083175994255531e-01,4.037802872431270340e-01,-4.750666748090019986e-01,-7.966724472969451964e-01,-2.590662375492744363e-01,7.016809329670296858e-02,9.599580831249141522e-01,-3.436408232212266878e-01,-2.425306584307651281e-01,1.237630759114293488e-01,1.104676848707699444e+00,5.450092272342659250e-01,-6.225553284952710653e-01,-5.269437727269875582e-01,-3.529032000080964404e-01,1.834490671429070408e-01,-4.891096426709095613e-01,2.718263458701662416e-01,7.767556667356108335e-02,-8.592261467560317056e-01,-1.514965256010309680e-01,9.137651469056108366e-01,-4.336533169531597842e-01,1.550546260195144188e-01,-1.610476162288101976e-01,-2.618288410549778344e-01,5.160098421984393724e-01,-3.783823106041062090e-01,-3.696700327789937401e-01,5.271408630912776117e-01,2.760050114760137507e-01,-1.279680533734498749e+00,2.415005900739298772e-01,5.240296637442600769e-01,5.877246814844410139e-01,-5.187128376671594765e-01,-4.604640582391750225e-01,-7.735485796533522196e-01,4.808785505908375058e-01,1.176532086890857531e+00,6.431947326722124991e-01
6.473341100595836339e-01,1.131312713398394676e+00,7.959595001369373229e-03,4.866649684503623341e-01,1.744429520946475243e-01,-7.963930659433595544e-03,-2.400190501116005425e-03,-3.452089168140791142e-01,2.308179489945415830e-01,-6.092018053763406105e-01,-5.018619797709573671e-01,-1.918635794299111130e-01,1.119774500712229059e+00,4.380805616234153543e-01,3.065758372726258840e-01,-3.085790157552012469e-01,-8.277581622785196158e-01,-7.593349819442563042e-01,4.781452869208314693e-01,1.314669932466782376e-01,2.177094910813394402e-02,-1.074953958469224702e-01,3.328321788733278885e-01,-2.763436083846280145e-01,-8.738637927658570170e-01,7.302950636194153189e-01,7.694059207238632681e-01,-8.004781287957055680e-01,-6.576072979526169648e-01,-1.546673200892305200e+00,-3.732654330587829583e-01,1.835041702894792126e-01,5.637578144877792852e-01,5.049806591700609637e-01,7.441142420817382641e-01,-3.261353238562758605e-01,6.818535550541274803e-01,-1.925375205208204321e-01,7.820790334804639254e-01,3.748421353395423039e-01,-6.509170614956455436e-02,-3.686896241102369243e-01,-7.917820816571262688e-01,5.029516027497091812e-01,-1.184176516428029763e-01,3.324590419757410958e-02,-1.457687839616480519e+00,-1.269763827643584364e-01,-3.211570801650813212e-01,-1.380634901044420770e-01
-2.421067464398872771e-01,3.731785158116247003e-01,8.119323040176430473e-01,-2.839444239609733578e-01,3.898973619608389063e-01,-2.548750302939859491e-01,-7.039174092832714558e-02,-6.614988561538727163e-01,2.593565825561340854e-01,-4.554563273931825362e-01,-9.411116010278002264e-01,-2.340953701816675669e-01,-1.107819586939434719e+00,-2.159986630483525516e-01,1.023289040367010072e+00,8.065867452703264773e-01,-1.188848566589780553e+00,-1.089770805421790278e+00,5.420966223180276877e-01,5.995002179597714864e-01,4.101401416961993340e-01,-2.172168758045246173e-01,-8.474209136870370918e-01,3.271163182084907417e-01,-1.980532422248570679e-01,-1.155993115931241544e+00,3.227639283497956146e-01,-3.997662911694482152e-02,-4.901478499122855492e-01,-1.192896477536028677e+00,1.211865790084447475e-01,-4.352218102407335865e-01,4.089219674213358524e-01,-4.071840700470033547e-01,-1.523617431296319380e-01,4.759271583421281759e-01,2.037560315410728295e-01,-7.360406528192039999e-02,1.246625612047633114e+00,-8.987317334615191333e-01,4.789280949985030289e-01,9.294844438301151646e-02,1.171207527672541993e+00,5.256015009112429137e-01,-4.784939326206201216e-01,4.240853928388257921e-01,2.934178385924680055e-01,6.890632501924255360e-01,-1.230302356704542577e+00,6.104905316530775394e-01
6.783944688113184851e-01,3.935049042688101850e-01,2.622969701114192809e-01,-6.108312367827423151e-01,7.816282328932769863e-01,-7.654174056192070141e-01,6.482052297138097829e-01,1.080936797998688359e-01,6.219700565426483294e-03,-5.682168329741628388e-02,-1.038554466697908935e-01,-4.933096142197497813e-01,-1.000342782144224341e+00,2.439952025807558961e-02,-5.918551328352056329e-01,-5.724565353221520991e-02,-4.281944735770173427e-01,-3.710566782247707307e-01,8.332012553220365936e-01,3.688815443181709952e-01,6.483360124614835351e-01,-1.171997173281824400e+00,-2.097389544100310699e-01,2.771911073086604782e-01,-2.957980014483371084e-02,5.903842215330309395e-01,-1.479780766096265854e+00,-2.145682545882546532e-01,-1.674536314707500417e-01,1.974844180244227365e-01,-2.159212009267251486e-01,-2.066937791763975019e-01,3.203007400006506189e-01,-1.379680788334491578e-02,-1.576980167826102786e-01,4.116426357630440513e-01,6.559284506391132030e-01,-3.109816169777923633e-01,7.104417542028179655e-02,-1.031853466208263459e+00,1.420069023391943519e+00,1.478706304381682268e-01,5.298733467337864989e-01,8.774762802759390745e-02,1.428332975662286009e+00,-5.803210551893747127e-01,-5.660196639518396688e-01,-3.389167026334477528e-01,1.690094677059231776e-01,-1.462318673548172743e-01
1.638346995061021050e-01,-6.400180255920684402e-01,-1.726983949625419124e+00,9.503812092227913177e-02,-3.559553063508549831e-02,-2.015539701318895538e-01,-2.148531885885946457e-01,3.351237454267191329e-01,-2.228692180119983546e-01,-4.217211509446305850e-01,1.441782981549336040e-01,9.741364421164944165e-01,-7.171125660740497176e-01,-7.447443970778783173e-02,7.723578861611389845e-01,1.953523210781729982e-02,5.384126294644518973e-01,5.976793556720884082e-01,-3.217363160881942519e-01,-5.613317152564577528e-01,-5.004905722392004597e-01,-4.009998053023076658e-01,5.452646943835280924e-01,-7.432930822173615566e-03,7.366202952033579221e-01,-1.758119066412145992e-01,2.481139279457608149e-01,1.397840668324878965e-01,6.963218169888748532e-01,1.895339015829464527e-02,-7.143402393785919235e-01,2.233609980515745275e-01,-1.371297458705651451e-01,-5.612832420881904566e-02,6.636075467382021031e-01,-2.364666408184806112e+00,9.660656954566083643e-01,-2.721480641269408141e-01,8.868673355818366133e-01,-5.671864805264245080e-01,1.100649759557288249e-01,-6.167225266694938979e-01,1.611185213007203243e-02,-4.902079094837689666e-01,3.147996248539987052e-01,3.667150590879340033e-01,-1.992438280715785603e-01,-4.512109607957946467e-01,-6.344627773411311011e-01,8.487407160909378190e-01
8.857894993536791217e-01,8.736627171520111590e-01,6.706028504783961841e-01,-1.081327257775612644e-01,7.045281352898026539e-02,-6.384672385681125495e-02,-1.239656121596334759e-01,2.335472084245134861e-01,-4.821985363373785805e-01,-3.571336055877787465e-04,-8.994123393093425012e-01,7.377189516010478343e-01,5.176340052840106010e-01,-9.148306259645935246e-01,-2.888261558514593763e-01,-4.967948786796911459e-02,8.658590480028212077e-01,8.923308495216027980e-01,-5.206454996783591582e-01,1.091921343593958565e-01,-5.983365755398494246e-01,-1.858142314545102591e-01,-2.362951574227634410e-01,9.838148803263002673e-01,2.240248941953186801e+00,-2.053701142751928888e-01,-3.758077245266934485e-02,6.051536742090481841e-02,-3.214782395579020569e-01,3.369206969112349959e-01,6.856887563471391056e-01,8.453108400846486015e-02,-9.783535190107934820e-01,-7.024677117169748630e-01,-1.041328935001559625e-01,-1.293390989659608969e+00,-1.464397158382833020e-01,-8.370368014743435892e-02,-2.161758391678653690e-01,-7.399798261654449982e-01,4.755181922847783182e-01,3.503205351365100140e-01,-5.237976460510229693e-01,-8.844624519824401121e-01,5.335508282878217295e-02,-3.821654642968126403e-01,4.234616838046156295e-01,5.106635965694665824e-01,-8.508097837736372515e-02,-5.206018456868951594e-01
8.685463871852864282e-01,1.701852292020433477e-01,-7.515860393812313633e-01,-2.571491073218665768e-01,-4.840282183857217424e-01,-4.463813349239075245e-01,2.540049844768522691e-01,1.535946570604596328e-01,-3.017428344539759832e-01,-1.724284522139739040e-01,-5.445298409369581094e-02,1.009396157918732051e+00,4.095165278482961746e-01,1.536932929590484775e+00,-7.569014419219526335e-01,-3.991140814974044465e-02,1.996968272477114281e-01,1.035628888678277848e+00,-3.272526001922327343e-01,-6.025785094462467184e-02,-1.307646332892066887e+00,-6.859115964812380062e-01,-1.203713201270051741e-01,-3.582211652967464688e-01,7.577222841864525993e-01,6.597477599074564880e-01,7.789469400252585496e-01,5.836942689662435457e-01,6.600103321159646041e-01,-1.222330783808821320e+00,1.533722517402598962e-01,-5.735910090460163424e-01,-1.356919205709462839e-01,8.402736033214154299e-01,5.443900625758616579e-02,-1.049832037481460978e-01,1.078951066573848594e-01,-6.415083061270617781e-01,2.952717587708526548e-01,2.010138998874888561e-01,6.243412130984148378e-01,1.372385389087505403e-01,2.603671470024900847e-01,2.616621142225586394e-01,4.575578934329939673e-01,8.063635235491228848e-01,-1.440226121288200600e-01,2.456648000715498312e-02,1.230341537837221777e-01,-2.501556812668410679e-01
9.322069443373994790e-01,2.008963459712862221e-01,1.633239409030079248e+00,2.453458767857263356e-01,7.406427769935129968e-01,-4.867445939327423865e-01,-5.239433124710811684e-01,2.375340268719446646e-01,-7.008207826905595850e-01,3.912397607867813543e-01,1.644711368934942798e-04,6.701891058541514790e-01,3.770114464796991416e-01,8.832264285154824146e-02,-2.095471791504973369e-01,7.817467023171161822e-01,2.639868639523345606e-01,6.019201951107241433e-01,1.170605603850459309e+00,3.540766187386146235e-01,3.712539485381066151e-01,-9.328583335190289427e-02,-9.597994029020280593e-02,-1.417409482088571593e-01,-2.098546250534332747e-01,-7.793919667330817536e-01,1.559643143046130637e-02,-3.824553687066014618e-01,-4.540187996451044428e-01,-2.735741173626496936e-01,1.605284962775878899e-01,3.893359547425214173e-01,-3.895900468224633983e-01,5.252173739058049184e-01,-1.823705050232699021e-02,3.842777120509783817e-01,3.778227540334566648e-02,3.331665664989242326e-01,2.425085748259461216e-01,-4.748135208699401644e-01,4.589407692608727385e-01,-6.588613589681820981e-01,-1.106826628540206636e+00,3.273769674431970533e-01,-6.577796184699361559e-01,-2.186523488460594689e-01,-6.912965109533736330e-02,-8.369430870147618329e-01,4.197224783196019104e-01,1.468962982586371202e-01
-4.332963608974689240e-01,9.067204509361460885e-02,-7.534421496801313456e-01,-3.241594208717623049e-01,1.833645438917199944e-01,-2.717264048050404002e-01,1.455520540857323297e+00,5.081775686026140937e-01,1.858732478638721319e-01,-2.773846428914040763e-01,1.861250400274359063e-01,-2.772070233764419855e-01,8.760800604006587777e-01,4.691461519705585337e-01,8.251356174317169279e-01,-9.307284531437799435e-01,6.211386664249272938e-02,-7.838358214205841668e-01,3.286163453610194685e-01,-1.423538608190461963e+00,1.048312596269074665e-01,-1.183785945378120985e+00,2.061834078599431019e-01,-6.387650707754001234e-01,9.969235293142917342e-01,-1.463590217284078676e-01,-5.444846273559076355e-01,-1.607859025907168449e-01,5.435883004534058927e-01,-2.330577127827768436e-01,3.584559284986621464e-01,1.727351678976906113e-01,-5.518172309806385067e-01,2.411308238505213697e-01,5.280104670485367135e-01,4.835828672996597688e-01,-2.495498540186728842e-01,1.010260303903782075e+00,8.761039509226353772e-01,-3.425185164591481590e-01,4.244450762529152210e-01,-2.941998789972112283e-01,8.173065330189503985e-01,4.747267175275035611e-01,3.418740703254155022e-01,7.535032560918022981e-02,5.608186638990264594e-01,-3.216647720447161629e-01,-5.394751286193048001e-01,1.457150457895987516e+00
-6.147447091774697059e-01,-6.340719881299246019e-01,3.600317695103328886e-01,4.437363513160169082e-01,-9.338540446653678662e-02,3.948417725233888120e-01,1.292050649068554158e+00,-3.648903403753606112e-01,1.152187584928108244e+00,3.138246707833490801e-01,-2.815573488123497281e-01,-6.081759874870987792e-01,6.003268451766493596e-01,2.139602443714818669e-01,-6.374041261684654236e-01,8.734918279750835124e-01,2.870926092541831176e-01,2.227286049552441582e-01,-1.026139287206779160e+00,6.135863345181331585e-01,5.069163754617828088e-01,1.354957377878247771e+00,-3.020685318250272977e-01,-8.748565971605769542e-01,-1.312837541721883772e-01,2.249314341633323333e-01,1.997406907239515084e+00,1.393154190850540930e+00,1.419561175337354042e+00,1.467242965563713697e-01,-2.008595034950430014e-01,1.219162848187671649e-01,-3.030292291708939767e-01,-2.132499110644412998e-01,-1.363098497606784476e-01,-3.221990096209211840e-01,4.130083997537854490e-01,8.623280907533331652e-01,-4.175622100332464504e-01,7.281429353874645516e-01,-2.269844998395001076e-02,5.257101824220787867e-01,-1.884792428754977212e-01,5.176286472272403349e-01,6.204220282711908618e-01,-4.123532737053593467e-01,-1.856661662772920718e-01,3.260500316527698006e-01,8.791703499046688020e-01,-6.914906306472020647e-01
5.870752146351416734e-01,3.260255618103279351e-01,-9.069315635905485229e-02,-3.277962255375727607e-01,-5.463921245342191479e-01,-1.639830208622719276e-01,-1.154499304914691216e-01,-1.983184688867472567e-01,2.197441671072880298e-01,-6.127815819580073511e-04,9.552350617602407834e-02,-2.025430696925133445e-01,1.386959333335986977e-01,-7.045817160286608205e-01,-5.771836473402496004e-02,1.297878125342130318e+00,-5.075589193882289463e-01,1.894165092237757586e-01,7.319338178300718867e-02,7.359964102956679799e-01,3.797262435558029225e-01,1.475072514183967398e-01,-2.982552011788767721e-01,7.724694491636097116e-01,5.588702150823917636e-01,6.806214166017889866e-01,1.126724818846170040e+00,-6.308060342511141450e-01,1.403057494150102280e-01,-2.753263344452711037e-01,-7.115430284254741222e-01,5.675341365292017048e-01,1.711552219992069190e+00,-2.524075137146827297e-01,1.018818140118178395e-01,1.666464504671839875e-02,6.595388812964398939e-01,-4.879953285748104275e-01,3.959068766918801274e-01,-1.606923884859248197e-01,-4.707566628979709122e-01,5.841188375983441539e-02,6.288649336520382160e-01,-5.927953387130223684e-01,3.119026866493940231e-01,1.189075478886438608e+00,-2.225790014960656316e-01,-2.127985290711867927e-01,6.551643443082454388e-01,-4.401800827379658831e-01
1.013097831364998536e+00,-6.168803898423190768e-01,-3.286080003933560256e-01,-7.317322630975877651e-01,3.911606695115188437e-01,3.719058219467316628e-01,3.708111747127469937e-01,-5.880823807059404329e-01,5.021670292836514227e-01,-1.121885563639737349e+00,2.709788204456133331e-01,-9.269120815872429198e-01,4.170789235186785349e-01,7.045104335702843112e-01,3.321335057834391008e-02,-1.796023724504096641e-01,-6.250422319461854670e-01,1.798709601506236488e-01,-3.870882081593015611e-01,6.571340932971142523e-01,2.537080632241085487e-01,3.473601118636211044e-02,4.542816096626907107e-01,4.089459082231240716e-02,-4.430273925502012378e-01,-5.764273922110574322e-01,5.717423525771510306e-02,-1.296312818705961656e-01,2.212713392236156096e-01,6.628363745983853472e-02,-7.518331842558383382e-01,-6.227178722266198951e-01,-7.294438845040462915e-01,2.651439722302483815e-01,2.898369071759369087e-01,2.982470385116051115e-01,-2.477909190184878485e-01,-9.879462034354891120e-01,-6.966966287990390416e-01,1.722990177709135262e-01,-9.704448239738937554e-01,-4.693180254953956965e-01,6.752622752724807276e-01,3.619401254141112467e-01,2.589693513899219979e-01,-1.495691924679480200e+00,1.814209157861415289e-01,5.826081848220791004e-01,2.034196741682980578e-02,3.797558119675095156e-01
-3.216784657780044632e-01,5.059307386854089428e-01,3.571420182078930972e-01,-5.676085145272132815e-01,3.384367632434925194e-02,6.901642437108010952e-01,-2.700343587717692340e-01,-2.060828023496824313e-01,7.762244447052264740e-02,1.000742108601102992e-01,4.274639746569601217e-01,-2.998893312848116555e-01,-1.141843441456096564e-01,-2.473768155436947003e-01,3.705964203273743318e-01,1.094270833379248575e+00,1.080769048534907517e+00,5.073894126396149007e-01,-6.316825963651445663e-01,9.332908295353465888e-01,-5.830463993730764516e-01,-8.656873827682807221e-01,2.772570655080356938e-01,-9.043367522207769460e-02,-2.883777235863703159e-01,6.992455675474225085e-01,7.577764190371323316e-01,-1.157432253476690098e-01,7.483625136241606191e-01,-1.487194723002170094e-01,-1.359975147652425553e+00,-6.897825415565948803e-02,9.136556255875383226e-01,4.742725597248581559e-01,6.716978544017541131e-01,-9.884939435144995956e-01,2.302573842042824059e-01,-5.015380597313822131e-01,3.766287529358777197e-01,1.756301701887079458e+00,-3.079331080447887392e-01,1.104985455709351638e-01,9.403789677042277695e-02,-4.388486570862625280e-01,4.109875423741550793e-01,2.372632416313472936e-01,3.273840849000238529e-01,-7.167114536362136912e-01,-2.594892676227191219e-01,-1.092650304781620785e-01
-4.612386000006548081e-01,1.034231558174537824e+00,-2.497917773763773663e-01,1.800843506721933329e-01,2.081822279086238403e-01,2.250086726755695307e-02,-7.333879071339147737e-01,9.603530883087538217e-02,8.456656267818755124e-01,7.321226676247030718e-02,-7.095372218455381352e-01,-5.513558574674265467e-01,1.186790661410627445e-01,-5.761753789904565659e-01,5.061938644477724791e-01,6.212727540248886848e-01,-3.533265042075264262e-01,-1.742202969682842828e-01,3.746122707236831939e-01,2.316245380557530320e-01,-7.284426276227004005e-01,7.418449563135809388e-01,-2.802127448595329584e-01,7.303916790723161134e-03,7.591991884067964547e-01,-1.466009816583238590e-01,2.647272430787533937e-01,5.406536526151126676e-01,-6.193076778421201523e-01,6.035937425042527948e-01,6.878070961250500881e-01,4.561819549842773824e-01,2.252526890593956888e-01,-5.991682877869307644e-01,-5.976023182884532270e-01,-6.300337633232310219e-01,1.038786136711955299e+00,4.403415052709327288e-02,6.145764378311140835e-02,-3.860751815574250956e-02,-4.060943883625451334e-01,8.249733728281291589e-02,-1.448676095626096894e+00,1.117165967031026996e+00,4.096737075146878460e-01,-5.785645483865365923e-01,6.815465341600843718e-01,1.312398946127640298e-01,-3.748504648808124728e-01,3.726735115673586729e-01
1.013753424284891992e-02,1.196243298193681165e-01,-8.965448412163964376e-01,-8.406665211695841800e-01,1.242232769328276559e-01,-3.484502382766709039e-02,1.605491083688763421e-01,5.087541262588677338e-01,2.528568526816009632e-01,4.874587632449816077e-01,-3.367642207449700886e-01,-7.153301232540447419e-02,2.032032754707855104e-01,1.422646187254047456e+00,1.067583601579227492e+00,9.857440012050542322e-01,3.927206655230824212e-02,3.905134270365375193e-01,9.037335744456083120e-01,4.308926380502409725e-01,2.019119551254114006e-02,-5.512072756930105344e-01,-5.806637613716936208e-01,1.700712205786455711e-01,-4.003054852517092324e-03,6.921628654552525184e-01,-1.092408581987687644e+00,-7.587344213266403736e-01,3.911712356499831844e-01,-2.636198429147630362e-01,3.014469662047121745e-01,1.336032075139846897e-01,3.291114448566369033e-01,-1.848422178042974651e-01,-7.947605858153541231e-03,7.532738725360997867e-01,-1.991445076295703109e-01,-5.590862476819142834e-01,8.165544231206639525e-01,-2.713282967562397618e-01,8.044825003546703102e-02,-7.307112922151254297e-01,-7.368916758873979012e-01,-2.560871950914553885e-01,-1.132783179799194129e-01,-4.075837229371436776e-01,-5.458460922007469796e-01,-8.545774459566005121e-02,-4.085874970358860381e-01,-6.191025366464678603e-01
2.737625502197088001e-01,1.760146922700249125e-02,7.167467700796655850e-01,-8.935716183319420969e-01,1.088198925770450964e+00,-1.625167728450595817e-01,-5.877994669456543253e-01,-6.022715928705761890e-01,8.393695374442724511e-01,9.594216439920557615e-01,-1.348383896448953345e-01,1.429353203580912279e-01,-4.047628437926686362e-01,4.273204800448522911e-01,-4.152120301603817176e-01,1.226233541600099564e+00,2.128532182306760445e-01,7.642925563698468316e-01,-1.283917569300184192e-01,5.452454836132420990e-01,-7.651592078779317907e-01,-5.621971783609401863e-01,-7.872624809581059147e-01,-3.322402131537872672e-01,8.296997133742113339e-01,3.209387568029807292e-01,-3.173446866753804607e-01,5.872316411988441898e-01,-1.296664682793566836e-01,-5.154242772113228899e-01,-5.236486214289128860e-01,-1.505510147233774798e-01,-1.846561550837653720e-01,-2.310875640305818102e-01,3.954480992075162793e-01,1.513765430787698263e-01,2.103329364024061066e-01,7.124742067698369707e-02,8.932363112002837946e-01,-1.061236629651985286e+00,9.020587250215335029e-01,7.777943729984831966e-01,-4.348458267489928031e-01,-1.798389943191453996e-02,-1.256654998077764707e-01,-3.312123253740598128e-01,4.279249783960603071e-01,3.938322869979091895e-02,-4.370268840389621712e-01,1.366664042392910172e+00
3.649518232829050968e-01,9.454607221410747664e-02,-4.950906539721306454e-01,7.763000633133722017e-01,7.745505459545378932e-03,-8.831387768108656111e-01,-1.148711263089698259e-01,8.705286177462541464e-02,-9.981790591821868563e-01,1.383323636649732347e+00,8.956081503944655908e-02,-1.151301062633672156e+00,4.580276733876221806e-01,-4.677423134086596823e-01,1.965431138953989409e-01,-4.302199411248547878e-01,-6.361967555832032106e-01,-3.557272867203805089e-01,-3.936320524311119895e-01,2.674348216005150158e-01,1.085623399346619111e+00,-3.424490517594918071e-01,1.024661803286086581e-01,1.929003978784853968e-01,-1.218317785821538546e-01,-3.727119584853019196e-01,-5.023652325027229137e-01,-1.617488938451317804e+00,5.248068221058700411e-01,3.417697849556413092e-01,-5.051960259908249151e-01,4.309924787625199483e-01,5.703611574132677609e-01,-1.386822613671131466e-01,1.835157218386765654e-01,3.619376857117306279e-01,4.972638693632136508e-02,-4.775000567828292797e-02,3.632587467344700061e-01,-5.243708573748068202e-01,-3.122663861031322874e-01,-7.615105774252473037e-01,9.024731034805786312e-01,-1.305192598190103859e-01,3.140606731510706129e-02,8.230122568225214374e-01,2.283357804088436693e-01,8.673394504895497459e-01,4.395836585003721209e-01,-2.406414646115835332e-01
8.356156254747838519e-01,1.132617917092468618e+00,-1.258276964545200216e-01,1.090582415894696844e+00,-1.812612519412867274e-01,2.160369238796799596e-01,-2.137345675948552903e-01,-2.293238798755431549e-03,-8.433362347679299598e-01,-2.629944260539295864e-01,-4.046690116374303259e-02,2.629605088395589596e-01,-3.907950064393806433e-01,9.068971009064784594e-01,-6.898201536880652629e-01,-3.043656775228627005e-03,1.027314042086674206e+00,-2.409935455387763326e-01,-1.164388710878214717e+00,7.944444278304886309e-01,9.079632374786596183e-02,-1.149241416237577251e+00,-4.807197809196867705e-02,1.621010579514463867e-01,1.539243605483707755e-01,-5.464170798917240557e-01,3.922158583020993183e-01,8.008377377369301220e-01,3.731721167524348903e-02,5.970249727216898616e-01,-4.843360282992212884e-01,-1.150815589267266126e-01,7.723495971605008892e-01,8.096485108492290639e-02,-4.849571450217236568e-01,-4.008602270930605727e-01,-1.772392002128570787e-01,-1.380789150372124276e-02,5.372532591630871934e-01,1.159758704087334724e+00,-3.256474837322472227e-01,-6.081302814698372750e-01,-6.373967498470519688e-01,2.294347151475474300e-01,4.479022165185244098e-01,-6.246493128428630692e-01,5.338930867378608447e-01,5.975102476152622799e-01,-2.988373572157073665e-01,6.190844868403363455e-01
-1.623747263490599169e-01,5.863731626560979571e-01,-5.275102460393573667e-01,-5.113399908518323489e-01,-2.591018101889762670e-01,-3.138283895598737994e-01,1.324110114964875518e+00,-4.845701918737173042e-01,2.557740805022784905e-02,-3.570007847555158875e-01,-3.525637442308663383e-01,4.070854518632789354e-01,1.640636081396067494e-02,-5.662969123911358871e-01,2.020372142421696104e-01,-2.338980016837880482e-01,-3.317427076105321504e-01,-8.258971503311669793e-02,-8.798539204204617326e-01,-3.682545512534976528e-01,-7.475315702547062902e-01,-5.712610853943507205e-01,6.328521540083084096e-01,-1.846704320404435329e-01,2.812682361494889954e-02,-5.565299641187120283e-01,-4.724102231884534375e-01,9.161752744223691236e-01,-7.254914410126287461e-01,-6.621022760676967822e-01,-3.815074815566229377e-02,-4.024252061385427126e-01,2.473446387801335467e-01,-1.330525496990955903e+00,5.576474057112532634e-01,2.851996041324798004e-01,3.354878837707583883e-01,-2.063873964740503830e-01,8.204711093399793542e-01,1.411369076559717828e-01,7.795699599823250336e-01,-2.795670944996145324e-01,-1.104007164005096575e+00,2.371095080946388767e-01,-3.331653895776545693e-01,9.341420743316634079e-01,3.175896531484571628e-01,-4.378430823679886341e-01,6.201804260819279158e-01,-7.149139683366851905e-01
6.738365083453812243e-02,-9.551341897932892344e-01,-2.781990259612275307e-01,-2.095698292564407428e-01,1.097297232681760271e+00,-3.417575347310227163e-01,-2.026144245217458562e-01,4.254244302153199486e-01,1.882796159738840958e-01,1.509458524005360847e+00,1.323810691519022031e-01,-2.366817288687096399e-01,7.459401390294467804e-01,8.040044489703387365e-01,4.162744934903340188e-01,1.744523719253061322e-01,4.711256118636268364e-01,3.817918302250908336e-01,-4.767875184961444246e-01,1.544697396878165485e-01,-3.564540963672929164e-01,-4.834612345556220103e-01,2.215499575314673272e-02,5.569515332434761268e-01,4.617538718990438218e-01,-1.649146137100434784e+00,2.895457444333894292e-01,5.443981777766027097e-01,-6.931168847263742272e-01,6.778561210106074375e-01,1.675190051129454627e+00,7.151731477806486659e-01,-9.752757552827674425e-01,-6.772978171947527937e-01,1.060754861419447026e-01,-3.535380827786734764e-02,9.565530466701811785e-02,3.015128535338783000e-01,4.091171793206871965e-01,-2.623035126048570143e-01,-2.691776451043615195e-02,-1.877647586742232366e-01,-9.247586473290240194e-01,9.634487564061748888e-01,2.377690244351229609e-01,-3.779168606350698512e-01,-3.409316844894949017e-01,-7.605045868209291404e-01,1.079767651135953965e+00,5.643149584250973794e-01
-5.584940174969234006e-01,3.000776971537552074e-01,-4.827738800701479316e-01,-1.090598472257424234e+00,8.443229962574750821e-03,5.772083756096033635e-01,-1.813011395977108808e-01,-3.473378975366412935e-01,9.915420631020198383e-02,-1.593291521354456508e+00,-5.318463845782691601e-01,2.240268144625283675e-01,-4.011288370383637725e-01,1.267748816512900001e-01,-3.701473906528413571e-01,4.444337873855678800e-01,-7.492392575328171711e-01,1.313052616506061310e-01,-1.849148666387404383e+00,-7.598030798347504833e-02,1.223033542363398118e-01,6.778098575051143271e-02,4.735085373283852150e-01,-7.827336081901382914e-02,-3.490678904982564678e-03,4.935585732849572804e-01,3.272126793828986635e-01,-1.954831105687432125e+00,-1.155295964051089586e+00,1.041467897146255872e+00,7.158202171028730243e-01,3.643749439284094671e-01,5.436224669341308546e-01,-5.588403603186822277e-01,3.593872791410673284e-01,-1.076515871004486563e-01,7.623486900378913245e-02,4.753285968172665243e-01,2.413729875109478229e-01,4.742966827007399910e-01,7.954924289291634976e-01,-4.829038897414137388e-01,1.799601657294493118e-01,1.441713096564955499e-01,4.241458431385685124e-01,1.017340580426941976e+00,2.149931541805778501e-01,-3.053080646560064615e-01,1.004484648372919953e+00,-2.966413806122569774e-01
-1.106309534895417446e-01,-5.454870012387116329e-01,5.858412330962139425e-01,1.638747523975724041e-01,-3.228105452990197299e-02,4.864384898256868262e-01,2.658635686138577925e-01,-1.060412797805915019e+00,-7.888769311354900671e-01,4.745676994483587485e-01,-3.147049197968609380e-01,2.611985073369423871e-01,5.615742377034383948e-01,7.532987828728880952e-01,1.098946602893394603e-01,-1.171232660350927990e+00,-7.105592614545798158e-01,-3.899327486863544134e-01,-6.964762063956813076e-01,-4.020639896020345438e-01,1.416364478746605204e+00,2.027380943451255191e-01,-4.383069279036002630e-01,-3.491386409678916558e-01,-2.511470760035641181e-01,2.068734760986587484e-02,5.294796776534451688e-01,-1.251826129950845301e+00,-1.514333252586228529e-01,8.666574412173194686e-01,-2.817743105546678395e-01,-1.498969826544891693e-01,7.596368306129922532e-01,1.331294745968234272e+00,2.656386366434957402e-01,9.905302313130287528e-02,-4.955674237008416555e-02,1.605509102014297751e+00,-1.777725168548935919e-01,-1.104160332141157053e+00,-1.041603514044578682e-01,2.049330594640151049e-01,4.869101892473683968e-01,7.558016198039055888e-01,-5.299166145573891429e-02,-8.370393581221671209e-01,-4.803756276034624184e-01,-4.432173381587125593e-01,7.861604185210099294e-01,-7.003826757742467879e-02
6.463887778504880943e-01,-4.958458011327645520e-01,-5.023790468734891101e-01,-7.091999833112219709e-02,-4.963864937085449291e-01,8.767714875637570501e-03,-2.048658560114281491e-01,1.178241136199132510e+00,1.193105194107478839e+00,-5.556983069973937539e-01,1.699428838244287643e-01,1.118561708314818492e+00,-1.441191664087529412e-01,6.798785387145894754e-01,4.406465249238825654e-01,9.073305862702231439e-02,-4.251902161483432363e-01,5.173746523655342600e-01,-5.846542127838262326e-01,3.902510324202139169e-01,5.101349293317734013e-01,-1.207735061494229767e-01,-2.505226342178611555e-03,-3.348994313203664253e-01,-7.522042050941326607e-01,2.879933541242223338e-01,-2.197510149776245869e-01,1.779809131066581174e-01,-2.921509695008006058e-01,-1.863174836682716662e-01,-4.057464256628063315e-01,8.224159831005612986e-01,-4.912473120699840101e-01,-1.993116711061533042e-01,3.047718729560323081e-01,-9.972772971414897158e-01,-6.740537729161757974e-02,8.429022570619133514e-01,1.329230276663919785e-04,-6.864034143421513523e-01,-7.987826808002596035e-01,-1.001178797972271245e-01,-3.554262843764026125e-01,-1.683322324678895865e-01,-3.086664592198709589e-01,-2.417375927734096153e-01,-5.593575252299501921e-01,-3.316260309418175845e-01,-2.327733403276908697e-01,-8.470597421743217281e-02
-8.128648280842014351e-02,1.581207691675207805e+00,-5.422247908009620865e-01,1.023667197760545600e+00,-1.047495877442862350e-01,-6.098943558314908753e-01,4.057922713830667827e-01,5.761979511474184523e-01,1.327334088026241865e+00,-3.850858300209740182e-01,-1.161000697088122591e+00,4.630823887121797711e-01,2.334291309457091623e-01,-1.764742800055863481e-01,2.541335073635589969e-01,-1.557944550872447931e-01,3.897455973152985642e-01,-7.673767774157521648e-01,6.984293858545777001e-01,1.274033199198713939e+00,4.166102779417167334e-01,-1.010202497748954986e+00,-8.681437022537374926e-02,-3.173067592056935116e-01,-5.368324618181746777e-02,2.693293933342422175e-01,7.249624634993302452e-01,1.591458573172799262e-01,5.701024495395498048e-01,-3.624766163073981362e-01,7.685819232578156024e-01,-9.836513669652462433e-01,-1.173868327543998169e-01,-4.066630013732000504e-01,1.156590758135188857e+00,5.099853741785779354e-02,2.022460962920832606e-01,-2.693528804208976113e-01,-6.906227855080417921e-01,2.311966828371039284e-01,7.798592984548623486e-01,-3.929187157716674816e-01,-4.445352375184724036e-01,-3.596391306461160786e-01,3.823834651507144189e-01,-3.674447265714812505e-01,7.831698067644782268e-01,-1.254240775017644305e+00,-2.650707704284031019e-01,1.938310592318288339e-01
6.337263305500310910e-03,3.844683851537730179e-01,1.331229924887731508e+00,-5.496273224126815155e-02,-8.293830382530437140e-01,-6.009243036226190604e-01,5.757128565194418179e-01,-9.415647919502221352e-01,4.941146370104517183e-01,7.452553353130548786e-01,1.083834982484504217e-01,1.026987292603194490e-01,6.641907562589721703e-01,6.797587164741182297e-01,5.396927098937929212e-01,-7.274232662634509960e-01,-7.494586225706273419e-01,-9.059717332939297429e-02,3.829405055095949639e-01,5.254471847259457595e-01,-7.966272571848310724e-01,-4.050149024055756386e-01,-7.729408277641897085e-02,-5.259006647914074017e-01,-5.727410184965754381e-01,-3.119333252912886434e-01,-3.727246139415152371e-01,-3.207943306634196134e-01,-3.453567287386413720e-01,-3.107174404776729681e-01,-6.925665962066777093e-01,-7.602512250726632947e-01,6.732696858679194651e-01,9.536449678432146193e-01,1.363875019949374101e+00,-1.622967096451793934e-01,-6.617154976920829323e-01,5.434298205365883927e-01,-1.528386882920841350e-01,-2.238503111502528897e-01,-4.668478182590447001e-01,2.441029593692577715e-01,-9.360233830549373746e-01,5.316681744389655240e-01,1.107873923668287741e+00,3.715114553780343165e-01,-1.717515143566153424e-01,-7.829717078796990526e-01,-2.073697937770643818e-01,5.278438974751636925e-02
